tree
version=v4
num_class=1
num_tree_per_iteration=1
label_index=0
max_feature_idx=30
objective=binary sigmoid:1
feature_names=P1 P2 P3 P4 P5 P6 P7 P8 P9 P10 P11 P12 P13 P14 P15 P16 P17 P18 P19 P20 P21 P22 P23 P24 P25 P26 P27 P28 P29 P30 P31
feature_infos=[0:50] [0:30.33333] [0:287.93587000000002] [0:30] [0:1] [0.048390000000000002:2.3225799999999999] [0:2.7632699999999999] [0:3] [0:3313.4944399999999] [0.33333000000000002:647] [0:1815.3333299999999] [0:2452.1333300000001] [0:3469.4055600000002] [0:1985.0444399999999] [0:2451.7111100000002] [0:8.1333300000000008] [0:5357.5266700000002] [0:45.925330000000002] [0:406.66667000000001] [-68.072400000000002:177.90459999999999] [-192.65549999999999:347.6062] [0:3803.5222199999998] [0:3043.9306700000002] [0:1353.3333299999999] [0:5339.9722199999997] [0:26.899270000000001] [0:1] [0:1] [0:96.287999999999997] [0:3] [0:97.352000000000004]
tree_sizes=1730 1536 1484 1604 1610 1737 1723 1773 1351 1937 1345 1419 1253 1551 1755 1540 1131 1260 1180 1623 1163 1321 1307 968 1333 1594 1695 1243 1567 1538 1424 1502 1276 1263 1173 987 1487 1094 1427 1223 1437 1900 1405 1058 931 1123 1135 1267 1343 1501 1086 1032 944 1491 944 939 1150 1055 941 1309 1330 1042 930 1011 1608 1378 999 1058 1207 1623 1298 826 1368 1001 816 954 828 1402 1337 995 1194 1502 1112 838 1180 1138 1296 1330 820 1292 1092 1273 1513 1331 1602 1306 853 1219 1202 1251 944 1033 1104 1407 1092 1502 1397 833 1423 992 1405 1310 853 1099 1232 742 1422 1010 1124 799 1147 716 1205 1121 1522 849 1201 999 1469 1412 1107 1179 1120 1299 1182 1050 922 857 803 636 1324 1295 802 1135 1458 1139 1406 1095 1356 1114 977 1088 1121 1301 815 1216 907 1108 1088 1301 799 1094 1116 921 1031 836 1114 741 941 811 616 1286 828 746 904 932 1010 830 946 824 928 1062 833 619 1009 745 1076 906 814 1111 882 734 1212 861 722 1120 1374 631 832 1191 832 1022 897 1211 1102 867 931 1001 912 1043 809 1279 948 1141 647 823 738 947 1409 1014 1002 1039 761 1106 723 894 1173 1162

Tree=0
num_leaves=15
num_cat=0
split_feature=22 15 15 3 26 23 28 1 23 29 23 7 1 1
split_gain=438.38 105.139 88.0717 27.7515 22.7771 35.2341 9.11022 8.76492 2.6588 1.7756 1.26006 1.16072 0.568431 1.05288
threshold=93.925000000000011 1.2833350000000003 1.3166650000000002 1.0000000180025095e-35 0.27778000000000008 34.500000000000007 8.3876500000000025 28.833335000000002 193.50000000000003 1.0780450000000001 115.50000000000001 0.9435150000000001 8.1666650000000018 14.166665000000002
decision_type=2 2 2 2 2 2 2 2 2 2 2 2 2 2
left_child=2 6 11 7 5 -3 -2 12 -7 -8 -6 -1 -4 -14
right_child=1 4 3 -5 10 8 9 -9 -10 -11 -12 -13 13 -15
leaf_value=0.091189065120160492 0.014767265174943662 -0.0032184233550438921 0.015025376639437465 0.059202980514910998 -0.0033333364197583389 -0.067989126476424078 -0.0033333364197583389 -0.03312312607944301 -0.10907860426641428 -0.030045728791284452 -0.023228088158538048 0.045305599943066675 0.014669557523677827 -0.0033333364197583389
leaf_weight=274.99917973577976 141.74957811832428 32.999896004796028 63.999808862805367 75.249789193272591 31.999913290143013 296.24919418990612 88.999793112277985 56.999845013022423 165.7495406717062 57.499839678406715 56.499842151999474 111.99968901276588 20.249943733215332 120.24967756867409
leaf_count=1100 567 132 256 301 128 1185 356 228 663 230 226 448 81 481
internal_value=-0.00333334 -0.0481728 0.0503524 0.0120791 -0.0708719 -0.0790605 -0.00333334 -0.00333334 -0.0857931 -0.0175654 -0.0155943 0.0809256 0.00621584 -0.00307511
internal_weight=0 871.748 723.748 336.749 583.498 494.999 288.249 261.499 461.999 146.5 88.4998 386.999 204.499 140.5
internal_count=6382 3487 2895 1347 2334 1980 1153 1046 1848 586 354 1548 818 562
is_linear=0
shrinkage=1


Tree=1
num_leaves=14
num_cat=0
split_feature=16 15 22 22 22 3 28 1 15 9 20 7 28
split_gain=268.633 190.625 39.4239 38.2878 38.1112 15.8934 10.4911 9.75251 12.4636 4.72091 3.49395 1.04239 0.0104039
threshold=64.381665000000012 3.7166650000000003 42.315775000000009 215.98277500000003 9.408000000000003 4.5000000000000009 9.678465000000001 29.166665000000005 2.4500000000000006 36.833335000000012 0.49362500000000004 0.7820450000000001 13.942785000000002
decision_type=2 2 2 2 2 2 2 2 2 2 2 2 2
left_child=4 2 -2 9 -1 -3 10 8 -6 11 -5 -4 -11
right_child=1 5 3 6 7 -7 -8 -9 -10 12 -12 -13 -14
leaf_value=0.095211976362655382 0.058751917192837913 -0.079242403327963548 0.030233805590163195 -0.020306942412297618 0.057847221140167632 0 -0.058694773763840906 0 0.010208120676050836 -0.0015742992149222381 0 0.0072976048642307591 0
leaf_weight=167.78728030622005 92.881478652358055 398.967309653759 130.88876336812973 127.41108863055706 157.7991146594286 20.724284499883652 87.924125358462334 35.222550064325333 131.47046318650246 30.982601076364517 47.461806550621986 145.91568292677402 18.485645785927773
leaf_count=672 372 1598 524 510 632 83 352 141 526 124 190 584 74
internal_value=0 -0.025857 0.00406907 -0.00415773 0.0571483 -0.0751461 -0.0312269 0.0335361 0.0393391 0.0159018 -0.0117062 0.0210508 -0.000317623
internal_weight=0 1101.64 681.951 589.07 492.279 419.692 262.797 324.492 289.27 326.273 174.873 276.804 49.4682
internal_count=6382 4411 2730 2358 1971 1681 1052 1299 1158 1306 700 1108 198
is_linear=0
shrinkage=0.0940837


Tree=2
num_leaves=13
num_cat=0
split_feature=22 15 3 5 22 15 23 30 23 24 20 7
split_gain=282.606 116.233 37.648 35.3035 15.1075 43.1614 11.631 7.50923 5.49614 5.18124 5.03515 2.18584
threshold=38.769780000000004 3.3500000000000005 11.500000000000002 0.94837000000000016 4.1253350000000006 1.6166650000000002 276.83333500000009 14.313335 90.500000000000014 163.52777500000005 3.3527500000000008 0.89305500000000004
decision_type=2 2 2 2 2 2 2 2 2 2 2 2
left_child=4 2 6 9 -1 -6 8 -5 -2 -3 -10 -7
right_child=1 3 -4 7 5 11 -8 -9 10 -11 -12 -13
leaf_value=0.098377676593453714 0.011787250785886645 0.011979905995512007 0.076363099067330339 -0.048475218601861769 0.075573833649155583 0.011618729524536136 -0.034268531660719775 -0.091335449913758179 -0.014076408958028724 -0.031631822842654922 0.013811109452668393 -0.012073903986106561
leaf_weight=127.40964491665363 235.16466300189495 62.40840245783329 47.149741977453232 259.44359286129475 172.89612159132957 78.389669895172119 87.8502077460289 164.29463402926922 239.45870162546635 27.124558940529823 45.203810691833496 43.693071275949478
leaf_count=513 942 250 189 1042 695 314 352 661 959 109 181 175
internal_value=0 -0.0237804 0.00161786 -0.0569525 0.0652761 0.0464257 -0.00408132 -0.0681052 0.000234489 0 -0.00710953 0
internal_weight=0 1168.1 654.827 513.271 422.389 294.979 607.677 423.738 519.827 89.533 284.663 122.083
internal_count=6382 4685 2623 2062 1697 1184 2434 1703 2082 359 1140 489
is_linear=0
shrinkage=0.0940837


Tree=3
num_leaves=15
num_cat=0
split_feature=22 22 27 15 15 7 7 25 15 1 16 15 28 25
split_gain=256.095 75.2014 25.9482 14.9992 11.9379 5.42657 3.10688 3.01572 2.99044 17.9245 2.56231 1.41668 0.483685 0.330043
threshold=159.53055500000002 30.252780000000005 0.28333500000000006 5.6500000000000012 3.2833350000000006 0.96174000000000015 0.74563500000000016 2.3203800000000006 3.9833350000000007 29.833335000000002 315.84333000000009 1.2500000000000002 8.181535000000002 2.5018050000000005
decision_type=2 2 2 2 2 2 2 2 2 2 2 2 2 2
left_child=1 4 3 8 -1 7 -6 -3 9 -2 -4 -12 -7 -14
right_child=2 5 10 -5 6 12 -8 -9 -10 -11 11 -13 13 -15
leaf_value=0.074013156811419747 0 0.019002426562235046 0.011516397296364306 -0.092964798565251569 0.030265857178357395 0 0 0 -0.061164547697762105 -0.050156576824789419 0 -0.023926722571024749 -0.0098741533694821949 0
leaf_weight=289.77452872693539 135.23759245872498 316.80818895995617 45.818072810769081 100.18517312407494 42.846477970480919 110.23195570707321 31.424928277730942 68.992736503481865 130.76986408233643 161.68743276596069 24.973052874207497 40.394341707229614 69.049051314592361 17.193125784397125
leaf_count=1174 542 1272 184 406 172 442 126 277 529 649 100 163 277 69
internal_value=0 0.0311324 -0.0455122 -0.0541192 0.0644582 0.00854228 0.0153716 0.0151731 -0.0418563 -0.0297067 0 -0.0144691 -0.00132804 -0.00699916
internal_weight=0 946.321 639.066 527.88 364.046 582.275 74.2714 385.801 427.695 296.925 111.185 65.3674 196.474 86.2422
internal_count=6382 3809 2573 2126 1472 2337 298 1549 1720 1191 447 263 788 346
is_linear=0
shrinkage=0.0940837


Tree=4
num_leaves=15
num_cat=0
split_feature=15 21 22 9 1 3 22 1 9 1 11 9 24 28
split_gain=225.394 75.982 73.1867 23.5111 17.9735 7.88316 7.37911 6.34664 2.97374 2.88517 2.44655 1.16378 0.74627 0.342534
threshold=2.2833350000000006 52.400000000000013 115.43933000000001 16.166665000000005 29.500000000000004 3.5000000000000004 177.81944000000001 14.833335000000002 22.833335000000002 13.500000000000002 37.222220000000007 39.833335000000012 139.50833000000003 8.8094700000000028
decision_type=2 2 2 2 2 2 2 2 2 2 2 2 2 2
left_child=1 -1 5 -4 8 9 -6 -5 -3 -2 -11 -10 -8 -14
right_child=2 4 3 7 6 -7 12 -9 11 10 -12 -13 13 -15
leaf_value=0.075280751558300607 0.0021110518049170224 0.035741986098763383 0 -0.018436577646624711 0.010069646336887865 0.034152960125007743 0 -0.074325252876365322 0.012648617910595772 -0.019310696300984753 0 0 0 -0.029692852427265472
leaf_weight=265.535664498806 78.629067644476891 198.81412024796009 58.556631699204445 61.520709127187729 112.7827250957489 40.296053662896156 29.921809628605843 338.43795229494572 72.270527973771095 151.36374346911907 35.119589135050774 27.669460296630859 41.919302508234978 66.984018474817276
leaf_count=1085 316 799 236 250 453 162 120 1375 290 607 141 111 168 269
internal_value=0 0.0342421 -0.0364885 -0.059909 0.0124063 0 -0.00388641 -0.0679194 0.028016 -0.00684474 -0.0139536 0.00492073 -0.019658 -0.0232625
internal_weight=0 815.898 763.924 458.515 550.362 305.408 251.608 399.959 298.754 265.112 186.483 99.94 138.825 108.903
internal_count=6382 3295 3087 1861 2210 1226 1010 1625 1200 1064 748 401 557 437
is_linear=0
shrinkage=0.0940837


Tree=5
num_leaves=16
num_cat=0
split_feature=9 26 15 15 7 30 27 22 7 22 7 1 6 8 15
split_gain=217.968 67.5382 26.1025 21.4488 19.6863 16.0009 7.92045 7.60778 7.25667 5.84773 0.998125 0.556244 0.322423 0.254287 0.0313319
threshold=18.166665000000005 0.16111500000000004 3.3500000000000005 3.2166650000000003 0.66203000000000012 9.4367350000000005 0.18333500000000005 215.98277500000003 0.34992000000000006 92.319445000000016 0.85463500000000014 10.500000000000002 1.006715 0.38055500000000003 4.7500000000000009
decision_type=2 2 2 2 2 2 2 2 2 2 2 2 2 2 2
left_child=2 5 4 6 -1 14 12 -8 -4 13 -10 -12 -3 -5 -2
right_child=1 3 8 9 -6 -7 7 -9 10 -11 11 -13 -14 -15 -16
leaf_value=0.068229189398989823 -0.0047284114840987846 -0.013171354335304652 0.030810347484054878 -0.0053266863390969612 0.024118172696251498 -0.069825137523836775 0.035406911045258192 0 0 -0.038578881411769905 0 -0.015316236329667525 0 0.0068566362977021886 -0.032330025625316124
leaf_weight=277.37540322542191 89.15404686331749 36.080145165324211 61.394022658467293 16.190033629536629 240.83991581201553 306.98182013630867 134.4248064160347 51.248647272586823 47.979153528809547 123.82386769354343 22.371422439813614 59.604925289750099 21.617944791913033 24.41834644973278 40.746648833155632
leaf_count=1137 359 145 247 65 976 1252 541 206 193 506 90 240 87 98 166
internal_value=0 -0.0316429 0.038693 -0.00220873 0.0497126 -0.0570579 0.0136094 0.0240017 0.00467849 -0.0289767 -0.00400927 -0.0110547 -0.00858907 0 -0.0196436
internal_weight=0 844.686 709.565 407.804 518.215 436.883 243.372 185.673 191.35 164.432 129.956 81.9763 57.6981 40.6084 129.901
internal_count=6308 3425 2883 1648 2113 1777 979 747 770 669 523 330 232 163 525
is_linear=0
shrinkage=0.0940837


Tree=6
num_leaves=16
num_cat=0
split_feature=5 15 22 23 3 7 21 24 26 22 1 1 1 22 7
split_gain=171.474 93.3803 48.2946 16.2999 8.10081 10.0839 6.77475 3.02242 2.06121 3.04469 1.37347 1.0418 3.42888 0.6738 0.00209431
threshold=0.92176500000000006 2.6833350000000005 39.401445000000002 48.500000000000007 1.0000000180025095e-35 0.47143500000000005 420.99167000000006 14.397220000000003 0.35000000000000003 131.59861000000004 28.166665000000005 8.5000000000000018 23.500000000000004 229.29744500000001 1.1756050000000002
decision_type=2 2 2 2 2 2 2 2 2 2 2 2 2 2 2
left_child=4 2 -2 11 5 -1 8 -8 9 -4 -9 -3 -13 -5 -7
right_child=1 3 6 13 -6 14 7 10 -10 -11 -12 12 -14 -15 -16
leaf_value=0.05503235603254799 0.049474591723735202 0 0.0027247021109176686 -0.034864128050573366 0.080169657614388753 0.0048856692852918254 0 0 0.014775918457823603 -0.013937916866169251 -0.036988798824482465 0 -0.026895727084744383 -0.064263676909383144 0
leaf_weight=114.79029153287411 169.92169201374054 30.064072504639626 136.4867567718029 201.93716977536678 142.20203143358231 74.968434050679207 18.150961935520172 19.920384362339973 56.294027879834175 145.71276833117008 82.377800390124321 40.839114964008331 56.515441730618477 236.80012519657612 19.925111055374146
leaf_count=470 706 121 549 821 584 304 73 80 226 585 332 164 228 984 81
internal_value=0 -0.0166715 0.00739238 -0.0442693 0.057299 0.0362159 -0.00738657 -0.0257424 0 -0.00375118 -0.031821 -0.0074193 -0.0125603 -0.0531405 0.00436946
internal_weight=0 1195.02 628.864 566.156 351.886 209.684 458.943 120.449 338.494 282.2 102.298 127.419 97.3546 438.737 94.8935
internal_count=6308 4869 2551 2318 1439 855 1845 485 1360 1134 412 513 392 1805 385
is_linear=0
shrinkage=0.0940837


Tree=7
num_leaves=16
num_cat=0
split_feature=22 5 22 15 15 28 9 7 13 9 26 1 20 23 23
split_gain=122.523 68.2106 30.8489 25.1118 13.1223 12.0131 11.6188 6.32157 5.13086 5.27029 5.06996 0.480539 0.101997 0.0468548 0.000699032
threshold=30.252780000000005 0.94003000000000014 326.64444500000008 2.6500000000000004 3.2833350000000006 7.0392200000000011 20.166665000000005 0.66203000000000012 6.3972200000000017 27.166665000000005 0.17222500000000004 22.166665000000005 1.2239250000000002 36.166665000000002 111.83333500000002
decision_type=2 2 2 2 2 2 2 2 2 2 2 2 2 2 2
left_child=7 4 3 8 -2 12 11 -1 9 -3 -8 -5 -4 -6 -15
right_child=1 2 5 6 13 -7 10 -9 -10 -11 -12 -13 -14 14 -16
leaf_value=0.061892860422174054 0.048536081622386096 0.0038528915822710133 -0.013454364200438808 0.00055739206393140876 0.0032435175289962344 -0.064896782855519849 -0.059945320582142789 0.022130133279360427 0.022289206578096785 -0.025055991447679112 -0.016156054892231986 -0.0072877407703024937 0 0 -0.00049357532880908717
leaf_weight=209.8251816034317 134.59482751786709 196.10790014266968 74.188692227005959 36.324178025126457 30.886815071105957 199.16481013596058 114.3797858953476 137.23336490988731 91.054788887500763 61.47832715511322 105.94136147201061 71.290186390280724 18.775909870862961 40.45909295976162 16.862911060452461
leaf_count=884 547 790 304 146 124 828 475 566 366 247 433 289 77 163 69
internal_value=0 -0.013923 -0.0250942 -0.0124366 0.0309098 -0.0510149 -0.0310239 0.0489464 0.00351084 -0.0011335 -0.0431793 0 -0.0117745 0 0
internal_weight=0 1191.51 968.706 676.577 222.804 292.129 327.936 347.059 348.641 257.586 220.321 107.614 92.9646 88.2088 57.322
internal_count=6308 4858 3955 2746 903 1209 1343 1450 1403 1037 908 435 381 356 232
is_linear=0
shrinkage=0.0940837


Tree=8
num_leaves=12
num_cat=0
split_feature=5 9 15 27 5 15 3 4 27 1 12
split_gain=133.822 81.5499 39.2175 45.9551 18.3856 14.4817 5.55013 3.28869 2.93508 0.391274 0.290439
threshold=0.90744000000000014 13.833335000000002 4.283335000000001 0.14444500000000002 0.70710500000000009 3.7166650000000003 1.5000000000000002 1.0000000180025095e-35 0.48333500000000001 17.500000000000004 11.338885000000003
decision_type=2 2 2 2 2 2 2 2 2 2 2
left_child=4 5 3 7 -1 -2 -4 -3 10 -6 -5
right_child=1 2 6 8 9 -7 -8 -9 -10 -11 -12
leaf_value=0.081258626870102491 0.038953880396661957 -0.04201100400134427 -0.059305571604438424 0 0.039177316629991694 -0.0026326759520669384 0 0 0.028837965479007226 0.0099312901116621437 0.0044318728888060417
leaf_weight=141.11047506332397 227.47522827982903 270.71262641251087 283.69624680280685 27.15291653573513 66.073802664875984 65.429059535264969 24.182412430644035 28.079066574573517 67.663544341921806 110.85829429328442 217.76272682845592
leaf_count=592 945 1103 1191 110 275 264 101 114 275 454 884
internal_value=0 -0.0139152 -0.0280075 -0.0124588 0.0538834 0.0276495 -0.0556155 -0.0388452 0.0110576 0.0257345 0.00271914
internal_weight=0 1212.15 919.25 611.371 318.043 292.904 307.879 298.792 312.579 176.932 244.916
internal_count=6308 4987 3778 2486 1321 1209 1292 1217 1269 729 994
is_linear=0
shrinkage=0.0940837


Tree=9
num_leaves=18
num_cat=0
split_feature=3 22 27 9 1 15 23 28 7 12 12 28 23 16 23 23 12
split_gain=90.0942 71.4011 20.8276 18.18 16.6272 13.436 10.667 8.36406 5.1356 4.77781 3.35765 2.30525 1.20994 0.041752 0.00934746 0.00390808 0.000162758
threshold=2.5000000000000004 99.383330000000015 0.38333500000000004 15.166665000000002 26.833335000000002 1.9833350000000001 42.833335000000012 8.2123350000000013 0.72992500000000005 44.622220000000006 13.052780000000002 9.1583000000000023 149.83333500000003 242.52500000000003 159.83333500000003 74.166665000000009 29.550000000000004
decision_type=2 2 2 2 2 2 2 2 2 2 2 2 2 2 2 2 2
left_child=1 3 5 8 13 7 -7 -3 -1 10 -5 -6 -4 -2 -11 -8 -12
right_child=4 2 12 9 11 6 15 -9 -10 14 16 -13 -14 -15 -16 -17 -18
leaf_value=0.039476878739848384 0.068372066772983117 0.0016770665781699495 0.017893016933748465 -0.024884265990592888 0.021571861683084569 0 -0.015204304709869967 -0.029737556570269403 0.0072785663036790656 0.014005959053525883 0 0 0 0.004977165179435159 0 -0.056654445204918108 0.00023305407590556654
leaf_weight=186.32007314264774 162.03908602893353 100.4444644600153 37.936801597476006 101.19950395822525 48.148817107081413 38.434678673744202 54.65724141895771 115.54349318146706 139.79760080575943 37.538553893566132 32.045568734407425 53.361484542489052 45.135302037000656 25.074671074748039 20.831179141998291 304.8259367197752 17.988966226577759
leaf_count=789 687 404 154 410 196 156 226 468 574 153 130 219 185 102 85 1297 73
internal_value=0 -0.0106523 -0.0306513 0.0142189 0.047008 -0.0368019 -0.0477299 -0.0126619 0.0281967 -0.00473648 -0.0154688 0.00736706 0.00674584 0.0638591 0.0115695 -0.0526557 0
internal_weight=0 1232.7 696.978 535.721 288.624 613.906 397.918 215.988 326.118 209.604 151.234 101.51 83.0721 187.114 58.3697 359.483 50.0345
internal_count=6308 5104 2890 2214 1204 2551 1679 872 1363 851 613 415 339 789 238 1523 203
is_linear=0
shrinkage=0.0940837


Tree=10
num_leaves=12
num_cat=0
split_feature=22 3 28 22 13 5 5 16 15 5 1
split_gain=82.6689 72.8679 15.3935 12.1969 8.88733 18.1567 14.1046 5.55052 5.49781 3.60355 0.00269524
threshold=25.855555000000006 1.5000000000000002 15.447215000000002 297.58333500000009 8.9916650000000029 0.61987000000000003 0.86707000000000012 605.2600000000001 0.98333500000000018 0.82554500000000008 19.500000000000004
decision_type=2 2 2 2 2 2 2 2 2 2 2
left_child=8 2 4 -3 5 -2 -7 -6 -1 -10 -11
right_child=1 3 -4 -5 7 6 -8 -9 9 10 -12
leaf_value=0.053950452123600515 0.04386790434354277 0.042853940734723338 -0.056483396588999785 0 0.012546355708448947 0.012423553223828997 -0.030218532998823516 -0.026321383609181924 0.034867521762004312 0.00063170896740387579 0
leaf_weight=177.57779075205326 20.044041857123375 187.49248300492764 129.92888440191746 47.732212021946907 113.87341403961182 48.71066477894783 642.31408490240574 34.567791119217873 47.201701104640961 51.248860895633698 31.846332207322121
leaf_count=781 83 771 549 197 469 198 2651 145 202 213 131
internal_value=0 -0.0129387 -0.024508 0.032155 -0.0184013 -0.0227548 -0.0261484 0 0.0408852 0.0160728 0
internal_weight=0 1224.66 989.439 235.225 859.51 711.069 691.025 148.441 307.875 130.297 83.0952
internal_count=6390 5063 4095 968 3546 2932 2849 614 1327 546 344
is_linear=0
shrinkage=0.0940837


Tree=11
num_leaves=13
num_cat=0
split_feature=15 1 1 9 16 7 9 30 30 22 22 22
split_gain=97.584 37.0624 26.4674 13.8005 7.02975 5.70058 5.26898 2.62446 1.69085 0.632086 0.336449 0.275616
threshold=2.2500000000000004 26.166665000000005 19.166665000000005 47.500000000000007 289.49083500000006 0.73805000000000009 15.833335000000002 7.7287200000000009 5.5745650000000007 380.00278000000009 112.51389000000002 309.68889000000007
decision_type=2 2 2 2 2 2 2 2 2 2 2 2
left_child=2 5 4 6 -1 10 7 -4 -3 11 -2 -8
right_child=1 8 3 -5 -6 -7 9 -9 -10 -11 -12 -13
leaf_value=0.050723943928453669 0.015157806761663973 -0.0138854897107011 0.0020317129598935485 -0.031057693713831526 0 -0.013146951911088316 0.006594017266336359 0.036747099820448471 -0.048086150665989993 0 0 0
leaf_weight=235.33848947286606 105.65204539895058 84.202702954411507 78.954035148024559 55.576328724622726 29.722491726279259 148.84698396921158 219.63782854378223 106.44069421291351 351.65735106170177 45.549563571810722 44.111699104309082 19.221367225050926
leaf_count=1024 434 349 329 227 121 613 893 448 1505 186 183 78
internal_value=0 -0.0261405 0.021176 0.00715318 0.045453 0 0.0135355 0.0261278 -0.0433672 0.00253767 0.0121211 0.00549921
internal_weight=0 734.471 790.441 525.38 265.061 298.611 469.803 185.395 435.86 284.409 149.764 238.859
internal_count=6390 3084 3306 2161 1145 1230 1934 777 1854 1157 617 971
is_linear=0
shrinkage=0.0940837


Tree=12
num_leaves=11
num_cat=0
split_feature=22 5 9 22 9 15 15 22 22 2
split_gain=80.5529 39.27 30.4463 8.08401 5.22184 1.28951 3.42617 0.803022 0.654046 0.0565487
threshold=151.39788500000003 0.66450500000000012 21.166665000000005 39.401445000000002 49.500000000000007 2.7833350000000006 1.0833350000000002 516.25277500000016 129.36666500000004 14.344465000000001
decision_type=2 2 2 2 2 2 2 2 2 2
left_child=1 -1 5 9 7 6 -2 -4 -5 -3
right_child=2 3 4 8 -6 -7 -8 -9 -10 -11
leaf_value=0.068867957768482577 0.025118109763390579 0.011620834447369114 -0.017756937189157669 0.0014455545895410277 -0.059625016257466773 0 0 -0.045235608724507659 -0.0083226455357873711 0.032217959038890423
leaf_weight=106.86709170043468 61.66426183283329 244.76868097484112 248.00427566468716 392.10648222267628 141.91978433728218 75.859361588954926 31.158512845635414 73.498578205704689 62.959542438387871 77.63455505669117
leaf_count=476 249 1053 1046 1596 618 317 126 317 258 334
internal_value=0 0.0167772 -0.0268938 0.0081019 -0.0393372 0.00379241 0.0117371 -0.0270587 0 0.0192906
internal_weight=0 884.336 632.105 777.469 463.423 168.682 92.8228 321.503 455.066 322.403
internal_count=6390 3717 2673 3241 1981 692 375 1363 1854 1387
is_linear=0
shrinkage=0.0940837


Tree=13
num_leaves=14
num_cat=0
split_feature=3 9 27 16 27 27 23 15 7 7 10 21 26
split_gain=65.1281 74.569 13.996 11.3294 12.1989 9.63683 9.5365 3.87028 1.57517 4.29292 2.10011 0.0596739 0.0306303
threshold=1.0000000180025095e-35 24.500000000000004 0.075000000000000011 12.60833 0.31666500000000003 0.23888500000000004 80.833335000000019 2.0166650000000002 0.79375000000000007 1.4025200000000002 50.166665000000002 564.38055500000007 0.077780000000000002
decision_type=2 2 2 2 2 2 2 2 2 2 2 2 2
left_child=1 3 -3 -1 8 -4 -2 -8 10 -10 -5 -9 -7
right_child=6 2 5 4 -6 12 7 11 9 -11 -12 -13 -14
leaf_value=0.034617192811665941 0.047914423445500259 -0.063799516943270462 -0.042577982852499086 0.0041119163040003711 0.026679058379562769 0 0.021768872758166295 0 -0.017966445932438634 0.0051380058819184126 -0.018841718076897711 -0.0047398030407054762 -0.002028673621876826
leaf_weight=97.354322388768196 190.63435389101505 187.78217895328999 115.49424444139004 185.00660769641399 119.87780006229877 14.544789165258406 113.0430144816637 56.618938326835632 199.24305109679699 46.517129004001617 34.609634086489677 14.975934743881224 133.2749769538641
leaf_count=426 837 820 499 771 498 63 465 236 822 191 143 65 554
internal_value=0 -0.0126092 -0.0421105 0.00620487 0 -0.0226822 0.032129 0.0109957 -0.00591489 -0.0109558 0 0 -0.00141372
internal_weight=0 1133.7 451.096 682.609 585.254 263.314 375.272 184.638 465.376 245.76 219.616 71.5949 147.82
internal_count=6390 4787 1936 2851 2425 1116 1603 766 1927 1013 914 301 617
is_linear=0
shrinkage=0.0940837


Tree=14
num_leaves=16
num_cat=0
split_feature=9 15 5 27 5 20 11 3 5 22 23 1 27 21 22
split_gain=72.6212 54.6907 22.0471 10.7548 21.034 5.93761 3.27622 4.34322 3.67524 3.17862 2.86695 0.919225 0.893339 0.198295 1.41101
threshold=38.166665000000002 1.8166650000000002 0.82554500000000008 0.050000000000000003 0.91716000000000009 9.4413500000000017 52.491670000000006 6.5000000000000009 0.70710500000000009 131.59861000000004 16.500000000000004 22.166665000000005 0.23888500000000004 640.0694450000002 47.547220000000003
decision_type=2 2 2 2 2 2 2 2 2 2 2 2 2 2 2
left_child=1 2 -1 4 -3 9 7 8 -5 -2 -4 -6 -8 14 -12
right_child=5 3 10 6 11 -7 12 -9 -10 -11 13 -13 -14 -15 -16
leaf_value=0.06542849788209483 0 0.011432449455058944 0.037413564933936452 0.011720483167907659 -0.0075177343230218305 0 0 0.019841762888590724 -0.01521526234339521 -0.051351235234161886 0.021976269167280078 -0.058101370076471245 0.019923451935070051 0 0.0044501233292323335
leaf_weight=119.72717222571373 34.018383324146271 51.457511335611343 79.311841294169426 18.332253903150558 40.941263973712921 18.769343078136444 27.715784192085266 25.77934542298317 277.6874383687973 230.19541561603546 126.23525455594063 95.107302367687225 53.127606183290482 25.719325944781303 276.54604937136173
leaf_count=552 140 215 360 77 169 81 118 109 1156 1016 545 409 219 105 1119
internal_value=0 0.00879923 0.0282605 -0.0108936 -0.0291157 -0.0433895 -0.000364158 -0.00614784 -0.0110846 -0.0469564 0.0172743 -0.0488153 0.0136156 0.011369 0.0118998
internal_weight=0 1217.69 627.54 590.149 187.506 282.983 402.642 321.799 296.02 264.214 507.812 136.049 80.8434 428.501 402.781
internal_count=6390 5153 2681 2472 793 1237 1679 1342 1233 1156 2129 578 337 1769 1664
is_linear=0
shrinkage=0.0940837


Tree=15
num_leaves=14
num_cat=0
split_feature=15 3 3 22 1 27 27 23 1 22 24 28 1
split_gain=60.4625 25.2868 14.2058 13.2782 11.7866 9.75091 4.04951 3.52769 1.41908 1.2738 0.650226 0.556997 0.159559
threshold=1.5833350000000002 1.5000000000000002 12.500000000000002 159.53055500000002 23.166665000000005 0.10555500000000002 0.45000000000000001 211.16666500000002 27.166665000000005 166.55278000000004 29.602775000000005 8.6431650000000015 15.833335000000002
decision_type=2 2 2 2 2 2 2 2 2 2 2 2 2
left_child=2 4 3 8 9 -6 -7 11 -1 -2 -5 -3 -12
right_child=1 7 -4 10 5 6 -8 -9 -10 -11 12 -13 -14
leaf_value=0.032545456563465802 0 0.037549987312717491 0.06279289744629718 0.0026902514145459508 -0.04741398853782082 -0.020067706572926055 0.00023934965305328905 0 0.01068215364710158 -0.013303096701374775 0 0 -0.0068861528864988869
leaf_weight=241.49131408333778 165.95364864170551 56.146638065576553 72.908830553293228 32.083109259605408 213.02471145987511 202.89526762068272 46.431243881583214 26.103867277503014 171.70415258407593 58.349345088005066 25.888293966650963 39.964188992977142 141.79132032394409
leaf_count=1072 682 237 338 131 947 875 193 112 713 254 105 167 581
internal_value=0 -0.0151867 0.0224808 0.0158206 -0.022671 -0.0312917 -0.0138276 0.0205183 0.0254351 -0.00155301 -0.00110505 0.0287126 -0.0056954
internal_weight=0 808.869 685.867 612.958 686.654 462.351 249.327 122.215 413.195 224.303 199.763 96.1108 167.68
internal_count=6407 3467 2940 2602 2951 2015 1068 516 1785 936 817 404 686
is_linear=0
shrinkage=0.0940837


Tree=16
num_leaves=10
num_cat=0
split_feature=5 15 15 30 26 16 28 24 1
split_gain=75.4017 33.4856 11.8061 15.68 11.3859 6.87053 5.02519 2.07546 1.95931
threshold=0.84073000000000009 1.4833350000000001 5.0166650000000006 4.5140850000000006 0.23888500000000004 10.100000000000001 10.100150000000001 72.15000000000002 2.8333350000000004
decision_type=2 2 2 2 2 2 2 2 2
left_child=-1 5 4 -4 8 -2 -7 -8 -3
right_child=1 2 3 -5 -6 6 7 -9 -10
leaf_value=0.052746949671316205 0.042277619493541689 0 0 -0.047580261699819826 0.010437980006616847 0.010061210270553225 0 -0.020419572523140989 -0.022303938253465137
leaf_weight=212.52406673133373 50.3165462911129 48.27300725877285 58.543929219245911 215.45848633348942 141.10099141299725 412.07828053832054 17.491652354598045 68.180488273501396 262.55936555564404
leaf_count=963 237 203 244 975 583 1721 73 282 1126
internal_value=0 -0.00663818 -0.0201033 -0.0361047 -0.00847008 0.0100385 0.00480979 -0.0120222 -0.0191825
internal_weight=0 1274 725.936 274.002 451.933 548.067 497.75 85.6721 310.832
internal_count=6407 5444 3131 1219 1912 2313 2076 355 1329
is_linear=0
shrinkage=0.0940837


Tree=17
num_leaves=11
num_cat=0
split_feature=9 3 8 29 27 30 27 4 21 27
split_gain=42.5416 33.6147 10.8388 11.166 18.2279 5.99008 7.20674 5.10141 3.64022 0.610818
threshold=8.5000000000000018 2.5000000000000004 7.4555550000000013 0.76937500000000003 0.31666500000000003 17.345765000000004 0.18333500000000005 1.0000000180025095e-35 470.16389000000009 0.21666500000000002
decision_type=2 2 2 2 2 2 2 2 2 2
left_child=-1 2 3 9 7 6 -4 -5 -3 -2
right_child=1 8 5 4 -6 -7 -8 -9 -10 -11
leaf_value=0.039268207201359089 -0.0023378052736118993 0.031158526920915766 -0.0054772814678039055 -0.035079848189604704 0.0065158040083801733 -0.015289088862850546 0.028023104516987713 0 0 0.0083249528978507643
leaf_weight=219.89625948667526 157.03662620484829 195.87787473201752 49.540353298187256 441.4944988489151 100.48513349890709 67.888050213456154 118.0485574901104 40.694841206073761 30.658945053815842 56.42168103158474
leaf_count=1010 671 848 221 1904 421 300 493 174 128 237
internal_value=0 -0.00470429 -0.0123773 -0.0177349 -0.0243981 0.00300154 0.0145637 -0.0321951 0.0265925 0
internal_weight=0 1258.15 1031.61 796.133 582.674 235.477 167.589 482.189 226.537 213.458
internal_count=6407 5397 4421 3407 2499 1014 714 2078 976 908
is_linear=0
shrinkage=0.0940837


Tree=18
num_leaves=10
num_cat=0
split_feature=5 9 27 20 7 7 27 13 22
split_gain=59.1197 35.5399 18.4878 10.054 6.89427 9.97797 4.2571 2.83387 2.53578
threshold=0.84744500000000011 32.166665000000002 0.14444500000000002 9.0091250000000027 1.3668800000000003 0.61755000000000015 0.28333500000000006 2.8638900000000005 10.018665000000002
decision_type=2 2 2 2 2 2 2 2 2
left_child=-1 2 4 6 5 8 -3 -4 -2
right_child=1 3 7 -5 -6 -7 -8 -9 -10
leaf_value=0.046229919981010455 0.022862727905750734 -0.042246222669173245 0.0086543509904532055 0.0068483409206591987 0.016688015086541774 -0.023244927230896519 -0.0063703212123399381 0.032670471144470629 0
leaf_weight=216.52767170965672 36.553103178739548 254.38117638230324 236.67021630704403 26.507573664188385 63.10862872004509 276.64228565990925 90.079859763383865 137.98876079916954 133.3545385748148
leaf_count=1001 176 1158 1000 116 266 1172 378 576 564
internal_value=0 -0.00599744 0.00364184 -0.0302908 -0.00705818 -0.0121236 -0.0351267 0.0197636 0.00250784
internal_weight=0 1255.29 884.318 370.969 509.659 446.55 344.461 374.659 169.908
internal_count=6407 5406 3754 1652 2178 1912 1536 1576 740
is_linear=0
shrinkage=0.0940837


Tree=19
num_leaves=15
num_cat=0
split_feature=5 9 5 15 27 15 30 14 17 1 7 6 25 30
split_gain=29.6983 23.8579 22.4321 10.2589 6.56449 4.10528 3.23417 2.81235 2.77226 2.64176 1.6706 1.42113 0.00659912 0.00152459
threshold=0.96362500000000006 33.500000000000007 0.83575500000000014 1.9166650000000003 0.21666500000000002 5.1500000000000012 5.8348500000000003 11.644445000000003 0.85685000000000011 15.833335000000002 0.68149500000000007 1.0330250000000001 0.62978500000000015 4.6197850000000011
decision_type=2 2 2 2 2 2 2 2 2 2 2 2 2 2
left_child=2 3 -1 8 -3 10 13 -8 9 -2 -4 -6 -12 -5
right_child=1 4 5 6 11 -7 7 -9 -10 -11 12 -13 -14 -15
leaf_value=0.044612580882054345 0.019770021094626115 -0.038239147765548973 0.016164679464000468 0.0003399820469971655 -0.01261085714027407 -0.022707043678407021 -0.024252579426515517 0 0.029330697120298219 0 -0.0012101940561766969 0.0015410533400850141 0 0
leaf_weight=201.58734692633152 73.010856032371521 204.57512135803699 90.741726905107498 108.21700792014599 74.871803551912308 40.310100734233856 124.6422718167305 101.971306681633 90.37582540512085 210.85330136120319 31.348342835903168 39.570924058556557 56.819539159536362 15.206179484724997
leaf_count=950 323 956 389 452 320 170 540 438 388 882 131 167 237 64
internal_value=0 -0.00662546 0.022618 0.00203857 -0.0278638 0 -0.00831839 -0.0150751 0.0134303 0.00538809 0.00771371 -0.00254961 0 0
internal_weight=0 1043.29 420.807 724.277 319.018 219.22 350.037 226.614 374.24 283.864 178.91 114.443 88.1679 123.423
internal_count=6407 4530 1877 3087 1443 927 1494 978 1593 1205 757 487 368 516
is_linear=0
shrinkage=0.0940837


Tree=20
num_leaves=10
num_cat=0
split_feature=5 15 27 21 16 24 7 1 28
split_gain=35.6398 21.9296 23.766 4.05651 2.40594 2.40272 1.76017 0.845532 0.442041
threshold=0.68660500000000013 5.6833350000000005 0.28333500000000006 381.32222500000006 323.65166500000004 51.938885000000006 0.81057000000000012 19.833335000000002 8.1553000000000022
decision_type=2 2 2 2 2 2 2 2 2
left_child=-1 2 3 5 -4 7 -7 -2 -3
right_child=1 8 4 -5 -6 6 -8 -9 -10
leaf_value=0.048468216373956929 0.0078383940081444541 -0.00970328951215098 0.029805191027880283 -0.019059859700511269 0.00098887906836391676 0 -0.01336486230589613 0 -0.04455866033488224
leaf_weight=116.73875218629837 144.19568867981434 71.362993001937866 203.10331699252129 200.33990029990673 87.79484760761261 176.24940939247608 207.38296417891979 151.72308412194252 98.069676533341408
leaf_count=581 654 310 865 895 366 742 876 648 471
internal_value=0 -0.00396322 0.000152697 -0.00700467 0.0236024 -0.00229306 -0.00765602 0.00249778 -0.0347795
internal_weight=0 1340.22 1170.79 879.891 290.898 679.551 383.632 295.919 169.433
internal_count=6408 5827 5046 3815 1231 2920 1618 1302 781
is_linear=0
shrinkage=0.0940837


Tree=21
num_leaves=12
num_cat=0
split_feature=9 3 22 8 29 2 29 27 27 5 2
split_gain=24.7518 21.7152 10.2231 3.95417 5.56037 3.31135 2.74514 1.92342 0.520755 0.373876 0.156621
threshold=38.500000000000007 7.5000000000000009 10.552780000000002 2.0638900000000002 0.69237500000000007 14.706420000000003 0.8574250000000001 0.14444500000000002 0.48333500000000001 0.9884400000000001 4.6990300000000014
decision_type=2 2 2 2 2 2 2 2 2 2 2
left_child=1 2 -1 4 9 10 -6 -2 -9 -4 -5
right_child=7 -3 3 5 6 -7 -8 8 -10 -11 -12
leaf_value=0.024696681003930167 -0.035374091534490087 0.040398297321513475 0.012162580732982429 -0.005331656627396545 0 0.018328488633882863 -0.014585383529965216 -0.011027827381822626 0 0 0
leaf_weight=134.41478207707405 135.33890867233276 137.55665297806263 64.714885354042053 40.23412598669529 78.212780714035034 111.08365875482559 434.40234875679016 103.97554647922516 27.168481290340424 74.50314524769783 108.87596291303635
leaf_count=644 651 661 275 170 333 471 1852 463 113 315 460
internal_value=0 0.00627883 0.000873625 -0.0021124 -0.00653895 0.00636089 -0.0115836 -0.0250142 -0.00805963 0.00713716 0
internal_weight=0 1184 1046.44 912.027 651.833 260.194 512.615 266.483 131.144 139.218 149.11
internal_count=6408 5181 4520 3876 2775 1101 2185 1227 576 590 630
is_linear=0
shrinkage=0.0940837


Tree=22
num_leaves=12
num_cat=0
split_feature=7 20 15 9 9 28 27 8 21 4 27
split_gain=18.2192 16.4461 9.70844 6.75036 6.03026 3.10962 2.61927 2.30995 1.63984 1.03938 0.0225245
threshold=0.61277500000000007 0.69137500000000018 5.3166650000000013 38.166665000000002 37.166665000000002 8.762450000000003 0.61666500000000013 9.6750000000000025 70.827780000000018 1.0000000180025095e-35 0.23888500000000004
decision_type=2 2 2 2 2 2 2 2 2 2 2
left_child=2 3 4 6 -1 -3 7 9 -4 -2 -9
right_child=1 5 8 -5 -6 -7 -8 10 -10 -11 -12
leaf_value=0.024251763573878655 -0.014371994857905945 0.023526723974593076 0 -0.034985196551668936 0 0 0.010358847192591033 0 -0.018894680958224393 0 0.0020319558805337312
leaf_weight=397.96243496239185 431.14876665174961 107.51753126084805 23.694202303886414 138.63071762025356 50.434350833296776 122.09152521193027 19.492713212966919 20.044130966067314 57.339704960584641 36.92207308113575 39.753666758537292
leaf_count=1831 1848 460 101 649 220 542 84 87 263 157 166
internal_value=0 -0.00753741 0.0142192 -0.0152428 0.0201597 0.0124159 -0.00858741 -0.0106789 -0.0100256 -0.0130862 0
internal_weight=0 915.601 529.431 685.992 448.397 229.609 547.361 527.869 81.0339 468.071 59.7978
internal_count=6408 3993 2415 2991 2051 1002 2342 2258 364 2005 253
is_linear=0
shrinkage=0.0940837


Tree=23
num_leaves=8
num_cat=0
split_feature=5 27 15 13 22 24 6
split_gain=31.1041 13.9106 13.4002 3.90957 1.73167 2.47774 1.33347
threshold=0.86899000000000004 0.38333500000000004 1.7833350000000003 11.736110000000002 133.59988500000003 0.60277500000000017 1.2116650000000002
decision_type=2 2 2 2 2 2 2
left_child=-1 2 4 -4 -2 -6 -3
right_child=1 6 3 -5 5 -7 -8
leaf_value=0.0316224122897205 0.0066715068212616652 0.0060713489998668073 -0.023363814168809432 0 0.0093504036135985437 -0.01128472837454894 0.037035746557305488
leaf_weight=228.4493815600872 241.34241198003292 185.42544339597225 482.08646088838577 73.117723748087883 33.129447743296623 168.18507291376591 29.032260730862617
leaf_count=1106 1059 786 2162 336 137 699 123
internal_value=0 -0.00560436 -0.0106712 -0.0203391 0.000138314 -0.00448175 0.0144988
internal_weight=0 1212.32 997.861 555.204 442.657 201.315 214.458
internal_count=6408 5302 4393 2498 1895 836 909
is_linear=0
shrinkage=0.0940837


Tree=24
num_leaves=12
num_cat=0
split_feature=9 1 8 15 2 13 12 16 7 15 22
split_gain=13.6132 10.4441 9.28031 4.32253 3.99196 3.07175 2.82581 1.5291 0.861142 0.511592 0.235322
threshold=41.833335000000012 14.166665000000002 0.54166500000000017 2.2833350000000006 12.769985000000002 0.48611000000000004 57.494445000000006 51.303335000000004 1.4735300000000002 1.6166650000000002 558.29600000000016
decision_type=2 2 2 2 2 2 2 2 2 2 2
left_child=1 7 3 4 -3 -4 -2 -1 -5 -7 -8
right_child=6 2 5 8 -6 9 10 -9 -10 -11 -12
leaf_value=0.026801244065956284 -0.032656481223183847 -0.0083110706855639271 0 -0.019615812861897647 0.015911932214697555 0.020989641469436743 0 0.0046798102315893722 0 0.0037245282072608911 -0.0087701154854041112
leaf_weight=169.14939615130424 103.48313271999359 180.82670886814594 98.27253220975399 221.19486503303051 79.365400657057762 148.2762883156538 86.009479731321335 142.86385543644428 17.638464123010635 154.97844053804874 32.906583338975906
leaf_count=833 503 788 428 965 347 634 382 617 74 674 163
internal_value=0 0.00452155 0 -0.00915183 0 0.00983144 -0.0203413 0.0191386 -0.0180701 0.01464 -0.00294389
internal_weight=0 1212.57 900.553 499.025 260.192 401.527 222.399 312.013 238.833 303.255 118.916
internal_count=6408 5360 3910 2174 1135 1736 1048 1450 1039 1308 545
is_linear=0
shrinkage=0.0940837


Tree=25
num_leaves=15
num_cat=0
split_feature=29 3 27 9 15 9 9 10 15 22 15 4 23 14
split_gain=19.3565 12.9704 14.8674 16.0073 5.81195 5.42845 5.1763 1.31204 1.09965 0.843776 0.667297 0.351946 0.208258 0.000230931
threshold=0.87217000000000011 8.5000000000000018 0.31666500000000003 16.833335000000002 2.8166650000000004 9.8333350000000017 28.500000000000004 100.50000000000001 4.7166650000000008 271.56355500000001 1.2833350000000003 1.0000000180025095e-35 89.500000000000014 63.552780000000006
decision_type=2 2 2 2 2 2 2 2 2 2 2 2 2 2
left_child=4 2 3 5 6 10 -1 -6 -7 -4 -2 -5 -3 -8
right_child=1 12 9 11 7 8 13 -9 -10 -11 -12 -13 -14 -15
leaf_value=0.030615286560857474 0.018865412127477239 0.031881885117664065 0.011943350901297098 -0.032256837508332463 0.0052785551373685921 -0.017022680088903602 0 -0.014091938914497925 0 0 0 0 0 0.00024444870816480422
leaf_weight=219.91626898944378 67.998524770140648 47.716054663062096 158.57053101062775 350.90007074177265 178.79804126918316 117.26226510107517 51.106315091252327 23.662632986903191 30.795969590544701 34.616840675473213 62.189056307077408 34.397385686635971 24.816101670265198 25.672430753707886
leaf_count=1011 334 242 676 1608 790 493 218 115 130 148 266 152 107 108
internal_value=0 -0.00762164 -0.0114759 -0.0184665 0.0151718 0 0.0234822 0 -0.0130624 0.00900777 0.0124006 -0.0306874 0.0261259 0
internal_weight=0 929.263 856.731 663.543 499.156 278.246 296.695 202.461 148.058 193.187 130.188 385.297 72.5322 76.7787
internal_count=6398 4156 3807 2983 2242 1223 1337 905 623 824 600 1760 349 326
is_linear=0
shrinkage=0.0940837


Tree=26
num_leaves=16
num_cat=0
split_feature=9 15 27 13 28 3 2 12 16 27 2 4 15 15 0
split_gain=13.936 12.7784 7.67277 5.81108 9.8852 9.49176 4.04551 3.57705 1.49076 1.41311 1.28655 1.16133 0.612716 7.45944 0.458582
threshold=14.500000000000002 4.8833350000000015 0.21666500000000002 2.5666650000000009 8.0812500000000025 1.0000000180025095e-35 13.679335000000002 6.8694450000000016 589.95000000000016 0.51666500000000004 6.5568700000000009 1.0000000180025095e-35 5.283335000000001 1.8833350000000002 1.0000000180025095e-35
decision_type=2 2 2 2 2 2 2 2 2 2 2 2 2 2 2
left_child=7 2 3 5 -5 14 -4 12 -8 11 -9 -3 13 -1 -2
right_child=1 9 6 4 -6 -7 8 10 -10 -11 -12 -13 -14 -15 -16
leaf_value=0.018875334433195935 -0.028893588777013885 -0.027798591349653314 0 0.031848735204820677 -0.011409631242774049 0.0073531488837046697 0.025168473903776242 0 0 0 0.034637853259658138 0 0 -0.0078309073402774224 0
leaf_weight=206.9676059782505 181.01002536714077 214.16729237139225 106.70804214477539 66.580093502998352 93.092684015631676 62.867434591054916 137.35551981627941 30.961423173546791 31.508876994252205 14.071734011173247 89.32087653875351 14.324952796101568 40.897711426019669 113.41091302037239 19.197691172361374
leaf_count=1014 790 1039 451 285 419 272 582 141 133 60 408 67 172 484 81
internal_value=0 -0.00617459 0 -0.00753823 0.00338061 -0.0165086 0.0123609 0.0133358 0.0211319 -0.0243848 0.0286881 -0.0261283 0.0058843 0.00744445 -0.0271775
internal_weight=0 940.884 698.32 422.748 159.673 263.075 275.572 481.559 168.864 242.564 120.282 228.492 361.276 320.379 200.208
internal_count=6398 4179 3013 1847 704 1143 1166 2219 715 1166 549 1106 1670 1498 871
is_linear=0
shrinkage=0.0940837


Tree=27
num_leaves=11
num_cat=0
split_feature=22 5 15 20 30 9 9 15 7 7
split_gain=10.447 18.9887 10.6737 7.64182 6.21245 1.90832 3.8922 1.76901 0.684185 0.403682
threshold=405.01944500000008 0.81165500000000013 1.7833350000000003 0.45380000000000004 11.920535000000003 47.166665000000002 26.166665000000005 4.8166650000000013 0.58655500000000005 0.80270500000000011
decision_type=2 2 2 2 2 2 2 2 2 2
left_child=1 -1 5 8 -2 6 -3 9 -4 -5
right_child=4 2 3 7 -6 -7 -8 -9 -10 -11
leaf_value=0.032787538738374353 0 0.015489265637852143 -0.0024791230690526496 0 -0.033050476133377464 -0.00063252812837643647 -5.3356224963755214e-05 0 -0.02065138595933717 0.020640675202093433
leaf_weight=164.5996690839529 98.715102434158325 370.39543759822845 120.684799477458 34.740475714206696 109.86116194725037 34.559016898274422 99.887355327606201 55.536996334791183 280.82853785157204 47.138953521847725
leaf_count=845 452 1638 517 147 542 145 412 258 1241 201
internal_value=0 0.0038605 -0.000299022 -0.0100222 -0.0185039 0.00878106 0.0108589 0.005545 -0.0169743 0.0149272
internal_weight=0 1208.37 1043.77 538.93 208.576 504.842 470.283 137.416 401.513 81.8794
internal_count=6398 5404 4559 2364 994 2195 2050 606 1758 348
is_linear=0
shrinkage=0.0940837


Tree=28
num_leaves=14
num_cat=0
split_feature=5 20 26 15 15 28 7 21 0 28 7 28 28
split_gain=17.585 15.8333 12.67 6.19114 5.72303 3.97193 2.28685 2.24327 2.26069 2.04565 1.05201 0.0192956 0.00127389
threshold=0.70710500000000009 0.90337500000000015 0.23888500000000004 4.5500000000000016 4.916665000000001 6.5371000000000015 0.44701000000000007 27.416665000000005 1.0000000180025095e-35 9.6380000000000035 0.26845500000000005 7.2001350000000004 15.568115000000002
decision_type=2 2 2 2 2 2 2 2 2 2 2 2 2
left_child=-1 3 9 6 -5 -6 10 -8 -9 -3 11 -2 -11
right_child=1 2 -4 4 5 -7 7 8 -10 12 -12 -13 -14
leaf_value=0.034992369268390812 0 0.0063977824903404777 0.038390490482676329 0 -0.0038880662847743642 -0.039719156388136806 0.0042496197604407334 -0.011878624435207246 0.0010530163719346688 0 -0.0021807820396061014 0.011742603649884175 -0.01914904810068882
leaf_weight=110.08990724384785 95.695984423160553 115.99267543852329 115.89132885634899 37.290886119008064 96.015433236956596 124.52259002625942 53.618545308709145 454.41152031719685 41.23839208483696 33.247335463762283 32.149822235107422 73.750489488244057 26.975522577762604
leaf_count=593 439 519 497 169 422 619 248 1951 174 155 143 337 132
internal_value=0 -0.00281887 0.0153927 -0.00883058 -0.0217216 -0.0277449 -0.00333512 -0.00690978 -0.0094858 0 0.00312875 0.00792404 -0.0137556
internal_weight=0 1300.8 292.107 1008.69 257.829 220.538 750.865 549.268 495.65 176.216 201.596 169.446 60.2229
internal_count=6398 5805 1303 4502 1210 1041 3292 2373 2125 806 919 776 287
is_linear=0
shrinkage=0.0940837


Tree=29
num_leaves=14
num_cat=0
split_feature=3 9 20 13 28 23 23 27 4 6 28 6 6
split_gain=16.3892 9.66628 13.6538 5.99939 2.72975 2.47768 3.28557 1.81954 1.08788 0.697156 0.451033 0.192937 0.148401
threshold=7.5000000000000009 16.833335000000002 0.69137500000000018 13.327780000000002 12.858665000000002 7.5000000000000009 90.500000000000014 0.31666500000000003 1.0000000180025095e-35 1.0000050000000003 16.351285000000004 0.84492000000000012 1.0984700000000001
decision_type=2 2 2 2 2 2 2 2 2 2 2 2 2
left_child=1 5 3 7 -4 -1 9 8 -3 -7 -6 -9 -11
right_child=-2 2 4 -5 10 6 -8 11 -10 12 -12 -13 -14
leaf_value=0.021329454827839465 0.030290042905413244 -0.028241567992351686 0.015080176590387906 0 0 -0.0053861407043325924 0.017690927335779691 0 0 0.0044213200619646151 -0.010180241875912592 -0.0050670590097884188 0
leaf_weight=82.127492114901543 136.98938782513142 320.80194228887558 155.86677077412605 95.994841247797012 32.630640879273415 213.7950788885355 85.809296786785126 18.492529764771461 28.935046836733818 66.906736463308334 30.731633648276329 83.024369195103645 54.240846171975136
leaf_count=410 692 1494 685 428 148 952 363 78 128 289 144 353 234
internal_value=0 -0.00300708 -0.00996238 -0.0182188 0.00764193 0.00628469 0.00143521 -0.0227315 -0.0265762 -0.00113189 -0.00103615 -0.00241715 0.00111476
internal_weight=0 1269.36 766.478 547.249 219.229 502.879 420.752 451.254 349.737 334.943 63.3623 101.517 121.148
internal_count=6398 5706 3458 2481 977 2248 1838 2053 1622 1475 292 431 523
is_linear=0
shrinkage=0.0940837


Tree=30
num_leaves=13
num_cat=0
split_feature=15 1 27 20 9 27 11 27 2 7 20 2
split_gain=15.1357 8.33228 5.1481 2.78247 3.05103 1.45006 4.88693 1.24507 0.866271 0.387844 0.781142 0.0273107
threshold=5.7500000000000009 28.833335000000002 0.21666500000000002 1.3195500000000002 36.833335000000012 0.45000000000000001 2.4138900000000003 0.38333500000000004 7.1996850000000014 1.0896400000000002 -2.5421249999999995 14.458585000000001
decision_type=2 2 2 2 2 2 2 2 2 2 2 2
left_child=1 2 8 4 9 6 -2 -5 -1 10 -3 -4
right_child=5 3 11 7 -6 -7 -8 -9 -10 -11 -12 -13
leaf_value=0 0 0 0.010613652413252891 0 -0.020528661860421415 0 -0.036574886823076261 0.021059282185702261 0.0080703985648416902 0.0022326658268058798 -0.0072249333782169025 0.035803325447766779
leaf_weight=233.14514227211475 28.31251534819603 45.495749861001968 127.70395800471306 87.250598683953285 114.26875299215317 14.698485165834425 112.48595529794693 28.606178805232048 279.99079708755016 65.074394941329956 182.70055112242699 82.55955459177494
leaf_count=1064 128 195 582 384 545 64 571 119 1293 282 797 374
internal_value=0 0.00482694 0.0115377 -0.00323587 -0.00771232 -0.0253968 -0.0281857 0.00661997 0.00461779 -7.86027e-05 -0.00359998 0.0245508
internal_weight=0 1246.8 723.399 523.396 407.539 155.497 140.798 115.857 513.136 293.271 228.196 210.264
internal_count=6398 5635 3313 2322 1819 763 699 503 2357 1274 992 956
is_linear=0
shrinkage=0.0940837


Tree=31
num_leaves=14
num_cat=0
split_feature=3 10 7 11 7 26 23 15 28 27 15 2 2
split_gain=16.1097 9.82962 7.71083 2.23073 1.90098 2.71933 1.80403 1.59215 0.49161 0.350344 0.228231 0.174563 0.0104569
threshold=1.5000000000000002 80.166665000000009 0.63422000000000012 223.99444500000001 1.2138550000000004 0.23888500000000004 48.500000000000007 1.2166650000000001 8.4781500000000012 0.10555500000000002 2.7166650000000003 17.044065000000003 5.6316150000000009
decision_type=2 2 2 2 2 2 2 2 2 2 2 2 2
left_child=1 2 7 9 5 6 -4 -1 -2 -3 -9 12 -6
right_child=8 3 4 -5 11 -7 -8 10 -10 -11 -12 -13 -14
leaf_value=0.020134165697498471 0.02672942499768767 -0.037481576409356801 0 0 -0.0012029619795167978 0 -0.018446587138910463 0 0.0059463160317753082 -0.0090335943676348954 0.0040795521619679375 0.0068605230854012029 0
leaf_weight=137.25338968634605 169.17994010448456 74.790688782930374 68.261957794427872 17.124174296855927 55.426394283771515 123.79488484561443 225.07563003897667 47.226109847426414 124.94802136719227 104.19028040766716 150.15199019014835 24.293518766760826 77.077149406075478
leaf_count=661 829 379 291 77 237 527 1036 210 572 475 661 106 337
internal_value=0 -0.00383899 0 -0.02248 -0.00623259 -0.0096273 -0.0145063 0.0115309 0.0205117 -0.0256281 0.00173628 0 0
internal_weight=0 1104.67 908.561 196.105 573.93 417.132 293.338 334.631 294.128 178.981 197.378 156.797 132.504
internal_count=6398 4997 4066 931 2534 1854 1327 1532 1401 854 871 680 574
is_linear=0
shrinkage=0.0940837


Tree=32
num_leaves=12
num_cat=0
split_feature=9 27 7 5 29 29 9 19 27 10 27
split_gain=10.4493 11.8874 6.82619 4.82413 3.06577 2.47112 2.27291 1.66708 1.09119 0.568733 0.0253657
threshold=42.166665000000002 0.28333500000000006 0.25903000000000004 0.9149400000000002 0.66671000000000002 0.9090450000000001 48.500000000000007 1.1660500000000003 0.48333500000000001 23.833335000000002 0.18333500000000005
decision_type=2 2 2 2 2 2 2 2 2 2 2
left_child=1 2 3 -1 9 -6 10 8 -8 -4 -2
right_child=6 -3 4 -5 5 -7 7 -9 -10 -11 -12
leaf_value=0.026833546878573776 -0.0023764274689734516 0.021806220257051843 0.011462874007450904 0 0 -0.012367842663988316 -0.02924347662218818 0 0 0 0
leaf_weight=107.04116088151932 31.222019240260124 269.32613627612591 50.109690889716148 146.60189215838909 111.50766144692898 424.54058553278446 121.42209699749947 13.131582811474798 14.166779264807699 75.579216167330742 29.589327499270439
leaf_count=573 158 1194 223 665 489 1888 620 63 60 335 130
internal_value=0 0.0047482 0 0.0124316 -0.00544954 -0.00902648 -0.0174764 -0.0234834 -0.0265349 0.00446141 0
internal_weight=0 1184.71 915.38 253.643 661.737 536.048 209.532 148.72 135.589 125.689 60.8113
internal_count=6398 5367 4173 1238 2935 2377 1031 743 680 558 288
is_linear=0
shrinkage=0.0940837


Tree=33
num_leaves=11
num_cat=0
split_feature=9 10 15 1 8 29 29 15 9 9
split_gain=7.90316 6.72733 3.37256 0.595923 1.66901 0.573745 2.32661 0.0796655 0.0715917 0.60524
threshold=49.500000000000007 93.833335000000019 4.3166650000000013 22.166665000000005 1.7777750000000003 1.1515250000000001 0.67497000000000018 4.9500000000000002 31.166665000000005 24.833335000000002
decision_type=2 2 2 2 2 2 2 2 2 2
left_child=1 2 5 -3 -5 6 -1 -2 9 -4
right_child=7 3 8 4 -6 -7 -8 -9 -10 -11
leaf_value=0.021893709249027948 -0.0045334072577444522 0 0.0027772755262326014 -0.029026157451646193 0 0.0017343170781831923 0.0051952800376429895 -0.030784876983789393 -0.0030902430987788353 -0.0092071083020306213
leaf_weight=180.82345771789551 93.466700032353401 26.826571598649025 181.87377940118313 50.105982065200806 51.568011119961739 250.91335332393646 408.09362348914146 46.744385287165642 62.415799856185913 37.337392747402191
leaf_count=857 436 125 790 230 228 1129 1836 273 314 180
internal_value=0 0.00368827 0.0064705 -0.0146369 -0.0177271 0.00953431 0.0116736 -0.0190147 -0.000388752 0
internal_weight=0 1249.96 1121.46 128.501 101.674 839.83 588.917 140.211 281.627 219.211
internal_count=6398 5689 5106 583 458 3822 2693 709 1284 970
is_linear=0
shrinkage=0.0940837


Tree=34
num_leaves=10
num_cat=0
split_feature=27 10 1 28 7 7 7 15 15
split_gain=10.1449 5.63488 5.95155 2.63132 1.54788 0.312483 0.21899 0.0516133 7.03744
threshold=0.14444500000000002 27.833335000000002 27.500000000000004 16.310235000000002 0.9023850000000001 1.2077450000000003 1.4735300000000002 2.0166650000000002 4.6500000000000012
decision_type=2 2 2 2 2 2 2 2 2
left_child=1 4 5 7 -1 -3 -6 -2 -9
right_child=3 2 -4 -5 6 -7 -8 8 -10
leaf_value=0.0079612203863178195 0.016384269505071641 -0.0017446352284160194 -0.021432792069084522 -0.000366361814060171 -0.0055327391625124697 0.0072342167417773773 0 0.020149702208422104 -0.0088201812806383648
leaf_weight=206.84246864914894 290.6444675475359 155.2450984120369 271.11865609884262 58.591366305947304 95.891050145030022 34.791523158550262 28.895442724227905 139.20019844174385 106.44428052008152
leaf_count=1002 1328 720 1310 266 415 154 129 595 479
internal_value=0 -0.00581662 -0.0127021 0.0102347 0.00188422 0 -0.00307201 0.0125996 0.0051087
internal_weight=0 792.784 461.155 594.88 331.629 190.037 124.786 536.289 245.644
internal_count=6398 3730 2184 2668 1546 874 544 2402 1074
is_linear=0
shrinkage=0.0940837


Tree=35
num_leaves=9
num_cat=0
split_feature=5 26 23 29 13 13 16 14
split_gain=12.0243 8.25353 7.45933 4.01322 2.51584 1.99767 1.74229 0.397941
threshold=0.76087500000000008 0.27778000000000008 28.833335000000002 1.3050300000000001 0.38611000000000006 7.5611150000000009 445.88333500000005 70.625000000000014
decision_type=2 2 2 2 2 2 2 2
left_child=3 2 -2 -1 -3 -6 -7 -4
right_child=1 4 7 -5 5 6 -8 -9
leaf_value=0.0347284493717432 0.0083779951726655113 0 -0.011573561446403924 0 0 0.030567228951131797 0 0
leaf_weight=106.85628705471754 183.95783416926861 83.035189911723137 708.13231717050076 23.57159449160099 101.39195749163628 89.930215075612068 35.027509912848473 58.908749118447304
leaf_count=594 847 364 3224 130 443 388 150 286
internal_value=0 -0.001667 -0.00645302 0.0273103 0.0107336 0.0158351 0.0239512 -0.0109193
internal_weight=0 1260.38 950.999 130.428 309.385 226.35 124.958 767.041
internal_count=6426 5702 4357 724 1345 981 538 3510
is_linear=0
shrinkage=0.0940837


Tree=36
num_leaves=14
num_cat=0
split_feature=3 9 26 13 25 13 2 13 6 22 22 6 17
split_gain=8.62391 5.89344 9.15115 6.68769 2.38434 1.77983 1.72673 0.812945 0.774405 0.15458 4.40646 0.149255 0.147697
threshold=3.5000000000000004 16.833335000000002 0.11666500000000002 11.002780000000001 2.2052000000000005 3.2055550000000008 12.086520000000002 2.2250000000000005 0.94406000000000012 24.356890000000003 58.794445000000003 0.96594500000000016 3.5285350000000002
decision_type=2 2 2 2 2 2 2 2 2 2 2 2 2
left_child=1 6 12 5 -2 7 9 -4 -8 11 -11 -1 -3
right_child=4 2 3 -5 -6 -7 8 -9 -10 10 -12 -13 -14
leaf_value=0 0.022908694719239821 -0.02235252971113183 -0.013700800673233322 0.017570368459140426 0 0 0 0 0.02004822947734582 -0.01825117571551407 0.0074755745809651783 0.0050932281090628664 0
leaf_weight=28.260206654667854 170.08495827019215 242.24611592292786 195.75859135389328 133.34002639353275 41.77458718419075 87.955573007464409 30.587264209985733 19.779233410954475 80.494365260004997 80.691124632954597 157.57046435773373 95.298820406198502 23.227636367082596
leaf_count=141 852 1190 869 586 198 392 141 90 367 348 664 473 115
internal_value=0 -0.0019433 -0.00777661 0 0.0181541 -0.0070248 0.00532449 -0.011791 0.0155515 0.000105358 0 0.00322329 -0.0212723
internal_weight=0 1175.21 702.307 436.833 211.86 303.493 472.902 215.538 111.082 361.821 238.262 123.559 265.474
internal_count=6426 5376 3242 1937 1050 1351 2134 959 508 1626 1012 614 1305
is_linear=0
shrinkage=0.0940837


Tree=37
num_leaves=10
num_cat=0
split_feature=15 30 13 5 6 29 27 30 13
split_gain=8.96494 5.65153 6.7541 3.44838 1.77151 0.974751 0.861079 0.341928 0.320667
threshold=1.9166650000000003 12.947700000000003 2.3916650000000002 0.83575500000000014 1.0118550000000002 1.3560750000000004 0.38333500000000004 8.0812500000000025 8.1361100000000022
decision_type=2 2 2 2 2 2 2 2 2
left_child=3 4 -3 -1 6 -5 8 -6 -2
right_child=1 2 -4 5 7 -7 -8 -9 -10
leaf_value=0.026211033362739153 -0.0079144716841454878 -0.031090032559817463 0 0.0064893029800723 0.01093326743456691 0 0 0 0
leaf_weight=97.329110741615295 239.79435284435749 132.16204062104225 120.35259740054607 475.15394219756126 105.34537199139595 97.95502682030201 24.624747514724731 60.10378560423851 30.746747881174088
leaf_count=584 1093 655 588 2095 457 431 103 280 140
internal_value=0 -0.00602375 -0.0170863 0.00891373 0 0.00449276 -0.00409574 0.00780039 -0.00675032
internal_weight=0 713.13 252.515 670.438 460.615 573.109 295.166 165.449 270.541
internal_count=6426 3316 1243 3110 2073 2526 1336 737 1233
is_linear=0
shrinkage=0.0940837


Tree=38
num_leaves=13
num_cat=0
split_feature=5 15 27 20 20 28 24 28 3 1 20 1
split_gain=7.94541 7.07644 8.1874 7.21648 2.58462 2.23688 1.60129 1.56026 1.16119 0.329042 0.302886 0.0527565
threshold=0.58136500000000013 6.283335000000001 0.28333500000000006 0.56367500000000004 -1.4723999999999997 4.7143650000000008 133.00833500000002 5.0131500000000004 3.5000000000000004 9.8333350000000017 0.039750000000000008 23.500000000000004
decision_type=2 2 2 2 2 2 2 2 2 2 2 2
left_child=-1 2 5 4 -4 8 9 -3 11 -7 -6 -2
right_child=1 7 3 -5 10 6 -8 -9 -10 -11 -12 -13
leaf_value=0.029838909675918044 0 0 0.015120631070079035 0.035181718336915233 -0.0064395610917238636 -0.006549353083060672 -0.012358191429016967 -0.037438613691094476 0.014012121066738747 0 0 -0.0015028457930822674
leaf_weight=70.752350598573685 152.54596445709467 17.704762697219849 83.08050999045372 93.867139607667923 106.45459459722042 59.36593421548605 276.98161274194717 45.996652171015739 45.023491442203522 207.90433080494404 22.560720443725586 198.22847661375999
leaf_count=424 675 84 369 413 468 286 1321 253 214 948 99 872
internal_value=0 -0.000557055 0.00058064 0.0141565 0.000839882 -0.00322542 -0.0072967 -0.0294437 0.00076614 0 -0.00389553 0
internal_weight=0 1309.71 1246.01 305.963 212.096 940.05 544.252 63.7014 395.798 267.27 129.015 350.774
internal_count=6426 6002 5665 1349 936 4316 2555 337 1761 1234 567 1547
is_linear=0
shrinkage=0.0940837


Tree=39
num_leaves=11
num_cat=0
split_feature=5 9 26 29 16 19 28 2 2 16
split_gain=7.89595 6.31733 7.60468 10.503 3.43466 1.05938 0.824913 1.26674 0.274541 4.0856e-06
threshold=0.82554500000000008 7.5000000000000009 0.077780000000000002 0.8574250000000001 6.7883300000000011 -0.51394999999999991 13.514965000000002 14.659515000000003 17.896220000000003 1.6333350000000002
decision_type=2 2 2 2 2 2 2 2 2 2
left_child=4 -2 3 -3 9 -5 7 -4 -8 -1
right_child=1 2 6 5 -6 -7 8 -9 -10 -11
leaf_value=0 0.019104971781411708 0.004384554731282287 0 0 0.025894015301271507 -0.025641328583119238 -0.0090761966124239483 0.009898079524145377 0 -3.830350174667029e-05
leaf_weight=14.78766977787018 100.05260872840881 124.09528112411499 386.40338338911533 19.077428415417671 137.49517861008644 273.71372447907925 41.750325694680214 170.95178508758545 92.582809552550316 16.113236427307129
leaf_count=96 482 577 1686 92 732 1293 193 751 424 100
internal_value=0 -0.00155914 -0.00415042 -0.0141995 0.0195337 -0.0241812 0.00105699 0.00335559 -0.00346195 0
internal_weight=0 1208.63 1108.57 416.886 168.396 292.791 691.688 557.355 134.333 30.9009
internal_count=6426 5498 5016 1962 928 1385 3054 2437 617 196
is_linear=0
shrinkage=0.0940837


Tree=40
num_leaves=13
num_cat=0
split_feature=1 13 28 9 19 15 9 0 9 27 9 2
split_gain=9.25088 9.68801 7.07222 6.29597 3.79987 5.81726 3.33459 0.448013 3.21306 0.266641 0.243137 0.00730491
threshold=26.833335000000002 7.5611150000000009 7.9705850000000007 5.8333350000000008 -0.019024999999999997 1.6166650000000002 14.166665000000002 6.4583350000000008 23.500000000000004 0.35000000000000003 30.166665000000005 14.766585000000001
decision_type=2 2 2 2 2 2 2 2 2 2 2 2
left_child=3 4 -3 -1 10 7 -5 8 -6 -4 -2 -11
right_child=1 2 9 6 5 -7 -8 -9 -10 11 -12 -13
leaf_value=0.032549295146134152 0.0069029900413147089 0.03334300578399263 -0.0050267082242817273 -0.0028588492530961965 0.00042106435640634993 -0.026339215117118491 0.010418672021531645 0 -0.019584735149414639 0 0 0.0012357603113760998
leaf_weight=79.723837085068226 36.629189878702164 61.132650762796402 84.872647300362587 257.98178148269653 117.42543713748455 271.61871854960918 290.55293099582195 19.408439174294472 77.600705072283745 15.318515434861181 24.262142017483711 33.806149169802666
leaf_count=448 161 266 410 1231 505 1329 1315 81 335 65 122 145
internal_value=0 -0.0072065 0.0085399 0.00820827 -0.0140648 -0.0170347 0.00303375 -0.00171299 -0.00476399 0 0 0
internal_weight=0 742.075 195.13 628.259 546.945 486.053 548.535 214.435 195.026 133.997 60.8913 49.1247
internal_count=6413 3419 886 2994 2533 2250 2546 921 840 620 283 210
is_linear=0
shrinkage=0.0940837


Tree=41
num_leaves=18
num_cat=0
split_feature=20 29 29 2 15 19 1 15 1 15 15 25 15 4 16 15 15
split_gain=9.22932 13.0054 5.4381 5.56548 4.94567 3.21321 3.77081 1.20691 1.09047 0.758609 0.382708 0.376489 0.230007 0.0820101 0.0390788 0.0364061 0.660995
threshold=0.90337500000000015 0.95082500000000014 0.29146500000000003 8.1605350000000012 1.0500000000000003 -0.0027249999999999996 20.500000000000004 3.6166650000000007 24.166665000000005 2.3166650000000004 3.0166650000000002 1.0545750000000003 5.5833350000000008 1.0000000180025095e-35 299.94333000000006 5.8166650000000013 5.1166650000000002
decision_type=2 2 2 2 2 2 2 2 2 2 2 2 2 2 2 2 2
left_child=1 2 8 -4 -5 14 13 9 -1 -2 -11 -8 -6 -7 -3 16 -9
right_child=7 5 3 4 12 6 11 15 -10 10 -12 -13 -14 -15 -16 -17 -18
leaf_value=0.029701445560260289 0.022723486021718291 0.0027799102108188368 -0.014856664374515466 0.024606632063702179 0 -0.0021811382319523037 -0.0085760453474810275 0.01066045651097026 0 -0.0020203677603012615 0.011324881998752709 -0.028261529567720375 -0.0073107404505306662 0 0 0 0
leaf_weight=79.499610587954521 149.09541077911854 36.225646764039993 129.77543706446886 94.709472335875034 103.74747695028782 164.61497469246387 149.75125748664141 45.78382371366024 53.142061501741409 20.081335783004761 16.966667681932449 199.7493998631835 29.556957006454468 13.592415556311606 22.23250924050808 30.996904402971268 27.132458686828613
leaf_count=418 677 168 593 434 478 796 675 208 240 87 75 939 160 62 108 165 130
internal_value=0 -0.0040387 0.00631109 0 0.00889973 -0.0137812 -0.0162378 0.0146398 0.0219485 0.0195857 0 -0.0220874 0 -0.000723717 0 0 0.00198907
internal_weight=0 1076.6 490.431 357.789 228.014 586.166 527.708 290.057 132.642 186.143 37.048 349.501 133.304 178.207 58.4582 103.913 72.9163
internal_count=6413 5071 2323 1665 1072 2748 2472 1342 658 839 162 1614 638 858 276 503 338
is_linear=0
shrinkage=0.0940837


Tree=42
num_leaves=13
num_cat=0
split_feature=20 5 28 23 2 19 15 22 6 2 22 15
split_gain=8.62038 7.28481 5.87042 5.03396 3.41896 3.23671 4.58039 2.61404 1.1661 0.677831 0.222353 0.032008
threshold=0.65425000000000011 0.83104500000000014 8.4781500000000012 21.500000000000004 8.1605350000000012 -2.1330249999999995 1.8166650000000002 67.917335000000023 1.0363350000000002 14.425135000000003 268.03175000000005 3.5166650000000002
decision_type=2 2 2 2 2 2 2 2 2 2 2 2
left_child=1 7 -2 4 -3 11 9 -1 -8 -7 -4 -5
right_child=2 3 10 5 -6 6 8 -9 -10 -11 -12 -13
leaf_value=0 0.026686762067644539 0 0.0035220625408036018 0 0.025496686130353045 -0.0058030272586458466 -0.021647704224480341 0.029468566339874498 0 0 -0.002771520401414988 0.0061681316170296083
leaf_weight=102.75584494322538 146.87629462778568 81.678392067551613 106.76940269768238 36.069243967533112 46.051835119724274 221.04245275259018 357.49321472644806 49.233836069703102 30.77705904841423 108.21276091039181 61.484741002321243 15.581838190555571
leaf_count=613 664 371 484 157 226 943 1730 236 135 469 309 76
internal_value=0 -0.00407818 0.0134691 -0.00779678 0.006191 -0.0110161 -0.0129836 0.0129759 -0.020156 -0.00226379 0 0.00324626
internal_weight=0 1048.9 315.13 896.907 127.73 769.177 717.525 151.99 388.27 329.255 168.254 51.6511
internal_count=6413 4956 1457 4107 597 3510 3277 849 1865 1412 793 233
is_linear=0
shrinkage=0.0940837


Tree=43
num_leaves=9
num_cat=0
split_feature=20 3 28 14 4 19 28 1
split_gain=4.57756 10.2862 6.06374 2.64203 2.40343 4.26247 0.447725 0.260832
threshold=0.083325000000000024 4.5000000000000009 9.5205150000000014 1.8388850000000001 1.0000000180025095e-35 -0.0080249999999999991 12.043600000000001 24.166665000000005
decision_type=2 2 2 2 2 2 2 2
left_child=1 3 -2 7 5 -5 -4 -1
right_child=2 -3 6 4 -6 -7 -8 -9
leaf_value=0.0023290839418142859 0.01971638287678442 0.019351066515235889 0 0.00070781385631945052 0 -0.01714445621889776 -0.0064454564812539651 -0.0033580603965951902
leaf_weight=154.29852718114853 205.79571758210659 127.61322432011366 108.78097881376743 67.419440560042858 46.555997177958488 444.87490867078304 87.461792945861816 117.87675225734711
leaf_count=740 935 670 514 315 205 2085 420 529
internal_value=0 -0.00334946 0.00850068 -0.00778777 -0.0114438 -0.0135468 -0.000349272 0
internal_weight=0 958.639 402.038 831.026 558.85 512.294 196.243 272.175
internal_count=6413 4544 1869 3874 2605 2400 934 1269
is_linear=0
shrinkage=0.0940837


Tree=44
num_leaves=8
num_cat=0
split_feature=27 15 15 2 23 11 14
split_gain=8.94167 5.74211 11.2911 3.94518 3.39045 2.231 0.318675
threshold=0.28333500000000006 2.2833350000000006 0.31666500000000003 10.774800000000001 37.166665000000002 0.069445000000000021 13.302775000000002
decision_type=2 2 2 2 2 2 2
left_child=1 2 5 -2 -3 -1 -6
right_child=3 4 -4 -5 6 -7 -8
leaf_value=0 0 0 0.013606931842936173 0.021197681225857863 -0.0065774722501232979 -0.018330661432434499 -0.022307540412452392
leaf_weight=24.394655361771584 110.00288183987141 141.71302108466625 326.94332778453827 209.07299806177616 207.97728790342808 169.14087556302547 169.23175913095474
leaf_count=133 499 617 1553 936 1016 765 894
internal_value=0 -0.00394272 0.00200239 0.0138517 -0.0111007 -0.0140613 -0.0156939
internal_weight=0 1039.4 520.479 319.076 518.922 193.536 377.209
internal_count=6413 4978 2451 1435 2527 898 1910
is_linear=0
shrinkage=0.0940837


Tree=45
num_leaves=10
num_cat=0
split_feature=9 12 2 29 29 29 13 20 7
split_gain=7.79534 9.09202 5.01858 3.64807 1.16059 1.15442 1.15007 0.874565 0.426724
threshold=32.166665000000002 62.322220000000009 8.0808850000000021 1.2660400000000001 0.83284000000000014 0.77790000000000015 2.6277750000000002 -0.55867499999999992 0.36492000000000008
decision_type=2 2 2 2 2 2 2 2 2
left_child=2 -2 5 4 -4 8 -7 -3 -1
right_child=1 7 3 -5 -6 6 -8 -9 -10
leaf_value=0 -0.024537341158772787 0 0.024187204435049955 0 0.0073002950780268697 -0.008230448594911512 0 0.009570943897771883 0.008378866271187134
leaf_weight=48.236097939312458 185.11856660246849 64.066393569111824 170.45955231785774 124.4458764642477 280.08197516202927 254.45268253982067 45.386418849229813 90.897446200251579 84.098965749144554
leaf_count=256 956 307 818 570 1296 1174 203 421 374
internal_value=0 -0.0103691 0.00572173 0.0115269 0.015467 -0.000568462 -0.00497577 0.0028915 0.00439917
internal_weight=0 340.082 1007.16 574.987 450.542 432.174 299.839 154.964 132.335
internal_count=6375 1684 4691 2684 2114 2007 1377 728 630
is_linear=0
shrinkage=0.0940837


Tree=46
num_leaves=10
num_cat=0
split_feature=29 6 27 26 9 27 13 22 9
split_gain=7.18906 8.81975 4.11369 2.57961 1.57637 1.00753 0.296203 0.262176 0.0237396
threshold=0.8005000000000001 0.9933550000000001 0.14444500000000002 0.17222500000000004 11.166665000000002 0.45000000000000001 9.2833350000000028 11.794415000000003 48.500000000000007
decision_type=2 2 2 2 2 2 2 2 2
left_child=3 5 4 -1 7 -2 -4 -3 -5
right_child=1 2 6 8 -6 -7 -8 -9 -10
leaf_value=0.019218482312213365 -0.015852045850536546 0.010071548846487617 0.0045290888301057989 0.0011244662101199947 -0.0070115340433000587 0 0.023128041361759645 0 0
leaf_weight=209.50550003349781 335.25980724394321 41.615973934531212 175.08241039514542 157.65583139657974 234.43400511145592 48.456587806344032 71.008613079786301 52.844560012221336 19.334217458963394
leaf_count=1041 1605 231 795 729 1121 216 313 235 89
internal_value=0 -0.00277362 0.00371145 0.0120857 -0.00149847 -0.0140538 0.0130996 0.0051827 0
internal_weight=0 958.702 574.986 386.496 328.895 383.716 246.091 94.4605 176.99
internal_count=6375 4516 2695 1859 1587 1821 1108 466 818
is_linear=0
shrinkage=0.0940837


Tree=47
num_leaves=12
num_cat=0
split_feature=29 12 13 14 14 15 15 5 5 2 25
split_gain=4.93445 6.70562 2.12355 1.98175 1.33042 0.855309 1.51161 0.15192 0.827307 0.0599891 0.0564488
threshold=0.62211500000000008 74.552775000000011 3.6972250000000004 29.333335000000002 28.652775000000002 4.3500000000000005 0.98333500000000018 1.0927500000000003 1.0231300000000003 16.681185000000003 2.2639900000000002
decision_type=2 2 2 2 2 2 2 2 2 2 2
left_child=3 2 4 -1 7 6 -3 8 -2 -6 -4
right_child=1 5 10 -5 9 -7 -8 -9 -10 -11 -12
leaf_value=0.017819625384586524 -0.01165037694965775 0 0.0018622763522522135 0 0.0024425622767506065 0 0.027682597782198674 0 0 0 0
leaf_weight=184.37903574854136 453.07337951660156 74.971977308392525 168.58610017597675 63.331321999430656 80.467811033129692 46.449449896812439 67.447875767946243 74.57260374724865 63.643687158823013 26.951042979955673 39.986179441213608
leaf_count=918 2179 331 789 296 376 239 299 344 285 133 186
internal_value=0 -0.00114515 -0.00506859 0.0130615 -0.00772547 0.0137418 0.0172364 -0.00948707 -0.0102637 0 0.000726538
internal_weight=0 1096.15 907.281 247.71 698.709 188.869 142.42 591.29 516.717 107.419 208.572
internal_count=6375 5161 4292 1214 3317 869 630 2808 2464 509 975
is_linear=0
shrinkage=0.0940837


Tree=48
num_leaves=12
num_cat=0
split_feature=27 13 10 17 15 10 29 20 29 1 20
split_gain=2.98217 3.80232 4.89466 3.72228 2.96324 2.07909 0.580387 1.22376 1.0407 0.299972 0.263882
threshold=1.0000000180025095e-35 1.7583350000000002 92.833335000000019 2.3253350000000004 1.8166650000000002 103.16666500000001 1.0686800000000003 4.2472250000000011 0.99963000000000013 27.500000000000004 0.90337500000000015
decision_type=2 2 2 2 2 2 2 2 2 2 2
left_child=3 2 6 4 -1 10 8 -8 -2 -6 -3
right_child=1 5 -4 -5 9 -7 7 -9 -10 -11 -12
leaf_value=0 0.0083863378108700003 0.0070006125183960559 -0.024284432829463874 0.015762026131772078 -0.0032333272536255618 0 -0.005140207113515002 0.014474342577256933 0 -0.025212857868429854 0.023657310349374107
leaf_weight=147.67945549637079 229.28556757420301 253.91960848867893 60.901132792234421 34.930711694061756 103.72913533449173 74.145392954349518 162.41862586140633 21.608229786157608 72.017067790031433 86.918643921613693 96.034626334905624
leaf_count=711 1092 1165 292 186 476 357 748 100 334 477 437
internal_value=0 0.00416627 0 -0.00532313 -0.00974916 0.0108198 0.00219375 0 0.00492463 -0.0172396 0.0138787
internal_weight=0 970.33 546.231 373.258 338.327 424.1 485.329 184.027 301.303 190.648 349.954
internal_count=6375 4525 2566 1850 1664 1959 2274 848 1426 953 1602
is_linear=0
shrinkage=0.0940837


Tree=49
num_leaves=14
num_cat=0
split_feature=7 23 13 6 21 2 5 8 6 2 23 24 2
split_gain=3.11326 5.89836 2.01902 3.56285 1.52961 3.55666 0.640278 0.193525 0.0609843 0.119032 0.0522643 0.298004 0.04161
threshold=0.067015000000000005 82.833335000000019 1.9027800000000001 1.0570600000000001 283.71111000000002 5.3767000000000005 0.93863000000000019 3.3694450000000002 1.3285850000000001 10.210065000000002 228.16666500000002 266.37500000000006 6.6602500000000004
decision_type=2 2 2 2 2 2 2 2 2 2 2 2 2
left_child=1 -1 4 7 5 -2 -3 -4 9 -7 11 -6 -9
right_child=2 6 3 -5 10 8 -8 12 -10 -11 -12 -13 -14
leaf_value=0.020345999930813381 -0.018963804376701515 0 -0.0038472144323288904 0.017416497898089481 0.0067263311266713803 0 -0.0078906680657978168 0 0 -0.0028849757431591593 0 0 0.0015255122874818458
leaf_weight=182.1616445928812 156.31993689388037 16.037174105644226 107.63823678344488 110.65050476789474 60.000497058033943 131.32892583310604 96.389952629804611 28.316336125135422 23.818325862288475 182.91474165022373 39.239237517118454 57.523202568292618 149.73263703286648
leaf_count=973 704 82 506 508 278 601 453 132 110 839 206 281 702
internal_value=0 0.00954138 -0.000980458 0.00337892 -0.00465009 -0.0074354 -0.00267475 -0.00014825 0 -0.00129321 4.6303e-05 0.00191644 0
internal_weight=0 294.589 1047.48 396.338 651.145 494.382 112.427 285.687 338.062 314.244 156.763 117.524 178.049
internal_count=6375 1508 4867 1848 3019 2254 535 1340 1550 1440 765 559 834
is_linear=0
shrinkage=0.0940837


Tree=50
num_leaves=10
num_cat=0
split_feature=13 10 30 29 20 1 1 12 23
split_gain=4.36486 6.74138 1.45308 1.36493 1.13366 0.719154 0.7033 0.66469 0.128118
threshold=16.397220000000001 95.166665000000009 9.321765000000001 1.2660400000000001 -1.8915499999999998 4.8333350000000008 26.833335000000002 11.180555000000002 304.00000000000006
decision_type=2 2 2 2 2 2 2 2 2
left_child=1 4 -3 8 7 -4 -6 -1 -2
right_child=3 2 5 -5 6 -7 -8 -9 -10
leaf_value=0 0.020395280947404611 0 0 0 0.00039424612164833502 -0.028668280426742011 -0.0041281278617972331 0.01179618913739508 0
leaf_weight=85.958515077829361 102.02917192876339 27.434315539896488 16.434369407594204 35.316015928983688 442.047622397542 94.597003474831581 403.28729316592216 99.662819519639015 27.783401295542717
leaf_count=431 459 126 83 159 2117 483 1878 470 134
internal_value=0 -0.00223062 -0.0211141 0.0137379 0 -0.025606 -0.00100514 0.00687322 0.0180065
internal_weight=0 1169.42 138.466 165.129 1030.96 111.031 845.335 185.621 129.813
internal_count=6340 5588 692 752 4896 566 3995 901 593
is_linear=0
shrinkage=0.0940837


Tree=51
num_leaves=9
num_cat=0
split_feature=15 27 29 28 6 24 12 24
split_gain=3.26826 2.48281 4.24871 1.48739 1.26322 1.05318 3.48006 0.187694
threshold=5.1833350000000005 0.38333500000000004 0.86410500000000012 10.805335000000001 1.0077950000000002 5.2361100000000009 2.8916650000000002 322.71944500000006
decision_type=2 2 2 2 2 2 2 2
left_child=1 2 7 4 -2 -4 -7 -1
right_child=3 -3 5 -5 -6 6 -8 -9
leaf_value=0.0099937705780318523 -0.0092788993124007461 0.011305731439977141 0 -0.02389984926208575 0.0033908586701669238 -0.017786866984598946 0 0
leaf_weight=248.81827048957348 114.34681426733732 200.37698093056679 127.02919804304838 56.431457325816154 66.417043469846249 161.18032967299223 298.36272963136435 60.530294790863991
leaf_count=1206 574 913 631 323 317 734 1365 277
internal_value=0 0.00206822 0 -0.00992458 -0.00117222 -0.00477459 -0.00699285 0.00869661
internal_weight=0 1096.3 895.921 237.195 180.764 586.572 459.543 309.349
internal_count=6340 5126 4213 1214 891 2730 2099 1483
is_linear=0
shrinkage=0.0940837


Tree=52
num_leaves=8
num_cat=0
split_feature=20 15 3 1 10 22 4
split_gain=2.93646 2.34607 3.95735 1.45465 1.09112 0.866848 0.854289
threshold=10.471775000000003 6.6833350000000005 1.0000000180025095e-35 29.500000000000004 31.500000000000004 268.03175000000005 1.0000000180025095e-35
decision_type=2 2 2 2 2 2 2
left_child=1 2 3 4 -1 -4 -5
right_child=-2 -3 5 6 -6 -7 -8
leaf_value=0.0033681062783385411 0.020923774359828385 -0.0222962488215461 0.011460833502683884 -0.0092468905841643512 -0.0047715605017831526 0 0
leaf_weight=323.50234019756317 47.824714422225952 35.888619348406792 241.18964079022408 346.28560090810061 250.23422614485025 55.333361864089966 31.648701064288616
leaf_count=1492 221 203 1222 1677 1130 251 144
internal_value=0 -0.00100968 0 -0.00321111 0 0.00907594 -0.00767699
internal_weight=0 1284.08 1248.19 951.671 573.737 296.523 377.934
internal_count=6340 6119 5916 4443 2622 1473 1821
is_linear=0
shrinkage=0.0940837


Tree=53
num_leaves=14
num_cat=0
split_feature=20 2 28 29 24 0 17 15 27 7 24 15 24
split_gain=3.24904 6.67391 4.04372 3.64412 1.70521 1.16093 0.848507 0.413919 0.321235 0.274701 0.418188 0.0360996 0.0321217
threshold=0.24912500000000001 5.9269500000000006 13.976565000000003 0.8005000000000001 468.32778000000008 8.0128200000000014 1.8786650000000003 0.88333500000000009 0.35000000000000003 0.20171000000000003 199.47500000000005 3.4833350000000007 72.15000000000002
decision_type=2 2 2 2 2 2 2 2 2 2 2 2 2
left_child=1 5 -2 11 9 6 -1 -6 -4 10 -5 -3 -11
right_child=2 3 8 4 7 -7 -8 -9 -10 12 -12 -13 -14
leaf_value=-0.016777942181319502 0.012989688859529837 0.015026652791668838 -0.011770195775157708 0.0087921987512765924 0 0 0 -0.019316466008361784 0 -0.0016348845864481627 0 0 0
leaf_weight=286.48586684465408 297.80408242344856 138.54241370409727 45.361514717340469 70.114692345261574 25.444511473178864 20.989684477448463 17.367104269564152 45.544935300946236 15.980492889881132 117.80214960128069 14.084711089730261 62.624695017933846 171.63121987879276
leaf_count=1346 1384 679 230 369 114 96 86 253 69 550 66 304 794
internal_value=0 -0.00290106 0.00747033 0.00177225 -0.00177087 -0.0139913 -0.0155501 -0.0144108 -0.00813408 0 0.00506412 0.0125238 -0.000423138
internal_weight=0 970.632 359.146 645.789 444.622 324.843 303.853 70.9894 61.342 373.633 84.1994 201.167 289.433
internal_count=6340 4657 1683 3129 2146 1528 1432 367 299 1779 435 983 1344
is_linear=0
shrinkage=0.0940837


Tree=54
num_leaves=8
num_cat=0
split_feature=29 6 15 12 4 6 25
split_gain=2.81606 4.38463 4.19337 1.0495 1.4694 0.391085 1.18176
threshold=0.88109500000000007 0.99908500000000011 5.7166650000000008 33.258330000000008 1.0000000180025095e-35 1.6383500000000002 3.5850250000000004
decision_type=2 2 2 2 2 2 2
left_child=2 3 -1 4 -2 6 -3
right_child=1 5 -4 -5 -6 -7 -8
leaf_value=0.0098583620403663533 -0.016611610159451132 0.0026929067841040453 -0.013938711203512361 0 0 0.014496657572660771 -0.011573755776475259
leaf_weight=418.1429191455245 241.47391083091497 408.59514537453651 49.664791256189346 123.87450370192528 25.594239197671413 14.547265768051146 46.973992362618446
leaf_count=2000 1167 1925 250 594 118 69 217
internal_value=0 -0.00326502 0.00573314 -0.0108113 -0.0142522 0.00170367 0
internal_weight=0 861.059 467.808 390.943 267.068 470.116 455.569
internal_count=6340 4090 2250 1879 1285 2211 2142
is_linear=0
shrinkage=0.0940837


Tree=55
num_leaves=8
num_cat=0
split_feature=7 30 3 10 21 6 30
split_gain=3.8685 1.69169 1.91463 0.966284 0.899441 0.479725 0.0933235
threshold=0.65750500000000012 8.572535000000002 1.5000000000000002 17.166665000000005 233.67500000000004 0.99560000000000015 4.8722150000000006
decision_type=2 2 2 2 2 2 2
left_child=3 4 -3 -1 5 -2 -5
right_child=1 2 -4 6 -6 -7 -8
leaf_value=0.016000560367771515 -0.0060533896988359875 -0.009991383709504021 0 0 0.0084844192132494008 0 0.0033258555557457302
leaf_weight=120.28651905804873 109.16389159858227 384.42136065661907 88.222325041890144 81.909873448312283 101.95571292936802 133.49397271871567 316.79170637577772
leaf_count=638 480 1872 400 392 457 590 1559
internal_value=0 -0.00298634 -0.00680466 0.00718066 0.000407781 -0.000514702 0.00260922
internal_weight=0 817.257 472.644 518.988 344.614 242.658 398.702
internal_count=6388 3799 2272 2589 1527 1070 1951
is_linear=0
shrinkage=0.0940837


Tree=56
num_leaves=10
num_cat=0
split_feature=9 27 29 28 10 28 22 22 10
split_gain=6.15417 3.36849 3.61836 1.28822 0.453794 0.366397 0.300521 0.222223 0.016968
threshold=10.500000000000002 0.14444500000000002 0.48024000000000006 9.8173200000000023 92.166665000000009 7.9705850000000007 56.364000000000004 0.7380000000000001 23.166665000000005
decision_type=2 2 2 2 2 2 2 2 2
left_child=6 2 -2 8 -5 -4 7 -1 -3
right_child=1 3 5 4 -6 -7 -8 -9 -10
leaf_value=0.012682156553795258 0.0068090468477243456 0 -0.0036158130591049664 0 -0.0086084372143104028 -0.015569733947000364 0.023840295342971097 0 0.0070451459512873033
leaf_weight=42.637635782361031 70.673384927213192 54.28695560246706 242.48709245026112 127.45611146092415 51.16563469171524 240.67620061337948 72.509830102324486 158.15173989534378 274.76583650708199
leaf_count=266 339 242 1101 570 241 1238 320 829 1242
internal_value=0 -0.00220318 -0.00755457 0.00237658 -0.00147529 -0.011088 0.013275 0.00547017 0.00641932
internal_weight=0 1061.51 553.837 507.675 178.622 483.163 273.299 200.789 329.053
internal_count=6388 4973 2678 2295 811 2339 1415 1095 1484
is_linear=0
shrinkage=0.0940837


Tree=57
num_leaves=9
num_cat=0
split_feature=27 29 1 3 10 29 16 10
split_gain=1.76226 4.4613 3.76647 1.38712 3.22652 5.33627 0.290911 0.268649
threshold=0.050000000000000003 0.94077500000000014 22.833335000000002 4.5000000000000009 31.500000000000004 1.2964700000000002 16.893335000000004 10.500000000000002
decision_type=2 2 2 2 2 2 2 2
left_child=2 6 -1 4 -3 -6 -2 -4
right_child=1 3 7 -5 5 -7 -8 -9
leaf_value=0.0040002660539384784 0 0.0036090414905944499 0 0.0071325221780899348 -0.0196630290318883 0.001489252697047295 0.011571951746300616 -0.013487127108561738
leaf_weight=158.02042592316866 28.642639450728893 164.77190598100424 12.226997815072535 81.653661943972111 203.37791561335325 105.81116090714931 369.04275274276733 209.28182832151651
leaf_count=808 164 745 54 405 956 491 1723 1042
internal_value=0 0.00313526 -0.00411434 -0.00130344 -0.00423377 -0.0104884 0.0108687 -0.0127239
internal_weight=0 953.3 379.529 555.615 473.961 309.189 397.685 221.509
internal_count=6388 4484 1904 2597 2192 1447 1887 1096
is_linear=0
shrinkage=0.0940837


Tree=58
num_leaves=8
num_cat=0
split_feature=16 15 13 23 10 10 26
split_gain=4.73564 3.65421 3.64956 2.78083 1.76476 0.460602 1.84684
threshold=657.60666500000013 3.7166650000000003 12.625000000000002 181.83333500000003 108.83333500000002 24.500000000000004 0.17222500000000004
decision_type=2 2 2 2 2 2 2
left_child=2 -2 4 -4 5 -1 -7
right_child=1 -3 3 -5 -6 6 -8
leaf_value=0.0046235407395503999 0 -0.033713759226729159 0.024535474531087495 0 -0.011512216251483553 -0.0041178170235861263 0.0062446125419319326
leaf_weight=369.50004535168409 82.912330806255341 47.910618126392365 103.47744564712048 47.877348959445953 79.752556338906288 340.8205311447382 258.77639031410217
leaf_count=1798 380 291 472 220 396 1637 1194
internal_value=0 -0.0151088 0.00296061 0.016364 0.000281809 0.00202381 0
internal_weight=0 130.823 1200.2 151.355 1048.85 969.097 599.597
internal_count=6388 671 5717 692 5025 4629 2831
is_linear=0
shrinkage=0.0940837


Tree=59
num_leaves=12
num_cat=0
split_feature=30 29 2 28 22 2 28 13 22 15 22
split_gain=3.58693 3.81332 3.1203 2.25378 1.90899 1.83484 0.639969 0.891073 0.662226 0.614492 0.147281
threshold=14.213350000000002 1.0435450000000002 7.2043500000000007 9.432870000000003 243.33889000000002 20.125285000000002 6.6524650000000003 1.1750000000000003 326.64444500000008 3.8500000000000005 159.53055500000002
decision_type=2 2 2 2 2 2 2 2 2 2 2
left_child=2 4 6 -3 9 -4 8 -8 10 -2 -1
right_child=1 3 5 -5 -6 -7 7 -9 -10 -11 -12
leaf_value=-0.0069545988700382795 0.012123587688530883 0 0.0047621412321404138 -0.022783683678721654 -0.0086853662063801056 0.025703148207927889 0.013512447406976725 0 0 0 0
leaf_weight=249.28480164706707 95.147537179291248 27.414286985993385 502.46525710821152 127.54998533427715 85.553033486008644 62.468154668807983 39.214898608624935 23.489354029297829 38.021940596401691 34.469829015433788 44.091750495135784
leaf_count=1175 453 132 2401 638 451 293 190 110 175 174 196
internal_value=0 -0.00668793 0.00395132 -0.017608 0 0.008584 -0.00108114 0.00341566 -0.00395018 0.00842243 -0.00608151
internal_weight=0 370.135 959.036 154.964 215.17 564.933 394.103 62.7043 331.398 129.617 293.377
internal_count=6388 1848 4540 770 1078 2694 1846 300 1546 627 1371
is_linear=0
shrinkage=0.0940837


Tree=60
num_leaves=12
num_cat=0
split_feature=9 17 27 22 25 2 6 1 27 4 8
split_gain=5.08054 1.46437 1.93837 2.98376 2.69456 3.42157 0.759994 0.718939 0.655595 0.565315 0.398278
threshold=5.5000000000000009 3.7923500000000003 1.0000000180025095e-35 65.455555000000018 3.2017650000000004 9.7796000000000021 0.91295500000000007 25.166665000000005 0.21666500000000002 1.0000000180025095e-35 29.141670000000001
decision_type=2 2 2 2 2 2 2 2 2 2 2
left_child=7 2 3 -2 5 9 -3 -1 -7 -4 -6
right_child=1 6 4 -5 10 8 -8 -9 -10 -11 -12
leaf_value=0.024573130079372046 -0.025344993486995652 0 -0.0070456066256849685 -0.00078539772518958857 -0.015162365590072892 0 0.0097907700940859602 0 0.011752799334076854 0 0
leaf_weight=65.038563326001167 84.508571408689022 24.881521046161652 271.16258760541677 211.81711319088936 108.76352273672819 202.68874409794807 98.025684870779514 10.401191890239714 193.30558270215988 23.109166413545609 23.005388811230659
leaf_count=392 397 120 1254 1054 508 990 467 54 885 105 107
internal_value=0 -0.00238702 -0.00383757 -0.0104816 -0.000559782 0.000979457 0.00515107 0.02129 0.00738743 -0.00541542 -0.0129257
internal_weight=0 1241.27 1118.36 296.326 822.035 690.266 122.907 75.4398 395.994 294.272 131.769
internal_count=6333 5887 5300 1451 3849 3234 587 446 1875 1359 615
is_linear=0
shrinkage=0.0940837


Tree=61
num_leaves=9
num_cat=0
split_feature=28 3 24 2 10 1 10 1
split_gain=2.9792 3.09812 1.24847 1.01602 1.08548 0.668332 0.101482 0.0406463
threshold=15.929600000000002 1.0000000180025095e-35 4.6027750000000012 8.0187350000000013 55.500000000000007 17.833335000000002 28.833335000000002 10.833335000000002
decision_type=2 2 2 2 2 2 2 2
left_child=1 3 -2 4 6 -5 -1 -3
right_child=2 7 -4 5 -6 -7 -8 -9
leaf_value=-0.002047054146556281 0 0 -0.01746450841791311 0.0071428546949385647 -0.016968042933103538 -0.00019026951794145363 0 0.010789418776748319
leaf_weight=227.50853771716356 23.061842285096645 68.567932702600956 112.6831591501832 107.37985422462225 62.07505451887846 411.19298190623522 84.063559785485268 219.46047624945641
leaf_count=1036 123 393 573 522 292 1949 380 1065
internal_value=0 0.000704605 -0.0134038 -0.00142626 -0.00531896 0.000159261 -0.0005327 0.00939591
internal_weight=0 1180.25 135.745 892.22 373.647 518.573 311.572 288.028
internal_count=6333 5637 696 4179 1708 2471 1416 1458
is_linear=0
shrinkage=0.0940837


Tree=62
num_leaves=8
num_cat=0
split_feature=13 5 9 9 3 25 3
split_gain=3.16717 2.80441 3.01166 2.03697 0.807938 0.479744 0.245801
threshold=22.316665000000004 0.69821500000000014 30.833335000000002 47.166665000000002 7.5000000000000009 1.3401800000000004 5.5000000000000009
decision_type=2 2 2 2 2 2 2
left_child=1 -1 5 -2 -4 6 -3
right_child=3 2 4 -5 -6 -7 -8
leaf_value=0.011349035447028024 0.020159109350519379 0 -0.013636662875694299 0 0 -0.0036760530580721364 0.0059577045272503799
leaf_weight=89.4156479164958 89.428820341825485 456.95559132099152 272.83111403882504 35.723777323961258 12.429985001683233 301.94443309307098 56.028612196445465
leaf_count=565 402 2063 1417 174 54 1367 291
internal_value=0 -0.00230575 -0.00409338 0.0127642 -0.0123996 -0.000280905 0.00047144
internal_weight=0 1189.61 1100.19 125.153 285.261 814.929 512.984
internal_count=6333 5757 5192 576 1471 3721 2354
is_linear=0
shrinkage=0.0940837


Tree=63
num_leaves=9
num_cat=0
split_feature=9 6 19 3 0 4 24 18
split_gain=3.47154 3.94561 3.07847 2.16561 1.84864 0.435757 0.0694819 0.0297893
threshold=10.166665000000002 1.4819600000000002 0.017000000000000005 2.5000000000000004 6.4583350000000008 1.0000000180025095e-35 176.51666500000002 14.833335000000002
decision_type=2 2 2 2 2 2 2 2
left_child=5 2 3 4 -2 -1 -4 -5
right_child=1 -3 6 7 -6 -7 -8 -9
leaf_value=0.010050443669004526 -0.010289428909842928 0.023331818107162013 0 0 0 0 0.012273838485125031 0.0030181967103779096
leaf_weight=237.51438547670841 726.86370275169611 32.035757586359978 39.709658697247505 136.29584591835737 60.496446751058102 13.678481824696062 45.581938177347183 20.410095252096653
leaf_count=1249 3438 147 186 660 272 67 217 97
internal_value=0 -0.00302246 -0.00466773 -0.00666569 -0.00879004 0.00899115 0.00896301 0
internal_weight=0 1061.39 1029.36 944.066 787.36 251.193 85.2916 156.706
internal_count=6333 5017 4870 4467 3710 1316 403 757
is_linear=0
shrinkage=0.0940837


Tree=64
num_leaves=15
num_cat=0
split_feature=15 21 30 30 22 23 10 2 26 10 23 2 29 23
split_gain=2.9724 6.31753 2.6484 1.65806 1.5166 1.24347 0.970499 1.77239 0.432972 0.42619 0.192029 0.0876078 0.0624206 0.0294103
threshold=1.6833350000000002 69.600000000000009 15.521450000000002 10.530085000000001 2.4138900000000003 285.00000000000006 38.500000000000007 8.2898000000000014 0.27778000000000008 60.166665000000002 68.833335000000019 5.0489850000000009 0.94753500000000013 251.83333500000003
decision_type=2 2 2 2 2 2 2 2 2 2 2 2 2 2
left_child=4 -2 3 10 -1 -4 7 11 -5 12 -3 -6 -8 -12
right_child=1 2 5 8 6 -7 9 -9 -10 -11 13 -13 -14 -15
leaf_value=0.019956734152909671 -0.020357356202918654 0.013111950798576587 0 -0.0066311144677540287 -0.0029342545089505647 -0.024926517899433318 0 0.013229389396971008 0 0 0.0015148053514644729 0 -0.0076266308119464646 0
leaf_weight=51.281525537371635 161.92906856536865 126.29519339650869 91.911774903535843 84.147037677466869 81.532969638705254 35.405481994152069 52.271665647625923 136.46465094387531 29.358596786856651 168.01987084746361 148.69597642123699 54.308793008327484 67.37185363471508 21.590581998229027
leaf_count=335 727 548 476 451 389 211 243 655 128 760 721 265 305 119
internal_value=0 -0.00456064 0 0.00413203 0.0043239 -0.0109521 0.00144584 0.00587361 -0.00141073 -0.00055176 0.00841018 0 -0.00548954 0.000749516
internal_weight=0 699.334 537.405 410.087 611.251 127.317 559.97 272.306 113.506 287.663 296.582 135.842 119.644 170.287
internal_count=6333 3381 2654 1967 2952 687 2617 1309 579 1308 1388 654 548 840
is_linear=0
shrinkage=0.0940837


Tree=65
num_leaves=13
num_cat=0
split_feature=5 2 29 29 6 7 1 28 29 29 6 2
split_gain=2.71706 1.50496 1.18872 1.02005 1.1297 0.694944 0.500944 0.998263 0.167475 0.304632 0.0245568 0.14087
threshold=0.85449500000000012 5.3767000000000005 0.20764500000000002 0.86410500000000012 1.0058400000000003 0.62861500000000003 18.500000000000004 8.8094700000000028 0.66671000000000002 0.93385500000000021 1.0466050000000002 13.567100000000002
decision_type=2 2 2 2 2 2 2 2 2 2 2 2
left_child=2 3 -1 -2 5 -5 7 -3 -4 -10 11 -8
right_child=1 6 8 4 -6 -7 10 -9 9 -11 -12 -13
leaf_value=0.026621112252473971 0 0.011559264125923209 0 0 0 -0.020649240812190616 -0.0024037021653310758 0 0 0.0067518172110820496 0.00094666194382061434 0
leaf_weight=42.150317154824734 92.420844383537769 101.4046466499567 18.816028922796249 34.1780821159482 76.243361160159111 78.445668213069439 214.59510645270348 86.954057969152927 29.55340901017189 87.686111614108086 186.86950037628412 275.13002557307482
leaf_count=267 417 479 105 160 344 369 984 420 164 480 862 1348
internal_value=0 -6.93855e-05 0.0117098 -0.00640986 -0.0102986 -0.0159793 0.00127471 0.00545246 0.00119799 0.00366556 0 -0.000291211
internal_weight=0 1146.24 178.206 281.288 188.867 112.624 864.953 188.359 136.056 117.24 676.595 489.725
internal_count=6399 5383 1016 1290 873 529 4093 899 749 644 3194 2332
is_linear=0
shrinkage=0.0940837


Tree=66
num_leaves=9
num_cat=0
split_feature=29 9 17 20 20 22 16 16
split_gain=1.20245 3.44566 1.11941 1.07134 0.779385 1.30736 0.000982486 0.0853565
threshold=0.9234150000000001 22.500000000000004 3.0845350000000002 1.0000000180025095e-35 -0.043649999999999987 102.30833000000001 56.88333500000001 236.16000000000003
decision_type=2 2 2 2 2 2 2 2
left_child=4 -2 3 -3 5 -1 -6 -8
right_child=1 2 -4 -5 6 -7 7 -9
leaf_value=0 0.0038833172839884103 -0.01587427273323979 0 0 0 0.013853988552137632 0.0027916904458999531 0
leaf_weight=112.61842535436153 450.30981861054897 163.11726472526789 46.022403530776501 140.65963767468929 93.555095002055168 148.87639518082142 89.525971464812756 78.416477024555206
leaf_count=584 2105 839 221 683 482 707 408 370
internal_value=0 -0.00059139 -0.0081606 -0.0103988 0.00469998 0.00830844 0 0.000221989
internal_weight=0 800.109 349.799 303.777 522.992 261.495 261.498 167.942
internal_count=6399 3848 1743 1522 2551 1291 1260 778
is_linear=0
shrinkage=0.0940837


Tree=67
num_leaves=9
num_cat=0
split_feature=29 30 26 22 15 10 10 28
split_gain=2.06681 3.16159 2.67924 2.45825 1.82002 1.51478 0.821801 0.501244
threshold=0.95765000000000011 19.484000000000005 0.077780000000000002 7.1972200000000006 4.5500000000000016 113.16666500000001 75.166665000000009 4.0715000000000012
decision_type=2 2 2 2 2 2 2 2
left_child=4 2 3 -2 -1 6 -4 -6
right_child=1 -3 5 -5 7 -7 -8 -9
leaf_value=0.0086995510272614672 0.0078658718951930811 -0.02017465294937049 0.0097957531619887392 -0.010947978912612125 0 -0.0045180320193474628 0 -0.0068631146326555625
leaf_weight=432.27318562567234 31.398444838821888 65.516386561095715 315.36663809418678 256.55825872719288 52.621568828821182 32.288885474205017 50.739680662751198 85.674660742282867
leaf_count=2090 189 332 1457 1244 238 153 240 456
internal_value=0 -0.00168347 0 -0.00648908 0.00545805 0.00525355 0.00797145 -6.7374e-05
internal_weight=0 751.868 686.352 287.957 570.569 398.395 366.106 138.296
internal_count=6399 3615 3283 1433 2784 1850 1697 694
is_linear=0
shrinkage=0.0940837


Tree=68
num_leaves=11
num_cat=0
split_feature=10 18 8 22 1 16 28 26 7 7
split_gain=2.95546 1.58876 1.1225 3.93831 1.50225 0.631465 0.622267 0.375237 0.0717543 0.0797313
threshold=104.83333500000002 9.8333350000000017 1.2305550000000003 409.66919500000006 23.500000000000004 80.176670000000016 10.243715000000002 0.11666500000000002 0.83492000000000011 1.258615
decision_type=2 2 2 2 2 2 2 2 2 2
left_child=2 -2 4 7 6 -6 -1 -4 -7 -10
right_child=1 -3 3 -5 5 8 -8 -9 9 -11
leaf_value=0.0065013982126793813 -0.016415928177243671 0 0 -0.0078554604861896318 -0.0091451506571471226 0.00050567402883459499 0 0.013460079156990825 -0.0031927765947217602 0
leaf_weight=325.35230969637632 109.17626517266035 35.131849355995655 83.566509641706944 76.021506607532501 114.40986802428961 123.97064898908138 21.892118208110332 279.39180072396994 119.681621350348 32.058771088719368
leaf_count=1643 565 173 411 398 515 579 117 1283 571 144
internal_value=0 -0.0107485 0.00279623 0.00655016 0 -0.00343099 0.00491787 0.0114664 0 -0.00193686
internal_weight=0 144.308 1176.35 438.98 737.365 390.121 347.244 362.958 275.711 151.74
internal_count=6399 738 5661 2092 3569 1809 1760 1694 1294 715
is_linear=0
shrinkage=0.0940837


Tree=69
num_leaves=15
num_cat=0
split_feature=21 10 25 28 13 28 10 20 20 7 4 20 25 12
split_gain=1.54492 3.1098 7.19826 5.9224 2.10971 1.18779 0.785301 0.807978 0.839997 0.293586 0.269143 0.0881304 0.00659558 0.00162979
threshold=186.57222500000003 98.833335000000019 1.1904600000000003 9.4994150000000008 6.0000000000000009 8.6431650000000015 88.166665000000009 3.2367500000000002 -1.7343999999999997 0.34992000000000006 1.0000000180025095e-35 0.45380000000000004 1.3611450000000003 13.827780000000002
decision_type=2 2 2 2 2 2 2 2 2 2 2 2 2 2
left_child=4 2 3 -2 6 -6 7 8 13 -3 -10 -8 -4 -1
right_child=1 9 12 -5 5 -7 11 -9 10 -11 -12 -13 -14 -15
leaf_value=0 0.037614254757412521 0 -0.00041425685040690174 0 0 0.01975524935726598 -0.021929517408943954 0.0053657152850677464 -0.0064407704036684738 -0.0084291170748268859 0 0 0.0004209632508481638 0.00061265969670100406
leaf_weight=67.394786842167377 98.485334135591984 25.323157295584679 35.198818258941174 53.664129301905632 56.457266204059124 39.992101080715656 27.807350166141987 40.848774418234825 425.90058022737503 90.600132063031197 33.760369896888733 15.244844429194925 278.56428323686123 29.898229584097862
leaf_count=355 446 129 171 274 270 186 135 195 2055 479 153 71 1332 148
internal_value=0 0.00454484 0.00862282 0.0248208 -0.00162555 0.00895823 -0.00433799 -0.00201994 -0.00380894 -0.00597608 -0.00577961 -0.0179908 0 0
internal_weight=0 581.836 465.913 152.149 737.304 96.4494 640.855 597.803 556.954 115.923 459.661 43.0522 313.763 97.293
internal_count=6399 2831 2223 720 3568 456 3112 2906 2711 608 2208 206 1503 503
is_linear=0
shrinkage=0.0940837


Tree=70
num_leaves=12
num_cat=0
split_feature=5 20 7 29 26 4 12 12 13 26 13
split_gain=3.29136 1.79654 3.11849 1.38637 2.69692 1.8155 0.504235 0.455783 0.2776 1.24523 0.2423
threshold=0.79717500000000008 4.0414000000000003 1.4025200000000002 1.1779350000000002 0.41111000000000003 1.0000000180025095e-35 6.7500000000000009 116.78889000000002 4.0027800000000004 0.21666500000000002 0.24166500000000002
decision_type=2 2 2 2 2 2 2 2 2 2 2
left_child=-1 2 3 8 5 -5 -3 -8 9 -2 -4
right_child=1 6 10 4 -6 -7 7 -9 -10 -11 -12
leaf_value=0.0144964713792664 0 0 0.016237792624877539 -0.017813007833525438 0.0040316399805529384 0 0 0.024844265205958036 0 -0.010153940786763455 0
leaf_weight=135.91289882361889 374.16092767566442 28.102678962051868 55.624980583786964 206.04451026767492 21.961389526724815 22.117067284882069 77.86276850104332 24.341548949480057 197.86542785167694 127.91391971707344 46.086176440119743
leaf_count=819 1807 133 250 993 97 102 367 109 933 567 209
internal_value=0 -0.000123884 -0.00197244 -0.00420586 -0.0105226 -0.0148243 0.00921716 0.0121169 -0.000911542 -0.00244239 0.0115755
internal_weight=0 1182.08 1051.77 950.063 250.123 228.162 130.307 102.204 699.94 502.075 101.711
internal_count=6386 5567 4958 4499 1192 1095 609 476 3307 2374 459
is_linear=0
shrinkage=0.0940837


Tree=71
num_leaves=7
num_cat=0
split_feature=10 11 28 12 29 9
split_gain=1.85384 1.21637 1.28978 1.19198 1.53995 0.360165
threshold=99.833335000000019 78.927775000000011 5.6075000000000008 61.291670000000003 1.0488150000000003 27.833335000000002
decision_type=2 2 2 2 2 2
left_child=3 2 -2 4 5 -1
right_child=1 -3 -4 -5 -6 -7
leaf_value=0.0052067281952567343 0 0 -0.018410006212412611 0.0097845796679208123 -0.0031297799229776488 0
leaf_weight=489.44673416018486 25.080518178641796 47.090826123952866 82.744578815996647 193.05779436230659 372.85461922734976 106.18180058151484
leaf_count=2367 121 231 442 900 1789 536
internal_value=0 -0.0073182 -0.0129523 0.00279887 0.000653235 0.00413141
internal_weight=0 154.916 107.825 1161.54 968.483 595.629
internal_count=6386 794 563 5592 4692 2903
is_linear=0
shrinkage=0.0940837


Tree=72
num_leaves=12
num_cat=0
split_feature=7 15 19 2 21 25 25 3 10 24 3
split_gain=2.45229 2.07077 4.37512 1.68323 1.26626 3.07144 1.94918 0.638988 0.263959 0.151627 0.0702811
threshold=1.4142350000000004 5.7500000000000009 0.05062500000000001 9.1239500000000024 76.405555000000007 1.2008000000000003 2.3701200000000004 1.0000000180025095e-35 14.500000000000002 100.26111500000002 1.0000000180025095e-35
decision_type=2 2 2 2 2 2 2 2 2 2 2
left_child=1 2 4 9 6 10 -1 -7 -3 -2 -6
right_child=3 8 -4 -5 5 7 -8 -9 -10 -11 -12
leaf_value=-0.0095488823399407525 -0.0015222214271459868 0 0.020623854695551398 0.02332027079437924 0.0032101267995147181 -0.0052585441706975928 0.0071785683668477316 0 -0.012790730305776427 0.0072448137560624723 0.01783187426513461
leaf_weight=271.96327191591263 43.503093868494034 11.48907011002302 84.801308877766132 60.94480374455452 216.50268502533436 310.63196773082018 26.462629072368145 97.955626592040062 111.56293120235205 14.737532913684843 65.206282198429108
leaf_count=1416 196 53 402 285 986 1452 139 450 637 65 305
internal_value=0 0 0.000969884 0.0133863 -0.000211927 0.00127004 -0.00574355 -0.00275656 -0.0114701 0 0.00930776
internal_weight=0 1196.58 1073.52 119.185 988.722 690.297 298.426 408.588 123.052 58.2406 281.709
internal_count=6386 5840 5150 546 4748 3193 1555 1902 690 261 1291
is_linear=0
shrinkage=0.0940837


Tree=73
num_leaves=9
num_cat=0
split_feature=20 5 28 2 27 9 12 29
split_gain=1.65675 2.82333 3.15518 1.76216 1.5198 1.26469 1.44137 1.24588
threshold=1.8564000000000001 0.98757000000000017 4.7480650000000013 10.050835000000001 0.51666500000000004 55.166665000000002 26.169445000000007 1.5745200000000004
decision_type=2 2 2 2 2 2 2 2
left_child=1 7 3 -3 -4 6 -2 -1
right_child=5 2 4 -5 -6 -7 -8 -9
leaf_value=0.0076718642813407411 0 0 -0.011653210866726306 0.014281597787874337 0 0 0.02017626754605174 -0.0012718875167298947
leaf_weight=389.45973954349756 98.812469698488712 179.15287131816149 380.47598949819803 73.209312066435814 41.714204624295235 25.63995598256588 89.406894959509373 37.539666295051575
leaf_count=1938 476 811 1907 341 185 132 409 187
internal_value=0 0 -0.00428118 0.00202985 -0.009561 0.00846007 0.0117387 0.00535112
internal_weight=0 1101.55 674.552 252.362 422.19 213.859 188.219 426.999
internal_count=6386 5369 3244 1152 2092 1017 885 2125
is_linear=0
shrinkage=0.0940837


Tree=74
num_leaves=7
num_cat=0
split_feature=15 28 21 6 30 2
split_gain=2.39577 1.69633 1.35615 0.713297 0.205257 0.0690828
