tree
version=v4
num_class=1
num_tree_per_iteration=1
label_index=0
max_feature_idx=30
objective=binary sigmoid:1
feature_names=P1 P2 P3 P4 P5 P6 P7 P8 P9 P10 P11 P12 P13 P14 P15 P16 P17 P18 P19 P20 P21 P22 P23 P24 P25 P26 P27 P28 P29 P30 P31
feature_infos=[0:50] [0:30.33333] [0:217.24029999999999] [0:30] [0:1] [0.048390000000000002:2.4375] [0:2.6438799999999998] [0:3] [0:3313.4944399999999] [0.33333000000000002:647] [0:1815.3333299999999] [0:2452.1333300000001] [0:3469.4055600000002] [0:1985.0444399999999] [0:2451.7111100000002] [0:8.2333300000000005] [0:5357.5266700000002] [0:37.664000000000001] [0:406.66667000000001] [-68.072400000000002:177.90459999999999] [-192.65549999999999:347.6062] [0:3803.5222199999998] [0:3043.9306700000002] [0:1625.3333299999999] [0:5339.9722199999997] [0:26.899270000000001] [0:1] [0:1] [0:96.287999999999997] [0:7.2467199999999998] [0:97.352000000000004]
tree_sizes=6131 4843 6105 5577 4832 5552 5768 5376 4605 5365 5790 5376 5368 5015 5756 5548 4924 5392 5373 5372 5274 5684 4938 5644 4850 4842 6102 4329 5495 5364 5058 5384 4751 6000 4332 4869 5590 4010 4416 4327 4535 4650 4654 4630 4640 4563 4224 4834 5792 4740 4413 3601 3069 4949 4944 4741 4250 4673 4657 5283 4145 4984 5590 4445 3494 3807

Tree=0
num_leaves=59
num_cat=0
split_feature=22 15 15 1 21 1 3 7 3 10 16 3 13 3 16 7 10 18 26 28 1 19 25 6 12 28 26 7 15 15 15 24 28 1 7 3 5 13 16 1 1 14 10 21 7 7 24 12 2 0 25 7 13 13 6 2 1 12
split_gain=297.848 75.7191 61.9918 35.1058 27.6784 23.0602 20.8352 20.1146 18.0903 15.6675 14.4956 12.9919 10.4371 9.60454 8.70852 7.92505 7.52581 6.26237 11.6245 8.90526 5.84172 5.80694 5.49953 5.19692 5.19337 5.23359 4.34471 10.8149 4.27433 5.95521 5.08295 4.25861 4.02588 3.36653 3.03831 2.96251 2.83914 2.83855 2.67247 2.66995 4.92148 3.09187 2.62548 2.06455 1.7916 1.39885 1.31838 1.28105 1.26663 1.24383 1.23385 0.884942 0.757449 0.616574 0.567769 0.494323 0.401355 0.187859
threshold=93.469445000000022 2.5833350000000004 3.8833350000000002 28.833335000000002 46.98055500000001 29.166665000000005 1.0000000180025095e-35 0.56456500000000009 5.5000000000000009 15.500000000000002 657.07333500000016 2.5000000000000004 2.5750000000000006 4.5000000000000009 21.48 0.77184500000000011 90.500000000000014 19.166665000000005 0.14444500000000002 8.0812500000000025 5.8333350000000008 -2.3979999999999992 1.4901000000000002 1.0351750000000004 22.752775000000003 18.344000000000005 0.14444500000000002 0.34695000000000004 6.783335000000001 4.9833350000000012 5.6833350000000005 63.347220000000007 8.6899850000000018 23.166665000000005 0.90249000000000013 20.500000000000004 0.98802000000000012 2.7250000000000005 76.070000000000007 14.500000000000002 25.500000000000004 8.1083350000000021 9.1666650000000018 78.780555000000021 1.0206550000000003 0.78172000000000008 980.57500000000016 44.975000000000009 13.534170000000001 5.4093600000000004 0.82762500000000017 1.0318000000000003 0.16944500000000004 3.1166650000000007 0.90960000000000008 6.2499000000000011 13.166665000000002 5.4472200000000006
decision_type=2 2 2 2 2 2 2 2 2 2 2 2 2 2 2 2 2 2 2 2 2 2 2 2 2 2 2 2 2 2 2 2 2 2 2 2 2 2 2 2 2 2 2 2 2 2 2 2 2 2 2 2 2 2 2 2 2 2
left_child=1 4 3 8 13 9 14 36 16 45 32 17 21 22 33 42 38 18 -5 -19 -18 -9 37 -17 57 -26 27 56 29 34 -31 -14 -11 50 -7 49 43 -1 -2 41 -41 -10 -16 -6 53 -4 -12 -30 -38 -15 -3 -29 -24 -28 -37 -35 -8 -13
right_child=2 6 5 11 7 28 26 12 39 10 46 24 31 35 15 23 20 19 -20 -21 -22 -23 52 -25 25 -27 44 51 47 30 -32 -33 -34 55 -36 54 48 -39 -40 40 -42 -43 -44 -45 -46 -47 -48 -49 -50 -51 -52 -53 -54 -55 -56 -57 -58 -59
leaf_value=0.062810632963420265 0.026583362684598509 0.034291241303476404 0.060258123272846555 -0.0598340395625774 0.063239407848303217 -0.040150639064758006 0.1007751025626489 0.084513799436671436 0.039917659505727288 -0.017820556420921348 -0.12261679208868989 -0.017490559754144718 0.0069178762337753809 0.089136509646312909 0.060183616702415323 -0.051271087546507138 -0.080105312895536573 0.10071551739040788 -0.022662455349181931 -0.025839174477374466 -0.00055555556984463849 -0.0065772578492390371 0.090215480435871673 -0.0061759524889504975 0.042839236065681623 -0.054969356887212356 0.078275246921970909 -0.00055555556984463849 -0.098046806206159187 -0.068861154610923139 -0.10405930286988571 0.062719352771778744 -0.050493628509301482 -0.057105468353732543 -0.074321010779367869 0.14137643680891945 0.031711459621852539 0.015201436174627334 -0.00090994925909906866 0.074603581395930485 0.0093545626850513441 0.12712117118558178 -0.0034976574681332535 0.097174736301662207 0.12353930758918012 0.012321675729768222 -0.075549138490900294 -0.14236228699835171 0.065691786694466708 0.14116299309162164 0.0034997438391251795 -0.042165238797199626 0.11951194680016979 0.038040166304808075 0.10976391457651817 -0.013285069536885236 0.070335900232833065 -0.033870586523664613
leaf_weight=102.00002525746822 22.24999725818634 26.4999970048666 6.9999967068433744 106.49998615682125 17.249994903802872 27.749998405575752 5.2499997764825839 3.7499997764825812 3.4999998956918734 40.999998614192009 10.74999915063381 6.2499996721744528 9.4999991953372938 37.999997735023499 3.4999985247850409 41.249997198581696 10.249999269843103 3.4999992400407818 70.499993473291397 13.999998956918715 8.4999994784593564 58.499995812773705 15.249997973442079 18.749998420476913 17.999998912215236 3.2499997764825812 6.74999952316284 6.4999996125698072 7.9999993592500669 40.499996542930603 42.499996155500412 25.249998420476913 35.499996587634087 2.499999836087226 24.999998435378075 8.9999994635581952 10.999998882412912 6.7499987035989752 89.249993041157722 12.74999922513962 10.7499992698431 4.9999997019767761 47.499996930360794 19.249998465180397 3.99999976158142 5.4999996721744537 4.2499997168779364 5.7499996572732925 11.249999329447745 2.4999998509883872 8.7499994784593564 4.2499997317790985 6.4999996125698081 2.7499998360872269 4.4999997317790976 2.7499998360872269 3.9999997615814209 8.4999994933605176
leaf_count=408 89 106 28 426 69 111 21 15 14 164 43 25 38 152 14 165 41 14 282 56 34 234 61 75 72 13 27 26 32 162 170 101 142 10 100 36 44 27 357 51 43 20 190 77 16 22 17 23 45 10 35 17 26 11 18 11 16 34
internal_value=-0.000555556 0.0383386 -0.0336337 -0.0159688 0.0582126 -0.0610004 0.00178428 0.0361711 0.0093257 -0.0353229 -0.0455085 -0.0337751 0.0163119 0.0768167 -0.0094164 -0.0196983 -0.00242105 -0.0410258 -0.0450309 -0.000535755 -0.0440302 -0.00108076 0.0663874 -0.0371855 0.00538949 0.0278589 0.0524449 0.0314066 -0.0788597 -0.0750293 -0.0868913 0.047476 -0.0329883 0.0187546 -0.0563547 0.10201 0.0689517 0.0598592 0.00457384 0.0571454 0.044775 0.0912793 0.000868973 0.0811523 0.0835742 0.0392011 -0.10932 -0.116629 0.0489141 0.092366 0.0266586 -0.0169886 0.0990008 0.0666792 0.130889 -0.0342363 0.0876747 -0.0269577
internal_weight=0 525.25 646.25 392.75 340.25 253.5 185 155.75 162.25 104 91.5 230.5 97 184.5 151.5 111 130.25 194.5 177 17.5 18.75 62.25 130.5 60 36 21.25 33.5 20 149.5 135.75 83 34.75 76.5 40.5 52.75 54 58.75 108.75 111.5 32 23.5 8.5 51 36.5 13.5 12.5 15 13.75 22.25 40.5 35.25 10.75 21.75 9.5 13.5 5.25 9.25 14.75
internal_count=4686 2101 2585 1571 1361 1014 740 623 649 416 366 922 388 738 606 444 521 778 708 70 75 249 522 240 144 85 134 80 598 543 332 139 306 162 211 216 235 435 446 128 94 34 204 146 54 50 60 55 89 162 141 43 87 38 54 21 37 59
is_linear=0
shrinkage=1


Tree=1
num_leaves=45
num_cat=0
split_feature=5 15 21 23 21 27 21 12 25 25 27 1 15 6 17 6 8 30 8 27 20 11 24 28 23 6 25 20 22 22 16 30 29 14 29 6 29 30 1 20 22 8 11 29
split_gain=223.067 155.626 47.4515 44.3137 30.4347 21.8511 12.7111 21.6721 12.6171 9.59611 9.3213 17.0121 8.9173 10.9559 7.72437 5.68142 5.66587 5.76023 5.05151 7.57852 4.67323 3.99018 3.98254 3.95594 3.03509 3.00646 2.58364 2.36458 2.10383 3.86914 4.07074 2.10176 1.887 1.73127 2.24966 1.53956 1.06381 0.697384 4.12735 0.767798 0.53583 0.170655 0.102585 0.100814
threshold=0.86899000000000004 2.2500000000000004 101.30277500000001 78.166665000000009 6.9166700000000008 0.28333500000000006 340.27778000000006 44.975000000000009 0.28425500000000009 0.83879000000000015 0.55000000000000016 26.500000000000004 4.5833350000000008 0.84830000000000017 0.51483000000000012 0.92744500000000019 0.086110000000000006 19.764000000000003 10.552780000000002 0.10555500000000002 2.2187500000000004 87.636110000000016 220.06666500000003 9.527115000000002 71.833335000000019 1.0067700000000002 0.70596000000000014 -2.6558999999999995 30.055555000000002 32.777780000000007 58.150000000000013 6.1899700000000015 0.46309500000000003 9.3222250000000013 0.69237500000000007 0.93483500000000019 1.2161350000000002 6.4223650000000001 6.8333350000000008 1.0000000180025095e-35 61.548335000000002 7.2222250000000008 6.6250000000000009 0.33793000000000001
decision_type=2 2 2 2 2 2 2 2 2 2 2 2 2 2 2 2 2 2 2 2 2 2 2 2 2 2 2 2 2 2 2 2 2 2 2 2 2 2 2 2 2 2 2 2
left_child=12 2 4 10 37 20 7 9 14 -5 11 35 21 43 -6 -9 31 -18 19 -8 22 28 -4 -10 33 -20 -22 -13 32 -30 -31 -7 42 34 -15 -3 -34 38 -2 -39 -12 -23 -1 -14
right_child=1 3 5 6 8 16 18 15 23 -11 40 27 13 24 -16 -17 17 -19 25 -21 26 41 -24 -25 -26 -27 -28 -29 29 30 -32 -33 36 -35 -36 -37 -38 39 -40 -41 -42 -43 -44 -45
leaf_value=0.09719547432861711 0.12444783187137448 -0.015524920732971419 -0.0097241531821769204 -0.028566802432705592 -0.023259644093643068 0.020734413217788388 -0.096313104841318914 0.038262947649555658 0.049204870866988264 -0.077012511006571638 0.093481442441882862 -0.077708127903743554 0.12094893197916991 -0.040859528352295012 0.051672253763333814 -0.018305443792739802 0.027199950448681488 -0.025206778312045406 -0.068223651888378839 -0.057855145455843582 0.053168616248290466 0.13858659376140994 -0.031709403369790445 0.021798053412847622 -0.034965482210614324 -0.032690029732822992 -0.00070773852163722622 -0.039281370606020445 0.13565928635235047 0.085831409299121447 0.047068862622983668 0.084814271115398479 0.069343518805086393 0.069861273352246928 0.028842908230965088 0.0044337868279731209 0.089644500579326644 0.11683789085578079 0.030332109533321643 0.08930047023079922 0.050559833047893361 0.11534354722793538 0.10947331003007037 0.10304482109768676
leaf_weight=18.211004406213764 5.7418460100889188 25.24216265976429 78.965658396482468 29.476228907704353 30.225055262446404 3.4997663944959632 65.655013903975487 11.989297375082968 81.428584188222885 68.685899898409843 2.9988576322793952 9.2428888231515867 3.9960012137889853 2.7489198595285513 8.991600424051283 35.217115983366966 61.71776320040226 12.743634596467016 29.709061220288277 42.69116136431694 5.4979622513055828 4.2457252740859976 87.698514640331268 39.462824240326881 4.746295601129531 20.224652007222176 24.234443441033363 64.95738610625267 3.7415207028388968 21.479356929659843 37.71900337934494 9.9954764395952207 39.694110259413719 3.9977197349071494 15.242880225181578 85.216197580099106 19.713725939393044 17.47746574878693 3.9942525923252106 7.488695800304412 2.997255340218544 3.2451366931200027 5.2380940169095984 3.7480313926935196
leaf_count=73 23 101 316 118 121 14 263 48 326 275 12 37 16 11 36 141 247 51 119 171 22 17 351 158 19 81 97 260 15 86 151 40 159 16 61 341 79 70 16 30 12 13 21 15
internal_value=0 -0.0138379 0.0149897 -0.0417831 0.0419786 -0.00349942 -0.0586253 -0.0434626 0.0289119 -0.0624699 -0.0149569 -0.0177872 0.0706676 0.0380255 -0.00606803 -0.00392974 0.0259036 0.0182256 -0.072548 -0.0811647 -0.0166695 0.0780069 -0.0212952 0.040262 0.0164698 -0.053841 0.0092473 -0.0440754 0.0754022 0.0655835 0.0611425 0.0682294 0.0828541 0.0275904 0.0181695 -0.000124383 0.0760898 0.102248 0.0858917 0.108603 0.0721171 0.12861 0.0999655 0.112368
internal_weight=0 973.467 479.164 494.303 194.81 284.353 303.648 145.369 160.108 98.1621 190.655 184.659 187.768 34.4798 39.2167 47.2064 87.9566 74.4614 158.28 108.346 196.397 153.288 166.664 120.891 26.7358 49.9337 29.7324 74.2003 145.797 62.9399 59.1984 13.4952 82.8569 21.9895 17.9918 110.458 59.4078 34.7023 9.7361 24.9662 5.99611 7.49086 23.4491 7.74403
internal_count=4649 3897 1918 1979 780 1138 1216 582 641 393 763 739 752 138 157 189 352 298 634 434 786 614 667 484 107 200 119 297 584 252 237 54 332 88 72 442 238 139 39 100 24 30 94 31
is_linear=0
shrinkage=0.0709874


Tree=2
num_leaves=57
num_cat=0
split_feature=22 15 1 7 15 27 30 7 15 1 23 27 20 27 22 22 9 26 8 20 28 12 28 28 24 26 10 14 16 7 1 11 2 26 8 6 8 24 9 30 20 28 28 2 20 7 28 14 14 20 6 6 11 13 14 28
split_gain=227.422 113.466 58.4874 47.0794 26.8203 17.8953 16.3403 15.3291 13.0078 12.2379 9.74436 12.2942 9.65819 9.23643 8.81813 16.8375 9.70579 8.10495 6.71339 6.53051 8.71783 5.97286 5.45826 5.45612 4.92483 8.00857 6.78636 4.46693 4.25429 3.82135 4.9853 3.66901 3.49384 5.3392 3.21098 3.09791 2.94549 2.36084 2.32239 2.15729 2.09267 2.97708 2.07617 1.96422 1.67691 1.59726 1.52255 1.35264 1.1856 1.03623 0.885814 0.806338 0.716074 0.575088 0.500146 0.211697
threshold=207.83628000000002 1.3166650000000002 22.166665000000005 0.34695000000000004 2.8500000000000005 0.38333500000000004 11.533150000000001 0.75065500000000007 5.0500000000000016 21.166665000000005 45.500000000000007 0.14444500000000002 0.65725000000000011 0.14444500000000002 77.533335000000008 9.9098850000000009 27.166665000000005 0.71666500000000011 3.1805550000000005 0.4915500000000001 6.4520000000000008 4.6055550000000007 3.7188350000000003 7.5284850000000008 430.92500000000007 0.35000000000000003 38.833335000000012 10.858335000000002 604.53333000000009 0.73863000000000012 27.166665000000005 0.71389000000000014 23.791220000000003 0.37222500000000008 0.49166500000000007 1.0546050000000002 2.2805550000000001 122.21944000000001 13.833335000000002 9.353785000000002 -1.7968749999999998 7.7724850000000005 2.9360150000000003 11.645100000000001 -0.41887499999999994 0.42941000000000007 14.159370000000001 14.816665000000002 1.5361100000000003 -0.093899999999999983 1.0030850000000002 1.0081200000000001 6.9750000000000005 18.000000000000004 25.244445000000002 9.0065800000000014
decision_type=2 2 2 2 2 2 2 2 2 2 2 2 2 2 2 2 2 2 2 2 2 2 2 2 2 2 2 2 2 2 2 2 2 2 2 2 2 2 2 2 2 2 2 2 2 2 2 2 2 2 2 2 2 2 2 2
left_child=1 3 7 9 6 8 13 40 31 39 42 23 36 29 15 45 38 49 -18 52 -21 -17 54 28 26 44 34 -14 -12 30 -2 -4 33 -11 -8 -31 -13 -28 -16 47 48 -42 -6 -24 -26 -5 -10 -1 -3 -7 -34 -41 -9 -25 -15 -44
right_child=4 2 5 14 10 17 24 19 46 32 11 12 27 22 16 21 18 -19 -20 20 -22 -23 43 53 25 -27 37 -29 -30 35 -32 -33 50 -35 -36 -37 -38 -39 -40 51 41 -43 55 -45 -46 -47 -48 -49 -50 -51 -52 -53 -54 -55 -56 -57
leaf_value=0.085758440681045642 0.064613681299350911 0.095147235089207499 0.010951896073872472 0.13052697799660853 0.056118558190405891 -0.0091953295017771133 0.057530191545195147 -0.012617150664105082 -0.058145023356604146 0.036912979167745677 -0.045421204578610694 -0.079392180698724335 0.077784833431370423 0.0019177917359483898 0.05208678499219966 0.0089634712530292041 -0.051401010652346618 0.11848610110041437 0.012674318772804701 0.10093685437085516 -0.0082425082673119165 0.041495789021276208 0.030249637046087224 -0.088373987249215483 -0.089862616288526778 0.019656045057648879 -0.018098780526336875 -0.014975486039976083 -0.097337307067736648 -0.042610188491115503 -0.015047455575509773 -0.028345775109263716 0.083485341073709016 0.091923611768207458 -0.023846652909854209 0.00030299072202053055 -0.043082145544150748 -0.061659034744032698 0.020810047479997196 0.11976173974792449 0.048321785408614017 0.01599390658681879 -0.0097770953692888907 0.07571715453007323 -0.059657339892902776 0.076214650211507709 -0.08646260159138576 0.12101654548843493 0.055197928816415893 0.012109485320982582 0.13799339379009115 0.091753159245377941 0.0035015833056592283 -0.070080371113730153 -0.036330841593953306 -0.032655762201990304
leaf_weight=51.929225131869316 5.7399241328239468 5.473849609494212 13.484318256378172 2.9765666276216498 2.4990008473396292 20.968650832772255 5.7440785318613035 40.958688378334045 54.353017032146454 39.874611839652061 36.605109959840775 20.182370707392693 2.9916339218616512 2.9978528618812588 16.736903458833694 52.864362925291061 15.989981308579443 3.2450535595417014 16.982556268572807 7.2435077875852567 7.4881894290447235 61.633940175175667 9.4936571121215838 84.000455796718597 17.714359432458878 5.2426298707723609 9.9846414327621478 20.684813812375069 10.188186243176458 27.465387001633644 12.730472445487974 105.83624546229839 3.9899107962846747 11.461338192224501 4.2413973361253738 12.238168641924856 25.649245068430901 16.98216587305069 42.214537069201469 22.606065139174465 59.573191270232201 18.96268330514431 8.2354647666215879 9.7420041412115079 19.726049140095711 36.307261943817139 11.709582984447477 6.2120409905910483 12.205385848879812 25.46328841149807 2.4957346767187119 6.9616067409515372 20.968717157840729 9.9511067420244199 3.9954556971788406 2.7435380518436423
leaf_count=209 23 22 54 12 10 84 23 164 218 160 147 81 12 12 67 212 64 13 68 29 30 247 38 338 71 21 40 83 41 110 51 424 16 46 17 49 103 68 169 91 239 76 33 39 79 146 47 25 49 102 10 28 84 40 16 11
internal_value=0 0.0214865 -0.00470771 0.0487994 -0.0447662 -0.0277594 -0.0229592 0.0266341 -0.0378989 0.0807975 -0.0607529 -0.0645039 -0.0400645 -0.00119213 0.0298451 0.0402433 0.0124451 0.0100718 -0.0183902 0.00294732 0.0454261 0.0264791 0.033774 -0.07657 -0.0460243 -0.0624557 -0.027032 -0.00323248 -0.0567372 -0.0169641 0.00969574 -0.0239017 0.0554258 0.0492058 0.0229334 -0.0293749 -0.059083 -0.0455468 0.0296977 0.0975174 0.0455023 0.0405214 -0.00221298 0.0533024 -0.0739633 0.0803477 -0.0631729 0.0895371 0.0675995 0.00248086 0.104564 0.113188 -0.00715386 -0.0864422 -0.0198913 -0.0155324
internal_weight=0 799.171 407.934 391.237 387.769 235.06 164.038 172.874 185.383 145.531 223.731 210.253 69.5081 84.4029 245.706 153.782 91.924 49.677 32.9725 76.6591 14.7317 114.498 26.229 140.745 79.6353 42.683 36.9523 23.6764 46.7933 58.174 18.4704 119.321 57.8216 51.336 9.98548 39.7036 45.8316 26.9668 58.9514 87.7089 96.2151 78.5359 13.478 19.2357 37.4404 39.2838 66.0626 58.1413 17.6792 46.4319 6.48565 29.5677 61.9274 93.9516 6.99331 10.979
internal_count=4761 3205 1635 1570 1556 942 657 693 743 585 899 845 279 338 985 617 368 199 132 307 59 459 105 566 319 171 148 95 188 233 74 478 232 206 40 159 184 108 236 353 386 315 54 77 150 158 265 234 71 186 26 119 248 378 28 44
is_linear=0
shrinkage=0.0709874


Tree=3
num_leaves=52
num_cat=0
split_feature=22 22 5 1 26 5 9 27 29 12 7 30 29 14 30 1 9 2 12 7 28 20 14 1 29 30 1 14 26 9 6 1 1 29 14 16 5 29 11 25 20 29 25 20 29 1 11 7 20 1 7
split_gain=203.014 52.5847 36.5639 31.2838 21.9621 23.4473 19.8286 17.7558 13.257 12.3085 10.5676 10.5068 9.37877 6.94482 6.84488 5.71214 5.62215 5.55503 4.9259 4.70842 6.61095 4.5861 5.04884 3.41063 3.37841 3.03405 2.88836 2.74049 2.51135 2.44875 2.42484 2.27137 1.7529 1.73573 1.68921 1.53572 1.46376 1.22088 1.07915 1.07414 1.06925 0.943166 0.899849 0.783686 1.12184 0.698384 1.23615 0.810314 0.597833 0.24631 0.116575
threshold=182.94667000000001 2.7138900000000006 0.98802000000000012 26.833335000000002 0.21666500000000002 0.89827500000000005 30.166665000000005 0.28333500000000006 0.96357000000000015 18.947220000000005 0.048435000000000013 15.488650000000002 0.54213500000000014 37.261110000000009 5.5840000000000005 22.833335000000002 46.166665000000002 18.426250000000003 16.047220000000003 0.59858000000000011 3.2595300000000003 0.8711500000000002 25.863890000000001 18.166665000000005 1.4220650000000001 14.882650000000002 5.166665000000001 52.119445000000006 0.31666500000000003 63.500000000000007 0.79323500000000013 19.166665000000005 25.166665000000005 0.69206500000000004 21.741670000000003 385.47500000000008 0.87241000000000013 0.76924500000000007 25.880555000000005 1.7980350000000003 0.65725000000000011 1.5980300000000003 1.0920250000000002 0.095000000000000015 0.65478000000000014 13.833335000000002 2.7250000000000005 0.98162000000000005 -2.0369249999999997 29.166665000000005 0.9939650000000001
decision_type=2 2 2 2 2 2 2 2 2 2 2 2 2 2 2 2 2 2 2 2 2 2 2 2 2 2 2 2 2 2 2 2 2 2 2 2 2 2 2 2 2 2 2 2 2 2 2 2 2 2 2
left_child=1 36 3 10 5 17 21 8 15 28 14 24 -12 -10 -3 -4 19 39 23 20 -6 26 -23 -8 -9 -20 -7 -11 -5 48 -21 -31 -32 -13 -19 -22 41 38 50 42 -33 43 -2 44 -1 47 -47 -39 -18 -50 -38
right_child=4 2 7 9 16 6 18 11 13 27 12 33 -14 -15 -16 -17 29 34 25 30 35 22 -24 -25 -26 -27 -28 -29 -30 31 32 40 -34 -35 -36 -37 37 45 -40 -41 -42 -43 -44 -45 -46 46 -48 -49 49 -51 -52
leaf_value=0.11096603641638664 0.048874274899385874 0.047872223338378858 0.03177927200849931 -0.02791530383490658 0.11006088285207929 -0.0094617951186154771 -0.041249367126900832 0.034928532777951007 -0.016563916687178892 0.019338359283692937 0.074600712361308774 0.033564062026039822 0.030926013780784477 -0.071532873573919534 0.092997816230344463 -0.0014726306751974142 -0.037234177720831638 -0.078006846602226856 -0.048964101883211875 -0.0567079052315764 0.034137922416463358 -0.020286696149569468 0.050446281162104027 -0.095772292768927694 0.076667276573912341 -0.070370406330988636 -0.041743525382497725 0.061824759240536181 0.012391490097520897 0.0088651336535708232 0.028221267929816513 -0.078347892379706269 -0.0084653840598353167 -0.012726399132458438 0.0045626994440749521 -0.013368266197781035 0.09265475332134096 0.083363825992754631 0.045746473273344093 0.020018047079971686 -0.031749258467675331 0.052694632325318569 0.09477441755404277 0.12611276717796738 0.080425882444212088 0.027727033500086908 0.073180972674878483 0.049249357376177062 0.014950100347234554 -0.0096924761300667787 0.10932797536665693
leaf_weight=9.341616049408918 7.9723186045885104 29.49925722181797 42.339291825890541 43.624536395072937 4.4908019900321987 16.674071669578552 6.9464501440525046 66.791867941617966 129.84754437208176 22.170993283390999 31.518493309617043 4.7404737770557395 116.16804191470146 12.719985738396643 39.953272581100464 67.541082128882408 3.4850182384252539 2.4909193813800803 71.165129482746124 4.4778937548398963 6.9780233800411207 23.670235320925716 6.4725304096937171 35.386052310466766 11.47014272212982 63.203371033072472 87.006371304392815 11.71223698556423 9.4680057168006879 2.4862843453884098 7.9798618108034125 8.9466865807771665 36.870651945471764 29.17213074862957 2.4851032346487045 6.7247190624475479 8.3640826344490034 11.32317396998406 2.4831153750419608 4.4689471125602713 3.4807981401681909 2.9450806379318228 2.992240846157074 3.6907126009464255 18.01064632833004 6.1841358840465528 5.9547652304172516 5.1980437934398642 2.7406507730484027 7.9564483612775803 3.4613415598869315
leaf_count=38 32 119 170 175 18 67 28 268 521 89 127 19 467 51 162 271 14 10 287 18 28 95 26 143 46 255 350 47 38 10 32 36 148 117 10 27 34 46 10 18 14 12 12 15 73 25 24 21 11 32 14
internal_value=0 0.024807 0.0184114 0.0365867 -0.0365498 -0.0452431 -0.0500878 0.00325104 -0.00719007 0.000608358 0.0509961 0.0267513 0.0402504 -0.021472 0.0738388 0.0113374 -0.00676937 0.0284464 -0.0657002 0.00446715 0.0353337 -0.0294696 -0.0050836 -0.0868369 0.0410527 -0.0590369 -0.0365556 0.0340384 -0.0207206 -0.0328554 -0.0069116 -0.0529417 -0.00192904 -0.00624333 -0.0367219 0.0108009 0.0803766 0.0716191 0.0886267 0.0494829 -0.0653338 0.0914312 0.0614527 0.0950901 0.0908791 0.0631084 0.0500646 0.0726614 -0.0117023 -0.00334456 0.0975888
internal_weight=0 745.694 668.737 304.115 427.552 330.934 310.524 364.623 252.448 86.9758 217.139 112.175 147.687 142.568 69.4525 109.88 96.6178 20.4095 176.701 67.522 18.1935 133.823 30.1428 42.3325 78.262 134.369 103.68 33.8832 53.0925 29.0959 49.3284 14.9138 44.8505 33.9126 4.97602 13.7027 76.9567 42.9687 14.3085 15.4335 12.4275 33.9881 10.9646 31.043 27.3523 28.6601 12.1389 16.5212 14.1821 10.6971 11.8254
internal_count=4720 2999 2687 1224 1721 1333 1251 1463 1013 349 875 450 594 572 281 441 388 82 713 271 73 538 121 171 314 542 417 136 213 117 198 60 180 136 20 55 312 174 58 62 50 138 44 126 111 116 49 67 57 43 48
is_linear=0
shrinkage=0.0709874


Tree=4
num_leaves=45
num_cat=0
split_feature=22 22 7 7 3 6 27 3 17 5 27 3 17 3 3 24 29 8 3 13 3 26 14 28 2 5 26 4 27 5 2 3 24 27 20 12 25 29 2 29 11 3 20 29
split_gain=184.677 50.7355 33.3512 27.147 15.1795 28.1168 17.4353 10.7063 9.48139 9.12618 9.12155 11.8508 7.93522 14.9439 7.1381 6.57132 4.81026 4.98769 4.01086 3.82567 3.52471 3.30333 3.21994 3.14228 2.84803 5.02636 2.43612 2.29493 2.25038 3.60757 2.21443 4.10739 2.15511 3.726 1.91587 1.66338 1.44015 1.37466 0.974933 0.777124 0.67278 0.646598 0.292386 0.233649
threshold=42.669445000000003 392.3611150000001 0.61941500000000016 0.52016000000000007 13.500000000000002 1.0905200000000004 0.23888500000000004 7.5000000000000009 3.0549350000000004 0.89581000000000011 0.10555500000000002 1.5000000000000002 3.0720000000000005 1.5000000000000002 2.5000000000000004 243.22778000000002 1.0908350000000002 97.072225000000017 1.0000000180025095e-35 1.0750000000000002 8.5000000000000018 0.14444500000000002 4.9055550000000006 8.0812500000000025 24.812580000000004 1.3358950000000001 0.10555500000000002 1.0000000180025095e-35 0.14444500000000002 0.77346000000000015 12.937415000000003 6.5000000000000009 1.0000000180025095e-35 0.38333500000000004 -2.7293249999999998 23.686110000000003 1.2354450000000001 1.0175300000000003 7.1996850000000014 1.2273700000000003 16.241665000000001 9.5000000000000018 -0.15349999999999997 1.1253500000000003
decision_type=2 2 2 2 2 2 2 2 2 2 2 2 2 2 2 2 2 2 2 2 2 2 2 2 2 2 2 2 2 2 2 2 2 2 2 2 2 2 2 2 2 2 2 2
left_child=3 2 10 8 5 6 -4 9 18 40 14 22 13 24 15 -2 21 -18 28 -7 -16 -11 -12 36 25 -5 -13 37 29 -1 31 -20 -14 39 -9 -25 -6 -15 -30 -34 -3 42 -10 -32
right_child=1 7 4 12 23 19 -8 34 41 16 11 26 32 27 20 -17 17 -19 30 -21 -22 -23 -24 35 -26 -27 -28 -29 38 -31 43 -33 33 -35 -36 -37 -38 -39 -40 -41 -42 -43 -44 -45
leaf_value=0.063830892893441529 -0.00079346227978223372 0.056427062996601308 -0.042511185805072849 -0.0015960082243951781 -0.015203263916549522 0.00068663803568485822 -0.0077339192304651727 0.075455410697032599 0.084781088625347986 -0.054383939586891403 0.038600216988106582 0.019402899841725368 0.11137199845551925 0.08285482007886609 -0.0030939602637424022 -0.052663849210555468 -0.075010582424356376 0.022844305224785623 0.0289085941785917 0.03024320519490659 0.062356053653679328 -0.026480094169443504 0.005554189274427448 0.064738463478394528 0.06387888463476564 0.060999985463694152 0.06911393470413231 0.002461532295889423 0.080571819011566626 0.028334138997953753 0.10320436622124583 0.079733918223036257 0.014780418380336821 0.10300315317489665 0.0018831741767979849 0.14005191835357231 0.057453878048760877 0.052176393652133606 0.054832533357714042 0.055390560485793369 0.0071313770450676158 0.12084115675589108 0.10427606086909937 0.084061169811664158
leaf_weight=22.618389368057251 66.146489933133125 3.229604721069335 222.58611096441746 94.733199223875999 2.7432099282741529 50.311682969331741 107.87936398386955 3.2391963452100754 6.8731596618890789 78.312715530395508 19.154583901166916 5.9455750584602347 4.1944279223680523 13.123470261693003 6.4446849822998074 15.122485175728796 64.151883959770203 2.7300434559583655 11.564553186297415 39.34187887609005 11.573628708720205 29.496592193841934 66.380280002951622 3.7451059520244598 3.9791104942560187 6.9343859255313864 30.92724497616291 3.2301759272813788 11.817511215806006 40.031172752380371 9.7548559606075269 26.299032405018806 6.6851998865604383 5.1978215575218192 3.9872587770223609 2.4806389063596725 2.7400530874729156 17.06989398598671 20.514027267694473 3.7119250595569611 2.4869814068078995 8.4691666811704618 10.273780122399332 5.3690189868211737
leaf_count=92 266 13 896 381 11 202 433 13 28 318 77 24 17 53 26 61 260 11 47 158 47 119 267 15 16 28 125 13 48 162 40 108 27 21 16 10 11 69 83 15 10 35 42 22
internal_value=0 -0.0172231 -0.00788071 0.0452723 -0.0193712 -0.0215939 -0.0311595 -0.0497598 0.0646793 -0.0531543 0.0144995 0.0274676 0.0240636 0.0180745 -0.00148529 -0.0104512 -0.0560434 -0.0710103 0.0577691 0.0136611 0.0389304 -0.0467535 0.0129595 0.0603344 0.00498183 0.00267162 0.0611096 0.0594445 0.0490258 0.0411573 0.0734317 0.0642229 0.0661259 0.0539167 0.0349252 0.0948515 0.0210525 0.0655285 0.0642573 0.0293228 0.0350552 0.104571 0.0964968 0.096448
internal_weight=0 841.157 653.523 332.444 431.828 420.119 330.465 187.634 173.585 180.408 221.695 122.408 158.86 139.07 99.2873 81.269 174.691 66.8819 147.969 89.6536 18.0183 107.809 85.5349 11.709 105.647 101.668 36.8728 33.4235 94.9811 62.6496 52.9875 37.8636 19.7894 15.5949 7.22646 6.22574 5.48326 30.1934 32.3315 10.3971 5.71659 25.6161 17.1469 15.1239
internal_count=4736 3389 2629 1347 1736 1689 1329 760 707 731 893 493 640 560 400 327 708 271 602 360 73 437 344 47 425 409 149 135 385 254 217 155 80 63 29 25 22 122 131 42 23 105 70 62
is_linear=0
shrinkage=0.0709874


Tree=5
num_leaves=52
num_cat=0
split_feature=9 5 22 16 15 27 11 19 15 13 16 15 15 18 6 15 22 8 6 8 20 12 20 23 8 15 29 14 27 28 16 15 6 2 11 29 2 13 14 28 6 29 2 2 2 14 15 2 2 11 24
split_gain=202.11 72.9733 29.4028 20.6343 25.4506 20.6162 16.7232 13.5799 12.9535 8.43383 7.253 5.53244 5.33713 8.5583 6.92492 4.55169 4.04411 3.97498 3.9513 3.66334 3.28391 3.43515 3.12215 2.42994 3.12191 6.93256 2.80275 2.28544 2.23259 2.17354 1.99617 3.46119 4.07522 1.81246 1.80946 1.76812 1.70382 1.47217 1.27844 1.26602 1.2365 1.74069 1.14582 1.12488 0.962937 1.87399 0.95884 0.750022 0.68876 0.426857 0.0223117
threshold=24.500000000000004 0.87421000000000004 184.70000000000002 4.7783350000000011 4.0500000000000016 0.050000000000000003 9.8138900000000024 0.78085000000000016 2.1833350000000005 6.9444450000000009 188.22500000000002 6.4833350000000012 2.6166650000000007 60.166670000000011 1.2876650000000003 5.2166650000000008 663.90277500000013 1.4694450000000001 0.95195500000000011 1.7472200000000002 -1.9460249999999999 20.450000000000003 2.0644250000000004 103.16666500000001 2.2805550000000001 2.1500000000000004 0.93767500000000015 46.711115000000007 0.14444500000000002 10.323685000000003 53.07 2.9500000000000006 0.9929650000000001 14.310485000000002 17.986110000000004 1.2500800000000003 6.1261000000000001 35.688885000000006 3.5194450000000006 7.6328350000000009 1.0546050000000002 0.93767500000000015 19.662000000000003 10.015115000000002 12.141835000000002 6.9361100000000002 0.88333500000000009 8.0930000000000017 12.719515000000001 12.036110000000003 22.777775000000002
decision_type=2 2 2 2 2 2 2 2 2 2 2 2 2 2 2 2 2 2 2 2 2 2 2 2 2 2 2 2 2 2 2 2 2 2 2 2 2 2 2 2 2 2 2 2 2 2 2 2 2 2 2
left_child=1 23 6 29 7 18 30 8 -5 20 11 -6 19 14 -14 22 -12 -9 44 28 27 -22 -11 24 25 34 -27 -8 -7 40 39 32 -32 38 -1 -33 -25 -21 -20 -2 46 -42 -35 -17 49 -46 -3 -26 -38 -4 -49
right_child=2 3 5 4 10 12 9 17 -10 15 16 -13 13 -15 -16 43 -18 -19 33 37 21 -23 -24 36 47 26 -28 -29 -30 -31 31 35 -34 42 -36 -37 48 -39 -40 -41 41 -43 -44 -45 45 -47 -48 50 -50 -51 -52
leaf_value=0.07049620629756688 0.012928191578560053 0.081892682058833863 -0.060148677030489907 0.019663522158617081 -0.0053721402506283489 -0.07081809091175896 -0.0095315729596378903 0.046484035299276742 -0.011859443060461161 0.018394975596107043 -0.040821217705388817 -0.070133634545517035 -0.057613904801050039 0.042590012808133064 0.013390922669207895 0.0095066213387584066 -0.12465218059214871 0.10694890797328742 -0.11105236772213893 -0.021311169400883866 -0.047246634528693737 -0.012603049377644341 0.063283156565602253 0.043922178706956208 0.062431741720579435 0.053607278976681702 0.020223647546593896 0.039716443920741681 -0.024307135919231847 0.004032047215921244 -0.080410921246098971 -0.10637044767685742 0.005140249475160074 -0.11939805545833185 0.035598734471565113 -0.052951934109431241 0.080317545412904118 0.0064853040787961934 -0.074335753554053627 -0.057125188976558522 -0.0086145899472668628 0.063160667445291474 -0.087928290038305337 -0.043846947389766536 -0.10904597458873579 -0.054231965104191801 0.056604481227154745 0.10328596699624558 0.11648434213498997 -0.031142878731495634 0.094281736281867243
leaf_weight=88.78370401263237 2.7322295010089901 15.533883333206179 4.1820785850286502 260.62010391056538 82.417875573039055 11.646944150328638 13.901060417294504 17.863169327378277 87.808702349662781 31.019925147294998 33.329835757613182 7.2297877967357627 103.04012042284012 4.94106501340866 7.4106315225362769 2.9708632528781873 3.1801319420337668 7.9316284060478202 5.8433024883270255 44.909334287047386 22.577770978212357 40.044201046228409 10.452033549547194 3.2142257690429679 4.3947029709816006 23.081560119986534 28.21863129734993 7.2039197683334342 9.4543828964233381 3.4268646091222754 5.7248793244361895 10.67677681148052 5.4857417345046997 14.160359576344492 8.2319805622100812 4.4695580899715415 4.4323087185621244 12.188881397247313 27.899065494537354 2.4654632061719894 2.6781931370496741 4.6320535391569138 10.215526759624479 5.9739383161067963 4.4038547128438941 11.210597753524778 15.072789788246153 3.4136763811111441 7.0968472212553024 6.8417451977729797 9.7090513557195646
leaf_count=366 11 64 17 1050 331 47 56 72 353 125 135 29 420 20 30 12 13 32 24 181 91 161 42 13 18 94 114 29 38 14 23 43 22 58 34 18 18 49 114 10 11 19 42 24 18 46 61 14 29 28 40
internal_value=0 0.0231144 -0.0377432 0.0100865 0.00610319 -0.0518373 -0.0140647 0.0153992 0.0117183 -0.00312377 -0.0214686 -0.0106008 -0.0390499 -0.0487561 -0.0528465 0.0198103 -0.0481415 0.0650992 -0.0810387 -0.0247217 -0.016938 -0.0251005 0.0297198 0.0621951 0.0597314 0.0563754 0.0352528 0.00726537 -0.0500013 0.058284 -0.060561 -0.0684949 -0.0385263 -0.091428 0.0675397 -0.0906424 0.0898673 -0.0153714 -0.080713 -0.0202476 0.0631775 0.0368247 -0.106235 -0.0260906 -0.0583518 -0.0697303 0.0694566 0.0881126 0.102633 -0.0421903 0.0966717
internal_weight=0 722.302 444.046 541.725 500.381 278.348 165.698 374.224 348.429 134.144 126.158 89.6477 193.591 115.392 110.451 50.4168 36.51 25.7948 84.7565 78.1995 83.727 62.622 41.472 180.577 165.833 148.316 51.3002 21.105 21.1013 41.3438 31.5546 26.357 11.2106 58.1183 97.0157 15.1463 14.7434 57.0982 33.7424 5.19769 37.9169 7.31025 24.3759 8.9448 26.6383 15.6145 30.6067 17.5174 11.5292 11.0238 13.1227
internal_count=4723 2924 1799 2184 2015 1132 667 1507 1403 540 508 360 785 470 450 203 148 104 347 315 337 252 167 740 680 608 208 85 85 169 127 106 45 238 400 61 60 230 138 21 155 30 100 36 109 64 125 72 47 45 54
is_linear=0
shrinkage=0.0709874


Tree=6
num_leaves=54
num_cat=0
split_feature=22 5 15 15 22 23 27 9 15 30 12 28 10 8 28 29 6 16 20 29 25 8 10 29 7 4 9 26 29 2 16 15 8 1 26 2 17 25 23 21 14 29 28 27 25 6 7 27 4 28 7 6 14
split_gain=139.709 62.3358 33.1562 31.4673 20.5799 15.8221 14.6452 13.9943 10.6206 9.27645 8.24505 8.11304 6.5991 6.11959 5.48996 5.38648 5.07682 5.27126 4.85771 4.78022 4.04577 4.56456 3.72553 3.58489 3.5794 3.99229 3.16735 4.83847 3.4246 3.13975 3.08284 2.75105 2.63256 2.56277 2.48354 2.42392 2.29981 2.20619 1.81324 1.7532 2.17533 1.55852 1.42878 1.40307 2.39419 1.45614 1.25294 1.05151 0.910765 0.8894 0.356963 0.270915 0.291227
threshold=157.16666500000005 0.72187000000000012 5.0500000000000016 3.7500000000000004 38.380670000000002 126.50000000000001 0.31666500000000003 35.833335000000012 1.1500000000000001 13.808015000000003 41.872225000000007 6.8090000000000011 9.8333350000000017 3.4638900000000006 7.5284850000000008 0.73719500000000016 0.86786000000000019 330.45333000000005 4.2400000000000011 1.1843450000000002 1.9148350000000003 2.6805550000000005 53.500000000000007 1.4220650000000001 0.29075000000000006 1.0000000180025095e-35 51.833335000000012 0.41111000000000003 0.96886500000000009 23.307650000000002 59.38750000000001 4.8833350000000015 1.7083350000000002 17.833335000000002 1.0000000180025095e-35 11.094785000000002 3.0528000000000004 1.4534900000000002 149.83333500000003 91.830555000000018 1.6305550000000002 0.9789000000000001 8.181535000000002 0.43888500000000003 1.0405100000000003 1.07569 0.9939650000000001 0.21666500000000002 1.0000000180025095e-35 4.0908000000000007 0.7301200000000001 0.87984000000000007 69.616665000000026
decision_type=2 2 2 2 2 2 2 2 2 2 2 2 2 2 2 2 2 2 2 2 2 2 2 2 2 2 2 2 2 2 2 2 2 2 2 2 2 2 2 2 2 2 2 2 2 2 2 2 2 2 2 2 2
left_child=1 19 4 7 8 12 14 10 11 24 30 -3 -5 29 -6 50 17 -7 -8 39 21 -14 -19 -22 47 -26 28 -28 -15 48 46 -10 35 -32 -21 -11 -17 -36 -34 40 49 -31 -42 44 -18 -45 -2 -4 -9 -1 -12 52 -41
right_child=3 2 9 5 6 16 18 13 31 32 15 -13 20 26 -16 36 43 22 -20 34 23 -23 -24 -25 25 -27 27 -29 -30 41 33 -33 38 -35 37 -37 -38 -39 -40 51 42 -43 -44 45 -46 -47 -48 -49 -50 -51 -52 -53 -54
leaf_value=0.09829661187422005 0.041385690376956864 0.030792401723494827 0.02944062213370742 0.077290150078831138 0.0062553903546566873 0.034442893583685977 0.024655685634632132 -0.062921398317427282 0.015381804536552759 -0.1292825873732649 0.085569664698839643 0.065377019398140016 -0.027302137034311013 -0.032878664871152111 -0.017005792931618881 0.017607098192323766 -0.054409154755855026 0.017182301695769356 0.075318242938391053 0.07838463475019343 -0.040358160380396996 0.03384130378746001 -0.072196289221902243 -0.1084336127038343 -0.026814383490084425 0.049282892967548203 -0.05025460586225651 0.02782486544388376 0.01539073932963343 0.022199336268874218 0.010103637651547986 -0.06064391045866166 -0.0090084087623582085 -0.019851412614435127 0.012602410703685944 -0.063679228785538874 -0.033389976993767098 0.077777596783978234 -0.072288634219948911 0.12129353592734361 0.046523259113627202 -0.046463498061860044 0.086297407261375234 -0.070051710699978148 -0.081113497785151381 -0.0015383932169205094 -0.014922198872735333 -0.012214600812336007 -0.10312689533945212 0.076622698698797218 0.057861499661821719 0.089277676404544204 0.090998332788514533
leaf_weight=17.008026316761971 7.1952616423368436 75.414270669221878 10.910172224044798 2.9610294103622428 113.46180698275566 4.4110597223043468 66.591037854552269 29.569104969501495 68.753755673766136 3.4548705369234147 3.9616787582635862 62.616203665733337 36.842970207333565 13.074571430683138 93.046046674251556 30.501246467232704 21.641076073050499 2.9388536959886542 11.141683518886564 6.9491459429264095 25.055856123566631 7.3789760470390311 11.594221264123915 4.6262484341859809 48.712761059403419 3.7354323565959922 25.573256880044941 4.7328588366508475 17.069900959730148 3.211332067847251 16.888320714235306 2.4808651357889167 6.70038093626499 96.783364325761795 11.818826526403425 16.336562693119049 5.2122261226177207 3.3666477203369132 3.4702585935592651 6.0361586809158307 15.762842893600466 3.4474398195743561 6.4572616070508948 3.6957827508449546 79.51772004365921 2.7258391678333282 2.7406426817178726 4.224965587258338 3.1822280436754218 22.623309537768364 6.2195371091365814 3.9003141671419135 2.406055822968483
leaf_count=71 29 309 44 12 456 18 268 121 278 14 16 257 150 53 374 123 90 12 45 29 102 30 48 19 196 15 104 19 69 13 68 10 27 391 49 66 21 14 14 25 66 14 27 15 329 11 11 17 13 95 25 16 10
internal_value=0 0.0192562 0.0106253 -0.0308776 0.0181006 -0.0519546 0.00566078 -0.0149612 0.0349955 -0.0271904 -0.00253952 0.0464849 -0.0265436 -0.0360414 -0.0042238 0.023151 -0.0673884 -0.0334621 0.0319242 0.0722085 -0.0307112 -0.0170903 -0.0540988 -0.0509892 -0.012607 -0.0213857 -0.0218417 -0.0380483 -0.00553487 -0.0578102 -0.0120813 0.012727 -0.0600694 -0.0153978 0.0432146 -0.0751652 0.0101527 0.0270861 -0.0306475 0.0808518 0.0759489 -0.0133024 0.0581066 -0.0733584 -0.0754056 -0.0410361 0.0258198 0.0177898 -0.0668468 0.0859391 0.0686974 0.105371 0.112733
internal_weight=0 687.38 591.051 472.753 493.506 203.39 284.241 269.363 209.265 97.5454 169.502 138.03 76.8651 99.8607 206.508 45.8947 126.525 18.9441 77.7327 96.3286 73.9041 44.2219 14.5331 29.6821 67.5833 52.4482 60.4506 30.3061 30.1445 39.4101 123.608 71.2346 29.9621 113.672 22.1346 19.7914 35.7135 15.1855 10.1706 74.194 61.8514 6.65877 22.2201 107.58 101.159 6.42162 9.9359 15.1351 32.7513 39.6313 10.1812 12.3425 8.44221
internal_count=4718 2792 2390 1926 1997 836 1143 1090 854 393 684 566 313 406 830 185 523 78 313 402 301 180 60 121 272 211 245 123 122 161 499 288 121 459 92 80 144 63 41 310 259 27 93 445 419 26 40 61 134 166 41 51 35
is_linear=0
shrinkage=0.0709874


Tree=7
num_leaves=50
num_cat=0
split_feature=22 23 15 3 15 26 15 30 30 28 30 29 14 3 27 3 26 25 29 21 29 10 21 15 19 6 13 19 30 10 15 23 25 30 28 3 25 19 21 6 13 30 15 30 30 27 30 14 11
split_gain=96.4804 64.1021 38.8731 34.8126 22.734 16.4622 11.6511 11.1677 9.54048 11.5515 8.12309 7.14069 6.74027 9.45841 5.92279 5.08077 4.9204 4.46887 3.89258 3.85654 10.6158 4.73002 3.7415 3.70061 3.46715 3.63742 4.77042 3.23718 5.37844 2.99739 2.88428 2.83382 2.82395 2.71452 2.68583 2.53709 2.47804 2.04136 1.73229 1.61524 1.13234 1.12786 0.883764 0.985069 0.519599 0.36521 0.187778 0.0929992 0.049753
threshold=379.40278000000006 33.500000000000007 0.91666500000000017 1.0000000180025095e-35 2.0166650000000002 0.27778000000000008 2.9166650000000005 6.5617650000000003 9.9235500000000005 9.2789850000000023 5.5840000000000005 0.8574250000000001 325.65000000000003 5.5000000000000009 0.28333500000000006 5.5000000000000009 0.31666500000000003 4.4399800000000011 0.69206500000000004 66.258330000000015 0.82294500000000015 24.833335000000002 2.1027750000000007 5.3500000000000005 0.051975000000000007 0.99906500000000009 13.136110000000002 -0.5104749999999999 9.538000000000002 28.500000000000004 6.2166650000000008 350.50000000000006 3.1569300000000005 4.5140850000000006 11.208435000000001 10.500000000000002 1.9937500000000001 1.0000000180025095e-35 13.31667 1.3303400000000003 1.9805550000000003 11.407335000000002 3.2166650000000003 9.7734200000000016 15.653835000000003 1.0000000180025095e-35 12.307835000000003 6.1916650000000013 2.6500000000000004
decision_type=2 2 2 2 2 2 2 2 2 2 2 2 2 2 2 2 2 2 2 2 2 2 2 2 2 2 2 2 2 2 2 2 2 2 2 2 2 2 2 2 2 2 2 2 2 2 2 2 2
left_child=1 6 12 5 11 7 10 -4 9 -5 22 18 13 16 -10 32 -3 23 29 21 -21 -12 45 27 25 26 -13 28 -6 -2 33 -7 34 -25 -8 -17 -27 -29 -24 -15 -32 -31 -19 -44 -45 -1 -20 -34 -37
right_child=4 2 3 8 17 31 15 -9 14 -11 19 24 -14 39 -16 35 -18 42 46 20 -22 -23 38 30 -26 36 -28 37 -30 41 40 -33 47 -35 -36 48 -38 -39 -40 -41 -42 -43 43 44 -46 -47 -48 -49 -50
leaf_value=0.060030274426335094 0.052294432170971114 0.0053906402782241507 -0.014678726091166314 0.066431280654091332 0.071495211194266647 0.0053065942111097065 0.01228860420593306 -0.045855577837820426 -0.020759161653860776 -0.031362158123071124 0.077692494232261211 -0.074799410702761665 -0.063366326324235847 0.042234532895311448 0.032061897780724949 0.099977457192574296 0.028550528279588178 -0.12411576215139247 0.068362874002249621 0.10073078139441345 -0.012648204802144491 0.044785436354322902 0.040387834354132353 0.00051779777109845176 0.033363695023226982 0.0089951005752089939 0.0070707708318826406 -0.05684690743987774 -0.068301614524921395 0.0031579413703997756 -0.11552891688340734 -0.048967697162228374 0.06856766511277923 -0.067259325168263259 -0.049489321755866997 0.026233171893764087 -0.041119477303664817 -0.018876808500766524 0.013176115136751529 0.080018205072583407 -0.079526733213149237 -0.047103963575051984 -0.054298248355187609 -0.082028100364430825 -0.11858645089430779 0.090401477869009927 0.047398139077019188 0.050288315232219369 0.039297566905126598
leaf_weight=6.3826304078102094 3.4726539552211788 135.25147446990013 88.355078727006912 33.935003116726875 2.8963582366704932 74.696233123540878 82.013608142733574 168.18567186594009 25.512782514095306 7.4098968952894202 60.5031957924366 15.390795364975931 4.9492977261543265 46.798104390501976 18.415905073285103 5.1514899730682355 70.267282202839851 4.6399286091327694 4.2023945152759534 6.6331510841846493 11.147428765892981 34.725377827882767 17.011737942695618 3.3833334445953396 4.2046047896146765 11.302567929029466 4.6655715107917777 54.992528557777405 2.6552140712738037 3.9737664461135846 8.0091605484485644 5.180991679430007 2.992865413427352 24.234669104218483 3.7019533812999716 3.0976576656103134 8.8621053993701917 8.2355633825063688 38.611466035246849 6.524507299065589 10.121472910046576 5.1456446051597595 3.3441970199346533 4.0502865463495237 4.071233332157135 3.042627364397049 4.8965853452682495 3.2235057055950165 3.3902157992124557
leaf_count=27 14 546 357 138 12 301 331 686 104 30 255 63 20 193 75 21 285 19 17 27 45 145 71 14 17 46 19 228 11 16 34 21 12 102 15 13 36 34 158 27 43 21 14 17 17 13 20 13 14
internal_value=0 0.00899657 -0.00271739 -0.016088 -0.0455356 -0.0263573 0.0375092 -0.0351196 0.0244214 0.0488953 0.0485223 -0.0116103 0.0186554 0.0202257 0.00137744 0.0185715 0.013311 -0.0627026 0.0217656 0.0600285 0.0296384 0.0656981 0.0285256 -0.0577689 -0.0279143 -0.0343305 -0.0557391 -0.0473441 0.00457041 -0.00377301 -0.0734304 0.00178037 0.0129713 -0.0589447 0.00961496 0.0627608 -0.0130152 -0.0519077 0.0215063 0.0468681 -0.0954649 -0.0251705 -0.0977495 -0.087022 -0.100431 0.0698949 0.0571365 0.059171 0.0331268
internal_weight=0 967.111 685.482 421.692 196.751 336.418 281.629 256.541 85.2736 41.3449 178.058 66.1167 263.791 258.841 43.9287 103.571 205.519 130.634 21.691 113.009 17.7806 95.2286 65.0485 114.528 44.4256 40.221 20.0564 68.7797 5.55157 12.5921 45.7486 79.8772 91.9319 27.618 85.7156 11.6394 20.1647 63.2281 55.6232 53.3226 18.1306 9.11941 16.1056 11.4657 8.12152 9.42526 9.09898 6.21637 6.48787
internal_count=4757 3943 2783 1712 814 1365 1160 1043 347 168 741 269 1071 1051 179 419 831 545 88 472 72 400 269 478 181 164 82 285 23 51 193 322 371 116 346 48 82 262 229 220 77 37 67 48 34 40 37 25 27
is_linear=0
shrinkage=0.0709874


Tree=8
num_leaves=43
num_cat=0
split_feature=9 5 22 13 27 3 3 3 23 2 22 7 28 16 7 20 24 29 0 17 8 16 6 29 21 27 6 2 2 27 6 8 3 27 25 29 29 6 6 13 8 1
split_gain=128.335 57.3676 36.9217 24.0405 17.0239 14.0544 10.3842 14.7735 10.2468 9.80425 12.0312 7.6974 5.64272 5.30694 3.50973 3.49771 5.51372 5.43245 3.49233 3.68989 3.92743 3.49386 2.25675 2.39803 1.9068 2.39816 1.85884 4.11323 1.73746 1.6332 1.51238 1.18817 1.08756 1.07894 0.753097 0.724443 2.75641 0.669931 0.393669 0.293101 0.22935 0.217162
threshold=25.500000000000004 0.78361000000000014 490.40278000000006 9.3333350000000017 0.61666500000000013 6.5000000000000009 19.500000000000004 9.5000000000000018 1.5000000000000002 6.6635850000000003 16.297220000000006 0.81637000000000015 4.2739850000000006 257.61833000000007 0.88885500000000006 0.039875000000000008 563.94166500000017 1.0122750000000003 7.4175850000000008 3.1532850000000003 4.2527800000000004 90.288335000000018 1.0145600000000001 0.71468000000000009 226.10278000000002 0.43888500000000003 1.2352850000000002 20.058450000000004 9.317400000000001 0.21666500000000002 0.97676500000000011 16.550000000000001 13.500000000000002 0.21666500000000002 2.2249900000000005 1.2381200000000001 0.63116000000000005 1.0351750000000004 1.3477000000000003 1.8027800000000003 1.5750000000000002 5.5000000000000009
decision_type=2 2 2 2 2 2 2 2 2 2 2 2 2 2 2 2 2 2 2 2 2 2 2 2 2 2 2 2 2 2 2 2 2 2 2 2 2 2 2 2 2 2
left_child=1 18 3 4 6 8 7 -2 30 11 -11 -10 29 -4 24 17 -17 -16 19 20 32 -21 35 -24 33 -26 27 -14 -6 41 -3 -25 -1 -5 -22 36 -15 -32 -28 -20 -37 -7
right_child=2 5 13 14 28 12 -8 -9 9 10 -12 -13 26 22 15 16 -18 -19 39 21 34 -23 23 31 25 -27 38 -29 -30 -31 37 -33 -34 -35 -36 40 -38 -39 -40 -41 -42 -43
leaf_value=0.046394214739340918 -0.038694745912459361 0.019384920643229289 0.010057801675579372 0.021883308030346715 0.016987045991067106 0.048116939841597886 0.099765018374064388 0.073052276099515853 0.0076810473057621446 0.044677937033686728 0.0069966331698156966 -0.020749474996834584 0.013501937903292734 -0.035328102201509802 0.006778102730383719 0.037215891315818317 -0.065796905694798596 -0.062065812993683508 0.11669901371604395 0.10984342245764488 0.11334344011464641 0.025015495382226 -0.00058886879764294419 -0.073808465128199663 0.0044475815733633264 0.044324460258366373 0.046029369792399868 0.074106693245418839 0.087550128562164445 0.11997429262016698 0.08695958625411554 -0.039575104332834822 0.064355097887172294 0.059809239558364959 0.070756260104249097 -0.1118292264919338 -0.082399695247929047 0.047072187287175882 0.079640202079447456 0.087002366381002769 -0.088833146967980267 0.070729772027610313
leaf_weight=67.823109403252602 220.18807852268219 2.862855225801467 4.1491001844406119 6.4136885553598395 2.4774884879589063 2.8829884231090572 2.8853501677513114 6.123092219233512 90.384438335895538 50.366785287857056 280.66985981166363 102.27276928722858 33.757090121507645 7.4165721088647834 13.968670591712 15.261184811592104 3.1559783667325965 9.8356969058513624 5.9005198925733549 12.288305848836897 6.282425254583357 3.0711521357297888 3.572142809629443 16.363271370530132 28.486995249986649 10.374582737684248 3.6261098831892005 6.7801399976015082 6.1812406331300735 3.6017210185527793 8.7742603868246061 7.5235998928546897 22.896716743707657 9.3461334407329542 3.253351554274559 3.0068787932395926 41.726188182830811 2.8722164630889884 3.584384024143219 2.5773771703243256 10.801962763071058 10.253761529922484
leaf_count=284 903 12 17 26 10 12 12 25 367 209 1136 413 139 31 57 62 13 40 25 54 27 13 15 69 116 42 15 28 25 15 37 31 100 38 14 13 177 12 15 11 46 42
internal_value=0 0.0197562 -0.0291965 -0.0181289 -0.0302687 0.0107055 -0.0339613 -0.0356689 0.00695233 0.00532106 0.0127312 -0.0074097 0.0420229 -0.0683657 0.0116843 -0.00367951 0.0195376 -0.0216569 0.0637089 0.0604744 0.055499 0.0929119 -0.0719687 -0.0549346 0.0235661 0.0151045 0.0295753 0.0236514 0.0674118 0.0774992 0.0657946 -0.0630463 0.050933 0.0444031 0.0988748 -0.0793906 -0.0753051 0.0771658 0.0628095 0.107743 -0.093887 0.0658046
internal_weight=0 726.782 429.258 334.698 237.855 602.689 229.197 226.311 538.203 523.694 331.037 192.657 64.4862 94.5597 96.8429 42.2215 18.4172 23.8044 124.093 115.615 100.256 15.3595 90.4106 27.459 54.6214 38.8616 47.7477 40.5372 8.65873 16.7385 14.5093 23.8869 90.7198 15.7598 9.53578 62.9516 49.1428 11.6465 7.21049 8.4779 13.8088 13.1367
internal_count=4748 2980 1768 1369 975 2452 940 928 2186 2125 1345 780 266 399 394 172 75 97 528 492 425 67 382 115 222 158 197 167 35 69 61 100 384 64 41 267 208 49 30 36 59 54
is_linear=0
shrinkage=0.0709874


Tree=9
num_leaves=50
num_cat=0
split_feature=22 9 23 1 27 29 1 26 27 1 10 27 20 24 26 11 13 10 13 6 20 24 25 20 26 8 19 20 25 21 24 8 10 13 1 28 28 14 27 20 28 12 20 12 8 25 20 1 17
split_gain=98.4574 22.611 21.0607 19.4439 17.717 11.9924 14.841 11.286 6.49886 9.03015 7.74291 6.29573 5.70385 8.12866 6.29419 4.69643 4.45581 4.02723 4.80356 3.62125 3.20446 3.06759 4.53831 2.69732 2.43283 2.62937 2.42307 6.20817 2.25792 2.22419 3.1837 3.6858 2.47773 1.99741 1.98251 1.72849 1.45645 1.40974 2.37628 1.23194 1.0041 0.955424 0.888428 0.659254 0.56781 0.341428 0.0846441 0.0466438 0.00489021
threshold=108.16111000000002 42.500000000000007 2.5000000000000004 27.166665000000005 0.16111500000000004 0.86540000000000006 23.833335000000002 0.37222500000000008 0.43888500000000003 22.500000000000004 51.500000000000007 0.18333500000000005 -0.24034999999999998 285.25000000000006 0.23888500000000004 29.977775000000005 8.1277750000000015 45.833335000000012 1.8472200000000003 1.0399150000000004 0.65725000000000011 5.1833350000000005 1.9609450000000002 2.0069500000000002 0.10555500000000002 54.116665000000005 1.68605 4.3804750000000015 1.5763450000000001 240.77777500000005 138.62222000000003 39.522225000000006 60.833335000000012 13.136110000000002 8.8333350000000017 6.4874150000000013 3.9934150000000002 19.894445000000001 0.48333500000000001 0.23300000000000004 9.7001350000000013 75.405555000000007 -1.5486999999999997 18.600000000000005 1.3694450000000002 2.4397250000000006 0.90870000000000017 8.5000000000000018 0.91336500000000009
decision_type=2 2 2 2 2 2 2 2 2 2 2 2 2 2 2 2 2 2 2 2 2 2 2 2 2 2 2 2 2 2 2 2 2 2 2 2 2 2 2 2 2 2 2 2 2 2 2 2 2
left_child=2 3 35 12 15 8 26 16 9 23 -11 29 21 14 -14 19 -8 18 -6 -5 -19 43 -23 -4 36 40 27 -7 -9 32 45 -32 -3 -17 -28 -1 -13 42 -39 -38 -26 -15 -10 -2 -34 -31 47 -37 -27
right_child=1 11 5 4 17 6 7 28 37 10 -12 24 13 41 -16 33 -18 20 -20 -21 -22 22 -24 -25 25 48 34 -29 -30 30 31 -33 44 -35 -36 46 39 38 -40 -41 -42 -43 -44 -45 -46 -47 -48 -49 -50
leaf_value=0.057256534698218779 -0.020612211258675815 0.016666958590210359 0.038267914558533657 -0.048667785469273028 -0.038468027500201646 0.026073344123488086 -0.022996574076753873 0.04031561083916 0.055137521252738832 0.022140047858268792 -0.031664860698535351 0.053855602130457397 0.0019428188951867518 -0.042357667073906508 0.057171913619204942 -0.0025972763262184237 0.026988791029091286 -8.5595162046971649e-05 0.0076179003921550614 -0.022763720980752775 0.032166499673645946 0.056761503895645257 0.0085159802589230074 0.091890676702842664 -0.049984514255381918 0.0088507804016939116 0.019419315298643595 -0.037217476988466107 0.009410243530920603 -0.019689474431145191 -0.067822387494117217 0.018227946559304115 -0.068013078762187137 -0.03947286246630273 0.084726932474344804 0.092702098414828529 -0.029220023869215392 0.0028787307205985963 0.065434456060947097 0.025193699356215567 -0.0288037710942903 -0.0089008817501449611 0.10040114171273021 0.023160258286629088 -0.031031874243177139 -0.04642332628347455 0.075547111283959634 0.083695525861367401 0.0048387639304669702
leaf_weight=23.128047823905945 6.1553313136100751 4.3995343297719947 90.688029319047928 98.92889529466629 22.859579086303711 147.95548596978188 97.792077094316483 21.052504077553749 3.3283717483282089 48.085248082876205 18.720574513077736 2.3946480005979529 47.284159526228905 18.549111083149914 13.332295447587965 26.460178673267365 9.8876841366291028 41.715459614992142 22.704342424869537 37.595802664756775 24.702345982193947 25.762730687856674 15.912645414471625 4.9970065057277671 19.739293918013573 4.4118794947862616 3.8816864192485792 8.2383488714694959 27.526103168725967 9.9171615988016111 65.198870092630386 2.6011456847190848 4.092403829097746 10.286965683102606 5.972647562623024 8.3663059920072573 5.5027275234460813 3.8965444266796139 14.456597074866293 3.37857985496521 26.672400698065758 5.6376951336860648 6.6862796694040316 2.4049964398145676 4.3996589034795761 3.2248756587505332 3.7142521589994422 7.359625205397605 3.1731595098972321
leaf_count=99 25 18 382 409 93 612 396 86 14 195 76 10 191 76 54 110 40 170 92 154 100 105 65 21 81 18 16 34 112 42 279 11 17 42 25 37 23 16 60 14 110 23 28 10 18 14 16 32 13
internal_value=0 -0.0193747 0.0224473 -0.0107453 -0.021251 0.018466 0.0101136 -0.00558727 0.0325688 0.0270911 0.0070568 -0.0421673 0.0114442 0.000211049 0.0140979 -0.0354732 -0.0184029 0.000752548 -0.015497 -0.0415375 0.0119054 0.030399 0.0383503 0.0410745 -0.0252251 -0.0314884 0.0248906 0.0227323 0.0228123 -0.0539479 -0.0583134 -0.0645154 -0.0265053 -0.0129318 0.0590495 0.0704298 0.00473753 0.0639275 0.0521745 -0.00848016 -0.037822 -0.0345754 0.0854116 -0.00827082 -0.0489104 -0.0262842 0.0860739 0.0885245 0.00722005
internal_weight=0 579.399 555.733 420.293 285.254 513.165 322.307 156.258 190.859 162.491 66.8058 159.106 135.039 84.8033 60.6165 173.272 107.68 111.982 45.5639 136.525 66.4178 50.2357 41.6754 95.685 65.2727 53.9967 166.048 156.194 48.5786 93.8337 80.9421 67.8 12.8916 36.7471 9.85433 42.5682 11.276 28.3678 18.3531 8.88131 46.4117 24.1868 10.0147 8.56033 8.49206 13.142 19.4402 15.7259 7.58504
internal_count=4684 2387 2297 1719 1170 2113 1321 634 792 674 271 668 549 344 245 715 436 455 185 563 270 205 170 403 269 222 687 646 198 399 346 290 53 152 41 184 47 118 76 37 191 99 42 35 35 56 85 69 31
is_linear=0
shrinkage=0.0709874


Tree=10
num_leaves=54
num_cat=0
split_feature=15 22 22 5 3 16 30 11 1 7 22 25 29 28 30 14 27 7 8 2 1 1 11 28 24 4 28 10 24 20 11 25 17 1 1 27 28 3 6 2 7 8 1 24 18 30 30 28 30 18 20 28 28
split_gain=115.936 38.1468 25.294 23.2938 16.2571 13.371 13.1838 7.29735 6.35116 8.67301 11.3279 6.63366 5.78889 7.81173 5.26769 5.2218 5.15448 8.33056 6.0882 4.54737 4.43484 4.02332 3.81012 5.81782 3.55001 3.53597 3.46664 3.44194 2.87935 2.82809 2.67071 2.63316 2.57513 2.48935 2.92981 1.92078 3.75726 1.67198 1.42125 1.40789 1.32243 1.64429 1.25203 1.18492 0.929858 1.84983 1.66513 0.910194 0.72795 0.525517 0.480478 0.220081 0.0297259
threshold=1.3166650000000002 128.13055500000004 141.27011000000002 0.77346000000000015 7.5000000000000009 710.04666500000008 3.9468350000000005 38.569445000000009 26.833335000000002 1.1221850000000002 26.150000000000002 0.55620500000000017 0.94130500000000017 12.734750000000002 4.2351850000000004 0.086110000000000006 0.41666500000000006 1.6941650000000001 7.2222250000000008 25.189315000000004 29.833335000000002 9.1666650000000018 101.04722000000001 9.6064000000000025 268.82500000000005 1.0000000180025095e-35 16.306665000000006 95.166665000000009 275.5750000000001 -0.79509999999999992 2.4972200000000004 0.88719000000000015 2.8391850000000005 9.1666650000000018 12.166665000000002 0.48333500000000001 4.0908000000000007 1.0000000180025095e-35 0.98270500000000005 12.372915000000001 0.7301200000000001 1.3027800000000003 18.833335000000002 328.31944500000003 28.500000000000004 16.392850000000003 9.0581000000000014 11.516050000000002 13.405650000000001 14.166665000000002 0.077750000000000014 8.0025850000000016 4.5432650000000008
decision_type=2 2 2 2 2 2 2 2 2 2 2 2 2 2 2 2 2 2 2 2 2 2 2 2 2 2 2 2 2 2 2 2 2 2 2 2 2 2 2 2 2 2 2 2 2 2 2 2 2 2 2 2 2
left_child=2 3 8 33 22 6 20 32 9 10 39 -12 15 24 31 52 17 18 -10 26 25 -9 27 -24 42 -3 -17 -5 -21 -6 -16 -11 -8 37 -35 48 -37 -2 -26 -1 -15 -42 -14 -22 45 46 -7 -46 -18 -47 -31 -36 -4
right_child=1 5 12 4 29 44 7 21 16 14 11 -13 13 40 30 19 35 -19 -20 28 43 -23 23 -25 38 -27 -28 -29 -30 50 -32 -33 -34 34 51 36 -38 -39 -40 -41 41 -43 -44 -45 47 49 -48 -49 -50 -51 -52 -53 -54
leaf_value=0.061290524881871276 0.007231703949028773 0.026404667847287854 0.07918081196820477 -0.014590341307129591 0.11102170754735508 -0.1015916826213616 -0.044485646209007988 0.010416344831549256 -0.00057501107669713644 -0.070620081793402983 -0.007852574062042688 0.042900470113727822 0.042840805661976553 -0.079610641743707036 0.045760901937594897 0.0099721199928077646 0.029589411307381738 0.11126335360302703 0.052028145733441104 0.12244891074935942 -0.014050529822003228 -0.028404674645494978 0.059757562297827374 -0.031451651757642501 -0.034439124351408758 -0.058515659304114516 -0.059730323503441006 -0.047008784714781079 0.030411477101653876 0.055417972269327015 0.0091607286631091977 0.01780138394645691 -0.082430166534398219 0.0091376915394382821 0.076524664799348011 0.092757447664462617 0.036406524914643773 0.053512858366899431 -0.0050576978750492847 0.080443541549216957 -0.083200682387649744 -0.024955041509325676 0.0096342777314276512 -0.057357426629304917 -0.0094917938489906661 -0.090365542316728581 -0.052514477605947969 -0.061350206916191245 -0.018678892072107118 -0.061653042592455055 0.020932918959239651 0.060873442835808346 0.092490900652065777
leaf_weight=70.25663235783577 10.396547213196756 28.878593206405643 2.4588090777397147 202.01610240340233 4.5853120684623709 4.0219426155090359 140.12125690281391 16.224100217223167 66.119876027107239 4.6572684645652762 18.478176325559616 43.502343565225601 6.9002052396535865 5.3485966920852688 19.629732400178909 48.932456523180008 4.4041548669338217 4.1606171727180472 13.315346226096151 2.7149152755737296 9.7268967479467374 78.380991756916046 8.1815116256475431 6.1814188063144675 12.632011115550993 2.6972126364707938 3.8772061616182318 17.983423084020615 4.6783546358346939 5.2603845447301847 20.638192370533943 2.6594764143228531 9.6601213812828046 4.6966181248426464 13.959909141063692 8.7842114716768283 18.686821132898331 6.3464855700731269 24.267170265316963 26.985539048910141 3.1561687141656867 10.939186066389082 33.782470539212227 4.7549586445093146 2.6173333078622809 19.195102438330654 27.115150928497314 4.9921437948942184 2.4385435879230499 3.9940815567970267 3.3937080204486847 7.2763854563236228 2.7398222833871841
leaf_count=307 44 117 10 817 19 17 587 67 268 19 77 182 28 22 82 199 18 17 54 11 40 326 33 25 52 11 16 73 19 22 85 11 41 20 59 36 77 28 99 120 13 45 137 20 11 84 118 21 10 17 14 31 11
internal_value=0 -0.0213111 0.0246056 -0.00225435 -0.0106041 -0.0370083 -0.03062 -0.0371858 0.0360459 0.0435441 0.0514923 0.0277643 0.00173235 -0.00926793 0.01694 0.0180567 0.0228907 0.013375 0.0082398 0.0121536 0.00421144 -0.0217434 -0.0149289 0.0204812 0.000812033 0.0191353 0.00484528 -0.0172424 0.0642889 0.0659135 0.027013 -0.0384393 -0.0469367 0.0461796 0.0599648 0.0460602 0.0544455 0.0248012 -0.0151272 0.0666113 -0.0494993 -0.0380354 0.0152774 -0.0283019 -0.0669573 -0.0702247 -0.0588733 -0.0435683 0.0123372 -0.085443 0.0419454 0.0711868 0.0863075
internal_weight=0 642.658 487.144 290.278 247.602 352.38 290.444 244.386 324.717 206.807 159.223 61.9805 162.427 97.0258 47.5847 65.4016 117.91 83.5958 79.4352 60.2029 46.0577 94.6051 234.362 14.3629 77.5819 31.5758 52.8097 220 7.39327 13.2394 40.2679 7.31674 149.781 42.6759 25.9329 34.3137 27.471 16.743 36.8992 97.2422 19.444 14.0954 40.6827 14.4819 61.9358 54.3263 31.1371 7.60948 6.8427 23.1892 8.65409 21.2363 5.19863
internal_count=4687 2662 2025 1185 1003 1477 1209 1021 1363 883 686 259 662 396 197 266 480 339 322 245 188 393 948 58 316 128 215 890 30 55 167 30 628 182 110 141 113 72 151 427 80 58 165 60 268 236 135 32 28 101 36 90 21
is_linear=0
shrinkage=0.0709874


Tree=11
num_leaves=50
num_cat=0
split_feature=15 22 22 1 3 5 12 10 14 5 14 14 6 8 17 27 26 19 15 23 14 19 28 22 18 7 8 6 17 5 27 22 24 11 10 23 28 20 23 8 10 12 4 1 6 28 26 25 23
split_gain=98.6204 35.5981 20.856 18.9883 8.74434 12.142 7.61231 8.04832 8.74688 7.50902 5.99289 5.02947 6.00156 4.86686 4.38537 4.72669 4.58598 4.34043 7.67528 6.08469 4.2394 3.84255 3.4118 3.31981 3.11942 2.98528 2.93469 2.69778 2.64564 6.38501 2.3471 2.0435 1.90162 1.7924 1.76524 1.61886 1.31741 7.89583 1.85171 1.24872 1.16118 2.86824 1.20137 0.987149 0.634322 0.564691 0.451483 0.437589 0.0497195
threshold=2.7166650000000003 60.506445000000006 224.36111000000002 24.500000000000004 11.500000000000002 0.89827500000000005 38.033330000000007 33.833335000000012 13.891665000000001 0.85449500000000012 0.063890000000000016 2.3138900000000002 1.1380850000000002 10.552780000000002 3.0997350000000004 0.35000000000000003 0.51666500000000004 0.69145000000000012 5.0500000000000016 365.33333500000009 150.80833500000003 -4.5124249999999995 7.438835000000001 101.73269500000002 18.500000000000004 1.0019350000000002 2.7305550000000003 1.0626700000000002 5.660000000000001 0.83575500000000014 1.0000000180025095e-35 467.23133500000006 554.30000000000007 31.700000000000006 18.500000000000004 49.166665000000002 12.734750000000002 1.0896000000000001 196.83333500000003 1.1250000000000002 25.166665000000005 0.75833500000000009 1.0000000180025095e-35 18.166665000000005 0.59531000000000012 10.177765000000003 0.050000000000000003 1.4165950000000003 92.833335000000019
decision_type=2 2 2 2 2 2 2 2 2 2 2 2 2 2 2 2 2 2 2 2 2 2 2 2 2 2 2 2 2 2 2 2 2 2 2 2 2 2 2 2 2 2 2 2 2 2 2 2 2
left_child=1 10 3 9 5 13 7 8 -5 35 21 22 -13 26 15 16 -12 19 47 28 -17 -1 -7 39 33 27 -3 -23 29 -4 -16 44 -9 -21 -32 46 37 -8 -38 -6 42 -42 -11 -27 -25 -26 -2 -19 -37
right_child=2 4 17 6 23 11 36 32 -10 40 14 12 -14 -15 30 20 -18 18 -20 24 -22 25 -24 31 45 43 -28 -29 -30 -31 34 -33 -34 -35 -36 48 38 -39 -40 -41 41 -43 -44 -45 -46 -47 -48 -49 -50
leaf_value=-0.032656876131736012 0.012175918495755665 0.026369383340931585 0.043766013959636751 -0.032336838596240099 -0.021495958722645394 -0.0044788412297124868 -0.01899608544003285 -0.050330136060817286 0.037017369410709065 0.007782372489644529 0.02334766695891427 -0.0016578366993241609 0.029272642691894789 0.13293852518692098 0.10962899658459407 0.053163192541695672 -0.042048580903515244 0.048627462097646415 -0.051335316658538237 -0.047764132909599147 -0.018574346500391258 0.073357464600729907 -0.035339803736060604 0.043289208989564044 -0.013627851128051694 0.043111480988737981 0.091759938287918869 0.032710059973122887 0.028892830341120158 -0.040941535270090382 0.084828495272518428 0.011975483396071402 -0.11532754572471973 -0.096197963389141952 0.040815596111383565 0.056707365874420566 -0.0043821633918425286 0.062269289909856987 -0.057838878176167764 0.037221293902156498 -0.044951621760275354 -0.0017791402453445496 -0.040544331881461559 0.002978639193964155 0.080227291419550095 -0.050147960172409529 0.030867498721967753 0.09202631058958817 0.069432640979590066
leaf_weight=2.3473559021949759 8.7521153241395933 23.519165664911277 4.6201453357934943 36.037972077727318 4.0239662528038052 41.349971622228622 18.713199198246006 65.781716391444206 12.281663030385969 47.1303970515728 103.90981808304787 195.87521879374981 37.68948794901371 2.8858275711536399 3.7751279175281551 44.473731696605682 5.694018989801406 2.4445528686046583 5.7638772130012512 4.9903649836778703 4.5696172118186942 49.090191960334778 32.078776240348816 2.9842258095741299 3.5115254670381528 9.6386379897594434 4.0610735714435569 9.9328856170177442 3.0005199313163748 145.99284452199936 5.8107871860265758 3.4273042231798163 2.357610970735549 17.48322032392025 22.342859387397766 5.4494132101535779 13.070129096508028 8.8807378113269788 4.35787709057331 3.3320765495300293 9.6463803946971876 39.595781981945038 2.7385999709367743 4.5727192610502234 11.962172552943228 5.5677584409713745 26.306787222623825 2.3654986023902893 2.8453808128833771
leaf_count=10 37 97 19 147 17 167 76 271 50 190 437 799 153 12 17 189 24 10 25 23 19 218 130 13 15 41 17 44 13 626 26 14 10 78 97 23 53 36 18 14 39 160 11 19 50 24 110 10 12
internal_value=0 0.0199765 -0.0222634 -0.0106234 0.00552247 0.00247974 -0.0272892 -0.0368723 -0.0147005 0.0082647 0.0396983 -0.00176124 0.00333212 0.0452218 0.0329849 0.0281489 0.0199462 -0.0403359 0.00386881 -0.042862 0.0464714 0.0566194 -0.0179666 0.0454116 -0.0712673 0.0594868 0.0360186 0.0665247 -0.037024 -0.03834 0.0569989 0.0615453 -0.0525887 -0.0854656 0.0499194 0.0329057 -0.00249212 0.00714929 -0.0177759 0.00505862 -0.00251106 -0.0102455 0.00511946 0.0302254 0.0728846 -0.0360697 0.0262125 0.0700826 0.0611358
internal_weight=0 629.347 499.686 303.946 363.189 337.46 161.481 116.459 48.3196 142.465 266.158 306.993 233.565 30.4661 190.576 158.647 109.604 195.74 10.5739 185.166 49.0433 75.5818 73.4287 25.7297 31.5529 73.2344 27.5802 59.0231 153.614 150.613 31.9288 18.3737 68.1393 22.4736 28.1536 43.3537 45.0219 27.5939 17.428 7.35604 99.1112 49.2422 49.869 14.2114 14.9464 9.07928 35.0589 4.81005 8.29479
internal_count=4710 2624 2086 1243 1483 1375 661 478 197 582 1141 1249 952 126 809 669 461 843 45 798 208 332 297 108 140 322 114 262 658 645 140 77 281 101 123 182 183 112 71 31 400 199 201 60 63 39 147 20 35
is_linear=0
shrinkage=0.0709874


Tree=12
num_leaves=50
num_cat=0
split_feature=22 15 9 27 30 3 6 29 24 3 15 30 20 23 21 12 9 29 17 19 10 19 29 2 5 6 28 29 10 4 11 30 24 10 27 29 29 7 7 7 24 8 8 6 14 7 12 26 2
split_gain=69.6239 57.3818 20.1484 34.0661 15.8917 11.5953 9.17158 8.0924 7.85528 6.77549 12.5756 5.11739 6.19018 5.03018 4.97623 4.47591 3.59682 3.58713 4.98135 4.15221 3.06942 3.41093 3.05405 2.89891 2.5615 2.45347 2.40242 2.49033 2.21255 2.04989 2.02355 1.85569 1.83806 1.82705 1.73615 1.70757 1.66711 1.66246 1.37697 0.714163 0.673193 1.04128 0.52153 0.460425 0.383923 0.366103 0.3587 0.347293 0.112843
threshold=30.055555000000002 4.2166650000000008 16.500000000000004 0.18333500000000005 14.102565 1.0000000180025095e-35 1.4577450000000003 0.21369000000000002 169.45555500000003 19.500000000000004 0.95000000000000007 4.8722150000000006 -0.87042499999999989 29.500000000000004 193.26111 50.683335000000007 58.166665000000002 0.67518500000000004 2.7185850000000005 0.89390000000000014 44.500000000000007 -0.72632499999999989 1.2698100000000003 14.958580000000003 0.58136500000000013 0.9900850000000001 3.7188350000000003 0.71468000000000009 66.500000000000014 1.0000000180025095e-35 7.7166700000000015 15.205670000000003 54.086110000000005 54.833335000000012 0.21666500000000002 1.0910600000000004 0.57282500000000014 1.1918650000000002 0.61941500000000016 0.87874500000000011 518.82222000000013 16.127780000000005 3.4638900000000006 0.92576000000000003 45.63333500000001 0.095150000000000012 4.333330000000001 0.10555500000000002 13.843280000000002
decision_type=2 2 2 2 2 2 2 2 2 2 2 2 2 2 2 2 2 2 2 2 2 2 2 2 2 2 2 2 2 2 2 2 2 2 2 2 2 2 2 2 2 2 2 2 2 2 2 2 2
left_child=9 2 17 5 8 28 16 -7 13 10 11 12 -1 38 -15 22 -5 18 29 32 21 45 -10 -17 -14 31 46 -28 -4 -2 -27 -13 -19 40 43 36 -36 -23 -3 44 42 -42 -6 -11 -35 -12 -22 -41 -21
right_child=1 4 3 6 33 7 -8 -9 15 34 20 25 24 14 -16 23 -18 19 -20 48 26 37 -24 -25 -26 30 27 -29 -30 -31 -32 -33 -34 39 35 -37 -38 -39 -40 47 41 -43 -44 -45 -46 -47 -48 -49 -50
leaf_value=0.096536328481347744 0.022233306713325077 0.029018192130493815 -0.031801337827546183 0.014457381761801981 -0.058464861289614103 0.094290491159015999 0.11815029860776764 -0.0078549729671370805 -0.057851538048898137 0.075097364640799066 -0.03389398560451435 0.044287490634028807 0.065144970118430068 -0.0083002608713097815 -0.048863516772034002 -0.032196089478804826 -0.017284064773963811 0.022335664306883458 0.098712918116802523 0.05895827997736821 0.058450261341163698 0.0019126430975736895 -0.018914691617370742 0.024733248268416354 0.00073359303568048227 0.050491150272891874 0.077398532859095523 0.0015371474102430875 -0.049847868055380204 0.069239213781731743 0.07800854503205068 0.0027747711843008156 0.0056858540154195924 -0.055216840576795476 0.10024425401872876 -0.0052561593356500293 0.021759988043153232 0.025786506997808149 -0.0012617155800163174 -0.083183750841544127 -0.048492535778341082 0.012274754410409729 -0.037504349288359572 0.10313870173811218 -0.07164463956510532 -0.071953811198489384 0.094974378360781125 -0.067807755457324412 0.078581256729024537
leaf_weight=4.5768971294164649 33.697321981191635 13.849346294999124 92.722900107502937 171.61128620803356 18.663379028439525 4.2538110464811316 4.1201245337724677 47.773465737700462 51.309723645448685 8.1280417293310183 2.8124610632657996 24.641039460897449 3.5094380676746395 44.388040959835052 23.22911736369133 12.180776596069338 20.084668144583702 56.115340784192085 5.9125670045614234 2.9426089525222769 3.3618089556694057 63.324259638786316 12.694412246346472 7.1456080973148337 27.353379294276237 41.332488536834717 2.8044914007186881 9.8131442666053754 54.505875423550606 5.438763976097106 20.11920565366745 6.9820498228073111 82.773416608572006 23.834414079785347 3.084253787994383 2.4823024868965149 2.4702277183532715 19.153935074806213 16.636053562164307 14.961242243647577 3.7141968309879294 2.2865854203701019 9.0133877396583539 4.8821155875921241 10.644625738263128 2.4235128164291382 2.4076346457004547 15.809041470289229 3.6818590313196182
leaf_count=20 140 57 382 701 79 18 17 197 220 39 12 109 16 181 98 52 83 230 25 12 14 267 55 30 116 188 12 40 230 23 87 30 336 104 15 11 11 78 67 68 17 10 38 23 47 10 10 69 15
internal_value=0 -0.0111398 0.00150284 -0.0076412 -0.0375495 -0.0283059 0.0133849 0.000494567 -0.0250658 0.0310198 0.0275555 0.0424891 0.0195151 -0.0114471 -0.0222418 -0.0410937 0.0111297 0.0204619 0.0379709 0.0150383 0.0094633 0.00393039 -0.0501354 -0.0111291 0.00807423 0.0512323 0.0358344 0.0184393 -0.0384855 0.028779 0.059509 0.0351338 0.0124157 -0.0604399 0.0696124 0.0435607 0.0654305 0.00746173 0.0124844 -0.0673849 -0.0469695 -0.0252851 -0.0516556 0.0856663 -0.0603039 -0.0516048 0.0737901 -0.075302 0.069945
internal_weight=0 865.994 585.634 395.072 280.36 199.256 195.816 52.0273 181.433 255.663 234.616 128.514 35.4397 98.1026 67.6172 83.3305 191.696 190.562 45.0487 145.513 106.101 87.7142 64.0041 19.3264 30.8628 93.0748 18.3871 12.6176 147.229 39.1361 61.4517 31.6231 138.889 98.9269 21.0469 8.03678 5.55448 82.4782 30.4854 65.2493 33.6775 6.00078 27.6768 13.0102 34.479 5.23597 5.76944 30.7703 6.62447
internal_count=4709 3601 2409 1628 1192 827 801 215 760 1108 1009 566 152 403 279 357 784 781 188 593 443 367 275 82 132 414 76 52 612 163 275 139 566 432 99 37 26 345 124 288 144 27 117 62 151 22 24 137 27
is_linear=0
shrinkage=0.0709874


Tree=13
num_leaves=47
num_cat=0
split_feature=9 9 3 3 15 26 19 8 30 29 29 19 20 1 24 30 8 29 24 29 29 6 2 2 16 15 25 19 7 24 26 1 29 7 28 15 22 25 2 1 1 3 1 1 21 6
split_gain=70.3072 35.0999 33.145 17.0029 15.1065 10.5296 9.531 8.38309 7.87546 6.37135 6.34197 5.62071 5.07258 7.14024 6.72347 4.58642 3.65981 3.40011 3.20162 3.07777 2.94377 2.03914 4.8382 3.88809 3.02496 1.79999 1.79529 1.67109 1.51854 1.4849 1.94712 1.42057 1.31493 1.28396 1.09617 1.02607 0.933349 0.583827 1.5928 0.524567 0.315465 0.263133 1.58527 0.257897 0.0928213 0.0743589
threshold=8.5000000000000018 27.166665000000005 2.5000000000000004 8.5000000000000018 2.7166650000000003 0.27778000000000008 0.11955 1.2416650000000002 9.3217150000000029 0.93744000000000016 0.83363000000000009 0.00045000000000000004 1.0405000000000004 24.166665000000005 48.797220000000003 8.9446350000000034 0.61944500000000013 1.4073250000000004 52.316670000000009 0.67518500000000004 1.2330900000000002 0.79890000000000005 7.203685000000001 13.988715000000001 166.82000000000002 1.9500000000000002 2.0721950000000002 -0.19362499999999996 1.4438050000000002 328.31944500000003 0.48333500000000001 25.500000000000004 1.0910600000000004 0.58837000000000017 4.0908000000000007 2.6500000000000004 60.506445000000006 1.0733950000000003 17.926200000000005 2.8333350000000004 22.166665000000005 10.500000000000002 6.8333350000000008 25.166665000000005 76.10278000000001 0.96767500000000017
decision_type=2 2 2 2 2 2 2 2 2 2 2 2 2 2 2 2 2 2 2 2 2 2 2 2 2 2 2 2 2 2 2 2 2 2 2 2 2 2 2 2 2 2 2 2 2 2
left_child=15 2 4 5 6 9 7 -2 16 18 37 -11 13 -6 -14 19 -7 -10 -3 35 -8 22 34 24 -23 -25 27 -17 33 30 -12 41 -24 -29 -4 39 -37 -5 -39 -1 -41 42 -21 -28 -33 -43
right_child=1 3 21 10 12 8 20 -9 17 11 29 -13 14 -15 -16 26 -18 -19 -20 31 -22 23 32 25 -26 -27 43 28 -30 -31 -32 44 -34 -35 -36 36 -38 38 -40 40 -42 45 -44 -45 -46 -47
leaf_value=0.041956631593874694 -0.0042033273033809443 0.0092701089692965467 0.031011686991096223 0.12191982512003793 -0.0049372263866687529 -0.012966291568841846 0.092018144622173254 0.024069265072147919 -0.022452870783764959 -0.046291143362134461 0.0069645309346607863 -0.0036716819760734486 0.051854540236205178 -0.034191558291990359 -0.014323265710396559 0.003392081747583459 0.056316542148709361 0.021454021682422126 -0.024674060307619577 0.035804544782547319 0.025419614797883777 0.013127308693021403 0.064335595855989747 0.061190223195222937 0.051891655492072461 0.024896385756661241 0.087260014867511337 0.073715284560693706 0.024067371522775979 -0.026692738719065651 0.082166190428354116 0.047620744305941834 0.10740350523222868 0.039109536314153537 -0.026541120782111606 0.050144731511289384 0.0056785169100435446 0.1217072882956229 0.043160828783771879 0.074011115865126334 0.04776819118826147 0.045012234191270192 0.014541689310796272 0.11993687656759011 0.061634603911669625 0.030837335019800332
leaf_weight=4.3517324924469021 155.5363822132349 16.75700332224369 3.7549219727516201 2.2988912761211422 71.79205995798111 5.395448803901675 8.4613811224699003 80.033724740147591 58.04331710934639 145.69104124605656 7.0266516208648664 17.482567697763443 11.557657986879347 101.56523334980011 23.373206689953804 2.6570302397012702 13.272432029247282 10.484484702348707 84.718342408537865 35.890322893857956 5.5619501620531073 42.330896630883217 13.794692113995554 27.739747390151024 13.357577219605444 9.2150925099849683 2.9206959754228583 27.664230465888977 4.7771216183900824 3.8617428839206687 2.306821808218956 5.2753776013851148 4.8845909386873236 6.78661124408245 2.9918937981128693 9.2254282683134061 3.230296164751052 2.3764265328645706 2.9246179014444351 14.713918522000315 2.8614246547222129 4.6032525151967985 34.963561341166496 2.3704368025064468 5.1801927387714386 3.5906704366207123
leaf_count=20 638 71 17 10 292 22 35 329 238 634 29 74 47 422 96 12 54 43 364 155 23 179 62 119 55 38 13 129 21 16 10 22 21 29 13 39 13 10 12 67 12 21 147 10 21 16
internal_value=0 -0.00532682 0.00565635 -0.0223032 -0.0029905 -0.0259903 0.00878736 0.00540085 -0.00459119 -0.0330394 0.0400589 -0.0417271 -0.0171056 -0.0220788 0.0075657 0.0441159 0.0362749 -0.0157297 -0.0190652 0.0369348 0.0656386 0.0391916 0.0570212 0.034293 0.0224337 0.0521518 0.0629632 0.0580147 0.0617052 0.0102723 0.0256069 0.0299897 0.0756305 0.0669118 0.00543842 0.0549998 0.0386442 0.0917073 0.078483 0.0642688 0.0697663 0.0267269 0.025318 0.10202 0.0546113 0.0388552
internal_weight=0 948.591 575.951 372.64 457.882 351.845 249.593 235.57 87.1957 264.649 20.7952 163.174 208.288 173.357 34.9309 171.062 18.6679 68.5278 101.475 123.886 14.0233 118.069 25.4261 92.6433 55.6885 36.9548 47.1761 41.885 39.228 13.1952 9.33347 89.5034 18.6793 34.4508 6.74682 34.3828 12.4557 7.59994 5.30104 21.9271 17.5753 79.0478 70.8539 5.29113 10.4556 8.19392
internal_count=4720 3973 2386 1587 1882 1500 1025 967 357 1143 87 708 857 714 143 747 76 281 435 533 58 504 113 391 234 157 214 191 179 55 39 382 83 158 30 151 52 32 22 99 79 339 302 23 43 37
is_linear=0
shrinkage=0.0709874


Tree=14
num_leaves=54
num_cat=0
split_feature=5 22 21 3 27 30 6 16 27 1 13 1 20 13 18 27 2 29 29 13 16 6 25 26 8 29 26 25 7 3 2 27 25 7 7 16 14 29 12 25 22 3 28 1 12 25 6 14 14 1 3 22 3
split_gain=62.5377 30.1039 12.1102 10.6632 8.62854 6.61947 6.09895 10.0121 6.9388 8.73928 6.89062 6.27006 5.0525 4.57014 3.92414 3.77717 2.99187 2.99153 4.27169 3.97098 3.54752 2.5965 2.56046 2.46094 2.8449 2.27899 2.13134 2.9366 2.8824 2.03995 2.0977 4.66305 1.76594 1.7538 4.81026 1.73415 1.52928 4.01013 3.61262 1.48107 1.33273 1.24381 1.23014 1.13224 0.899344 0.878142 0.7344 0.502777 0.456058 0.396051 0.330705 0.255568 0.155971
threshold=0.85449500000000012 98.576670000000021 458.03889000000004 5.5000000000000009 0.48333500000000001 8.6977000000000029 0.86786000000000019 24.106665000000003 0.48333500000000001 4.8333350000000008 11.341665000000001 9.5000000000000018 0.26262500000000005 5.8972200000000017 39.166665000000002 0.28333500000000006 6.5595500000000007 0.84025000000000005 0.64371000000000012 3.1805550000000005 54.905000000000008 0.93282000000000009 1.1485000000000001 0.27778000000000008 6.9861100000000009 1.0969000000000004 0.10555500000000002 2.9234900000000006 0.35847500000000004 8.5000000000000018 5.3625300000000005 0.35000000000000003 2.9946550000000003 0.67538500000000001 1.4560950000000001 7.2683350000000013 113.28333500000001 0.98724000000000012 67.27500000000002 2.1342000000000003 123.53433500000001 12.500000000000002 2.3760000000000003 24.833335000000002 2.4527800000000006 1.5543150000000001 0.93040500000000004 25.244445000000002 12.938890000000002 15.166665000000002 26.500000000000004 41.708555000000011 15.500000000000002
decision_type=2 2 2 2 2 2 2 2 2 2 2 2 2 2 2 2 2 2 2 2 2 2 2 2 2 2 2 2 2 2 2 2 2 2 2 2 2 2 2 2 2 2 2 2 2 2 2 2 2 2 2 2 2
left_child=17 6 3 4 15 36 23 11 10 -10 -9 46 13 -7 -14 -3 -13 18 19 32 49 -6 25 33 48 -5 27 28 42 30 44 -32 41 35 -35 -2 37 -4 -38 -24 51 -1 -19 -22 -28 -30 -8 -26 -25 -20 52 -31 -21
right_child=1 2 5 22 21 12 7 8 9 -11 -12 16 14 -15 -16 -17 -18 26 20 50 43 -23 39 24 47 -27 29 -29 45 40 31 -33 -34 34 -36 -37 38 -39 -40 -41 -42 -43 -44 -45 -46 -47 -48 -49 -50 -51 -52 -53 -54
leaf_value=0.046442206755717426 0.07706815971493873 -0.017842182952757284 0.030032254206361395 0.10227744908072565 -0.0083644985145063765 -0.06206096532907137 0.0065817006717428421 -0.010551012958113462 -0.066242585311541216 0.038665117312358561 0.03125758954421029 -0.010719581307305598 -0.024048825928384646 -0.030839071712728559 0.068364558278796103 0.0029250050202910471 0.024022339760659421 0.069775019718643208 0.055365864961110435 0.11325746812421567 -0.0501355162343484 0.053297290493066078 0.037046728932133587 0.059208034846082711 0.12027994234540583 0.033991759498252214 0.021892203590490072 -0.051464494839135087 -0.0038923333075301723 0.068128603309713792 0.026737582427446376 0.11137423889113679 -0.0054289550864110719 -0.013673570541786905 0.081024339012670366 0.023465614170250657 -0.0029336999796057608 -0.020849098667596547 -0.10540720080815612 -0.0087467170968666703 0.022993953233181288 0.071865662253399104 0.033071909262310961 0.010696680695154483 -0.024313239489257853 0.039772291160669264 0.050825075335989268 0.076226017838052454 0.027924869823034149 0.027419281102463104 0.073171973065636692 0.090294217462235538 0.094305617276143838
leaf_weight=28.547106266021729 4.1135867834091178 278.14044328033924 13.92541988193989 4.4045460522174853 4.7002148032188442 51.422907680273056 2.0163986235857001 191.43696880340576 4.5256076306104651 34.279662981629372 22.159242585301399 20.43134243786335 44.614161059260368 43.83639132976532 2.4378228932619086 52.424033641815186 32.093002811074257 5.8588105142116573 7.0761030763387698 4.5003638714551908 3.3098720610141745 12.74623730778694 8.2483294010162336 3.0567522943019894 2.3877049088478079 5.6410652548074722 5.8998042494058627 2.5461539179086676 13.81413444876671 8.0977738201618177 13.799416050314905 4.3094118088483802 2.5567888617515555 13.934746101498606 3.350038766860961 11.79639585316181 6.0381720364093763 17.751689314842224 2.4333550781011581 6.2395383864641181 3.0353461503982535 14.847598642110823 21.940062612295151 2.868533730506897 3.3080766052007675 2.7849955260753623 35.64629028737545 3.1111916452646255 10.638985753059385 4.1123689860105515 2.4779081344604483 4.1828438937664023 5.4552649855613708
leaf_count=127 18 1164 59 18 19 232 9 784 19 144 91 85 194 192 10 214 138 27 33 20 14 52 34 13 10 23 25 11 59 38 59 19 12 57 14 49 25 75 10 26 13 73 100 12 14 12 156 13 44 18 12 19 25
internal_value=0 -0.00546865 -0.0161292 -0.00878938 -0.011979 -0.0311134 0.00951024 0.00605935 -0.00119351 0.0264177 -0.00621168 0.0263607 -0.0382953 -0.0476982 -0.0192497 -0.0145477 0.0105018 0.0418371 0.0522295 0.0614263 0.0212865 0.0366667 0.0364373 0.0320684 0.0523115 0.0639862 0.0330435 0.0225915 0.0268492 0.0445423 0.0328839 0.0469118 0.0517744 0.0203492 0.00467048 0.0373574 -0.00564669 0.00150844 -0.0324337 0.0173031 0.0653033 0.0551529 0.0408259 -0.0218445 0.00525253 0.00341846 0.0484661 0.0954687 0.0349427 0.0451341 0.09705 0.0757251 0.102936
internal_weight=0 949.982 555.004 372.544 348.011 182.46 394.978 342.589 252.401 38.8053 213.596 90.187 142.311 95.2593 47.052 330.564 52.5243 165.329 75.7519 58.385 17.3669 17.4465 24.5335 52.3894 19.1946 10.0456 89.5768 46.9442 44.398 42.6327 27.3167 18.1088 45.9515 33.1948 17.2848 15.91 40.1486 31.6771 8.47153 14.4879 15.316 43.3947 27.7989 6.17841 9.20788 16.5991 37.6627 5.4989 13.6957 11.1885 12.4335 12.2806 9.95563
internal_count=4733 3991 2347 1550 1449 797 1644 1426 1038 163 875 388 628 424 204 1378 223 742 346 269 77 71 101 218 80 41 396 209 198 187 117 78 212 138 71 67 169 134 35 60 70 200 127 26 39 71 165 23 57 51 57 57 45
is_linear=0
shrinkage=0.0709874


Tree=15
num_leaves=52
num_cat=0
split_feature=15 22 5 7 3 22 27 27 25 25 1 3 6 27 30 11 28 13 19 19 27 7 24 15 29 26 26 7 20 25 28 24 24 3 2 10 29 6 13 26 5 11 8 7 1 14 28 11 12 11 28
split_gain=33.9888 49.9557 16.6921 15.3059 14.0481 12.4194 9.69814 10.9944 7.90467 5.98691 4.89858 4.56801 4.16132 4.00311 4.34205 3.91811 3.48908 5.41221 3.35629 4.72762 3.05244 2.92697 3.36709 2.9156 3.38637 2.88788 2.7146 2.33917 2.92916 2.28496 2.2167 2.21327 2.18609 2.16615 3.03007 2.72557 1.68343 1.62437 1.54639 1.35167 1.26334 1.25441 1.1736 1.10223 1.01687 0.809179 0.857991 0.691869 0.568329 0.172737 0.15474
threshold=5.5166650000000006 66.638890000000018 0.75474500000000011 0.31756000000000006 4.5000000000000009 117.01244500000001 0.55000000000000016 0.14444500000000002 0.24488500000000002 1.0642850000000001 13.833335000000002 3.5000000000000004 0.88346500000000006 0.31666500000000003 14.102565 34.269445000000012 9.4778850000000023 2.6194450000000002 1.5298000000000003 -4.2636249999999984 0.55000000000000016 1.1183950000000003 104.85833500000003 2.7500000000000004 1.2003600000000001 1.0000000180025095e-35 1.0000000180025095e-35 0.56456500000000009 0.06672500000000002 1.7337750000000003 7.2056000000000013 153.00555500000004 261.0750000000001 3.5000000000000004 12.231865000000001 50.833335000000012 1.1901050000000002 0.93948500000000013 2.3472200000000005 0.21666500000000002 0.71339500000000011 51.297225000000005 6.1277750000000006 0.60540000000000005 16.166665000000005 12.691665000000002 3.3312350000000008 1.2944450000000003 44.975000000000009 23.877780000000005 14.411085000000002
decision_type=2 2 2 2 2 2 2 2 2 2 2 2 2 2 2 2 2 2 2 2 2 2 2 2 2 2 2 2 2 2 2 2 2 2 2 2 2 2 2 2 2 2 2 2 2 2 2 2 2 2 2
left_child=1 3 33 10 6 8 7 -4 40 45 23 31 43 14 16 -14 17 -7 19 39 -21 22 -11 24 -1 -25 50 -15 42 38 -28 -12 -18 35 47 49 -23 -8 -20 -5 -2 -13 -29 -6 -42 46 -10 -35 -36 -3 -16
right_child=5 2 4 18 12 13 37 -9 9 21 11 41 15 27 26 -17 32 -19 29 20 -22 36 -24 25 -26 -27 30 28 -30 -31 -32 -33 -34 34 48 -37 -38 -39 -40 -41 44 -43 -44 -45 -46 -47 -48 -49 -50 -51 -52
leaf_value=0.072234436590543252 0.072510126201212 0.088937318113012004 -0.026153574055982953 0.0305156661179188 0.074893976558227382 -0.039051530725496372 0.0032448810681777783 -0.004054917358689447 -0.02524323391930609 0.034918516374425682 0.012693301300474651 0.05259475279796353 0.028013206613707282 0.033389692910017602 -0.10384603758574779 -0.014257647077048505 -0.032194002777065994 0.037402879349106327 0.045208540640762206 0.0062996168929557788 0.035446096621623423 -0.069260060455279604 -0.02510611348172374 -0.012790456635821602 0.033445771292564673 0.04949293108804826 -0.10531635981461793 -0.034295367944801813 0.01338815659842039 0.004045323971451192 -0.048679088554588822 0.066729191484796058 -0.076868625853298372 0.032476938395072395 -0.029248748749532021 -4.9491100158822043e-05 0.0025961857604084081 0.047270307549389087 0.10879259366454581 0.099244624912658522 0.042707963670852639 0.10561162128316376 -0.094245414213886047 0.035171793888414467 0.0045446556033975384 -0.022330686123702405 -0.070684098196632655 0.073897223808610593 0.013313308559847274 0.06671336747443038 -0.08681437328364075
leaf_weight=45.187550336122513 3.4964899867773083 7.5507565438747424 287.31517067551613 2.3816931396722785 6.9276618361473066 16.856655761599544 6.1760111451149013 187.54465183615685 2.6060086488723782 12.62964247167111 42.99395577609539 12.320600286126135 26.764620006084442 4.0348625481128684 7.2464616447687131 18.804101020097733 9.9401471912860888 6.444723665714263 4.7217423021793348 181.50322814285755 20.119750112295151 4.183890849351882 7.4998528808355323 5.5544133186340359 15.203413501381872 11.499046400189398 4.0857899636030224 4.0276514589786512 4.7604397088289261 3.725069433450698 24.179795429110527 4.1946682333946219 12.527454659342764 3.7727361619472486 3.4831639826297751 2.4429250061511985 2.6890106052160263 13.47589999437332 3.2977742701768875 3.7338718622922897 7.5021974444389325 2.7768061161041251 2.8182666450738907 7.2720345556735992 6.6661938428878784 3.1851472109556189 11.306252628564833 4.5268451124429703 2.8780371695756912 2.5671806186437607 5.1373505443334579
leaf_count=219 15 32 1216 10 29 72 25 770 11 52 185 58 110 17 34 78 44 28 20 760 86 17 31 24 72 49 19 17 20 16 113 18 58 17 16 10 11 55 15 16 31 13 12 30 27 13 47 21 13 11 25
internal_value=0 0.00404829 -0.00880844 0.0248619 -0.0114744 -0.0309879 -0.0154037 -0.0174266 -0.00585653 -0.0219338 0.0432277 0.0283935 0.0210295 -0.046193 -0.0521754 0.0105626 -0.0371596 -0.017889 0.0131676 0.0110778 0.00921027 -0.00110698 0.0125371 0.0551525 0.0624771 0.0291879 -0.0690702 -0.0131147 -0.0293154 0.0500907 -0.0568877 0.0175076 -0.0571254 0.0454573 0.0268749 0.0671081 -0.0411068 0.0334543 0.0714271 0.0725606 0.0342576 0.0623864 -0.0590536 0.0545863 0.0247809 -0.0548005 -0.0622037 0.0551275 -0.00994076 0.0833524 -0.0968294
internal_weight=0 940.715 581.502 359.214 554.28 163.824 494.512 474.86 61.7647 44.0998 139.73 62.286 59.7684 102.06 86.4184 45.5687 45.769 23.3014 219.483 207.739 201.623 27.0024 20.1295 77.4444 60.391 17.0535 40.6494 15.6412 11.6064 11.7446 28.2656 47.1886 22.4676 27.2216 14.6608 12.5609 6.8729 19.6519 8.01952 6.11557 17.6649 15.0974 6.84592 14.1997 14.1684 17.0974 13.9123 8.29958 6.3612 10.1179 12.3838
internal_count=4708 3994 2433 1561 2313 714 2066 1986 255 182 638 274 247 459 393 188 202 100 923 872 846 111 83 364 291 73 191 66 49 51 132 203 102 120 67 53 28 80 35 26 73 71 29 59 58 71 58 38 29 43 59
is_linear=0
shrinkage=0.0709874


Tree=16
num_leaves=46
num_cat=0
split_feature=15 3 9 26 15 15 9 16 7 3 10 2 28 22 2 0 30 8 2 23 12 26 28 16 29 25 24 30 2 28 25 6 7 16 2 7 7 29 25 7 2 29 4 28 6
split_gain=43.3153 29.8448 24.3058 14.5121 13.1044 12.6376 10.3432 10.1629 10.7464 9.48247 6.93628 9.94186 7.3431 6.26326 13.0614 4.18113 3.9623 4.08971 5.21778 2.94602 4.03758 3.73422 3.02835 2.85637 2.85477 4.19277 3.99097 2.45172 2.1913 1.72302 4.0261 3.6345 2.27695 1.42997 1.0434 0.967877 0.960753 0.890089 0.73575 0.599102 0.583997 0.394323 0.328137 0.234289 0.230922
threshold=1.0500000000000003 5.5000000000000009 10.166665000000002 0.31666500000000003 6.5500000000000016 3.9500000000000006 52.166665000000002 131.99333500000003 0.44030000000000008 7.5000000000000009 39.166665000000002 22.194865000000004 12.858665000000002 7.1916650000000013 5.6530650000000007 17.424245000000003 6.4886000000000008 0.82500000000000007 10.964380000000002 69.166665000000009 8.5472200000000011 0.41111000000000003 6.060315000000001 54.905000000000008 1.1163800000000001 2.5446700000000004 17.961115000000003 9.353785000000002 4.145900000000001 5.0991150000000003 1.5413400000000002 1.0176100000000001 0.9705450000000001 197.59333500000002 7.8168000000000015 0.85711000000000015 0.97445000000000015 0.9762200000000002 1.0642850000000001 0.82175500000000012 17.292930000000002 1.1393050000000002 1.0000000180025095e-35 5.4699350000000004 0.65071000000000001
decision_type=2 2 2 2 2 2 2 2 2 2 2 2 2 2 2 2 2 2 2 2 2 2 2 2 2 2 2 2 2 2 2 2 2 2 2 2 2 2 2 2 2 2 2 2 2
left_child=6 2 19 7 5 -5 9 8 -4 10 13 15 -13 28 -15 -12 35 33 -19 20 21 -2 39 40 26 -26 -8 -9 -1 31 32 38 -31 -18 -28 37 -32 -11 -25 -21 42 -22 44 -36 -3
right_child=1 23 3 4 -6 -7 24 27 -10 16 11 12 -14 14 -16 -17 17 18 -20 22 41 -23 -24 29 25 -27 34 -29 -30 30 36 -33 -34 -35 43 -37 -38 -39 -40 -41 -42 -43 -44 -45 -46
leaf_value=0.016077738183978719 0.0074789172222592916 0.075783045501627844 0.01744291122565602 0.03188813349710045 -0.10376759860654552 -0.017147570509063188 0.062190299958825669 -0.023469986056307363 -0.024829332600148028 0.04347523280999855 -0.0052822411385347115 0.075756011056407252 0.0043595868987086383 -0.0098412746628153466 0.034048567082774657 0.09035685610032089 0.068450207942798241 0.085761428543423848 0.01284432967157955 0.064188797573823841 0.084938155605816995 0.097246381200247659 0.00081369696745908662 0.041647417792916058 -0.090328067061599349 0.020846934246635241 0.015669230850607556 -0.038744725628572375 0.05801286010628999 0.062146993345824755 -0.020001534549009325 0.11408192535443806 -0.0019882865435067094 0.11660662888861603 -0.011216931593983017 -0.0071957924277594463 0.026422800103152587 0.010089177106606581 -0.0037577168667435436 0.10757626522719442 0.084478344922065143 0.049034134635047771 0.029236063276894014 -0.036025971685773421 0.052745216285878326
leaf_weight=7.7345564514398566 72.823903664946556 2.7252680510282614 45.469339415431023 54.384666055440903 5.5599006265401831 51.613478392362595 3.3627735376358094 73.117526024580002 90.818045288324356 8.7731836736202293 118.55965147912502 15.690753713250162 13.527591094374655 51.610202670097351 101.03479747474194 2.346065327525138 23.585524156689647 7.0360087752342251 16.681495904922485 3.7069425284862501 3.5576882511377326 2.4107493311166754 3.3685469925403595 4.3868636935949308 5.8558406680822355 2.4059839248657227 2.8795821815729132 193.51412729918957 33.994461819529533 9.7759915143251437 10.963961929082869 3.1593085527420044 3.888180509209632 3.6143456101417533 2.3986470550298682 5.1281408369541159 2.817190319299697 7.4951026439666739 3.0237390249967575 2.9513009637594223 3.5326721221208564 2.8652944266796112 2.6343618035316458 10.595152556896208 13.972291216254233
leaf_count=35 306 13 188 223 23 214 14 309 372 44 493 65 56 215 422 10 115 33 75 15 15 10 14 19 25 10 12 872 164 42 47 13 16 16 10 22 12 35 13 12 17 12 12 45 64
internal_value=0 -0.00946306 -0.0142221 -0.0202232 0.00243192 0.00800821 0.0191461 -0.0264967 -0.0107235 0.0219285 0.0170211 0.00555644 0.042716 0.0258738 0.019207 -0.00342157 0.0453008 0.0560759 0.0344979 0.0194481 0.0149823 0.0103634 0.0557694 0.0379145 -0.0230142 -0.0579143 -0.00800067 -0.0345576 0.0502499 0.02597 0.0165695 0.0503356 0.0438753 0.0748732 -0.0229006 0.0196392 -0.010483 0.0281191 0.02308 0.0835091 0.057753 0.0690031 0.05284 -0.0314761 0.0565379
internal_weight=0 667.041 606.162 514.477 111.558 105.998 444.31 402.919 136.287 416.812 344.498 150.124 29.2183 194.374 152.645 120.906 72.3138 50.9174 23.7175 91.6844 81.6576 75.2347 10.0268 60.8798 27.498 8.26182 19.2362 266.632 41.729 38.0152 27.4453 10.5699 13.6642 27.1999 15.8734 21.3964 13.7812 16.2683 7.4106 6.65824 22.8646 6.42298 19.3319 12.9938 16.6976
internal_count=4769 2853 2585 2201 460 437 1916 1741 560 1800 1460 624 121 836 637 503 340 239 108 384 343 316 41 268 116 35 81 1181 199 162 117 45 58 131 67 101 59 79 32 27 106 27 89 55 77
is_linear=0
shrinkage=0.0709874


Tree=17
num_leaves=50
num_cat=0
split_feature=22 3 15 29 11 30 4 30 10 11 13 19 12 29 13 15 2 6 1 28 14 15 10 7 14 15 19 6 25 2 10 2 17 1 19 27 11 1 19 1 1 13 28 2 15 30 13 1 10
split_gain=46.7012 20.9646 12.4758 9.40159 8.6609 7.853 7.57897 6.22967 6.32102 5.50787 9.97727 5.62664 5.04696 4.91039 4.89413 9.58851 4.6852 4.31332 4.25958 9.46192 8.17192 3.45548 2.89643 2.84359 2.46963 2.41207 2.10256 3.85106 3.6561 3.50601 1.85815 1.96497 1.88565 1.85654 1.84703 3.49468 1.83785 1.68409 1.5417 1.53014 1.37071 1.40543 1.17788 0.997086 0.991234 0.933977 0.62025 0.098311 0.0526959
threshold=189.28055500000002 6.5000000000000009 4.9833350000000012 0.79746500000000009 0.075000000000000025 13.962665000000003 1.0000000180025095e-35 12.718950000000001 79.833335000000019 10.727775000000003 23.650000000000002 2.3940000000000006 84.375000000000014 0.96886500000000009 2.5750000000000006 1.7166650000000001 14.607470000000001 1.1246850000000002 25.833335000000002 3.8934150000000005 15.705555000000002 2.2833350000000006 125.50000000000001 0.65010000000000012 38.63333500000001 5.6833350000000005 5.0394500000000013 0.97676500000000011 0.81674500000000017 6.6635850000000003 10.833335000000002 15.642415000000002 2.7008000000000005 5.5000000000000009 0.78085000000000016 0.18333500000000005 35.88333500000001 28.500000000000004 -1.0733749999999997 16.500000000000004 23.500000000000004 2.9583350000000004 3.8005150000000003 7.1996850000000014 2.4833350000000007 13.082000000000003 0.65833500000000011 28.833335000000002 110.16666500000001
decision_type=2 2 2 2 2 2 2 2 2 2 2 2 2 2 2 2 2 2 2 2 2 2 2 2 2 2 2 2 2 2 2 2 2 2 2 2 2 2 2 2 2 2 2 2 2 2 2 2 2
left_child=1 2 4 12 6 14 42 8 23 11 -11 -6 18 30 15 33 -14 34 36 20 -20 -21 37 -4 -18 -17 27 28 -15 -29 -3 43 -33 -5 35 -7 46 -19 -9 -40 44 -42 -1 -32 -16 -38 -2 -10 -36
right_child=3 13 7 5 9 17 -8 38 47 10 -12 -13 16 26 40 25 24 22 19 21 -22 -23 -24 -25 -26 -27 -28 29 -30 -31 31 32 -34 -35 48 -37 45 -39 39 -41 41 -43 -44 -45 -46 -47 -48 -49 -50
leaf_value=0.026150905309441724 0.0476159921113068 0.095941320348918294 0.016657678127821558 0.040528178789111829 -0.0043993052288826291 -0.061712980191716574 -0.068343815580940992 0.0068504777450525273 -0.077027496186573827 0.0071837310676874915 0.050100494749654112 0.076404673207430815 0.086452702027371944 0.072200468459071965 -0.052063722827518831 -0.034851479401052737 0.057061587353511967 -0.033093229129791707 -0.01626213321624162 -0.014670385609040529 0.088403352462155138 -0.055275040281732878 -0.064090054578654132 -0.011531636317584557 -0.0099490239659520523 -0.065625175068962552 0.082286611283619041 -0.035263149991023438 0.01548588144460453 0.021394813771785034 0.025425949798594132 0.096241629752933253 0.039812784407120674 -0.0044316606821207154 -0.012882385702133735 -0.035052497080908629 0.0089053559755296729 0.021319313976331952 -0.017900747811483399 -0.054178187061548908 0.055761467904634286 0.0010885922595951583 0.045004286249647342 0.052476755805841796 -0.0057583502418002176 -0.046584520507492004 0.016154020396315937 -0.059641821740858525 0.0010034361116760075
leaf_weight=28.565811678767204 7.2601048797369021 5.4012063592672339 32.079670935869217 5.4160604029893866 205.76828768849373 52.642920687794685 3.6001349091529837 3.0745075643062583 3.606494039297103 190.70399670302868 31.861634612083435 4.4330993145704261 5.3725308179855373 10.628648459911348 4.0634595453739148 49.45693750679493 3.8129263222217551 4.0095183700323132 8.9485591351985914 19.089533388614655 6.4731442034244528 23.722945481538773 3.8006253391504279 41.17087396979332 10.107433736324309 17.396645039319992 2.9985278248786917 8.6100233644247073 12.464592710137365 15.241749063134192 11.927953317761423 7.873300760984419 4.8564567118883133 31.685646697878838 3.1799731999635688 47.003226831555367 3.9313791543245307 10.017052277922629 7.7032219171524039 24.939993634819984 2.4987532347440711 45.163166046142578 40.671333029866219 16.425998091697693 5.5012388825416565 2.4898038953542709 5.6676480919122696 3.7384539991617203 2.3510632216930389
leaf_count=124 31 29 133 22 864 248 15 13 15 792 133 19 23 51 17 215 16 17 38 79 27 110 17 169 44 80 14 38 56 69 58 38 25 131 14 204 17 42 32 107 11 194 187 80 24 11 24 16 10
internal_value=0 0.00931246 0.00453653 -0.0214314 0.00935932 -0.0279416 0.0320067 -0.0164245 -0.00548241 0.00554666 0.0133296 -0.00269254 -0.00232987 0.0401103 -0.0176288 -0.0268064 0.0301547 -0.0414517 -0.0104131 -0.0200036 0.0276562 -0.0371801 -0.00913771 0.000809192 0.00838894 -0.042867 0.0246416 0.0209476 0.0416092 0.000926262 0.0567201 0.0515493 0.0747542 0.00212482 -0.0469251 -0.049142 0.0184321 0.00573742 -0.0411029 -0.0456301 -0.000950519 0.00396521 0.0372321 0.0411127 -0.025476 -0.0125682 0.0338558 -0.0682513 -0.00692036
internal_weight=0 718.346 621.918 381.062 505.604 284.186 72.8373 116.313 80.5955 432.767 222.566 210.201 96.876 96.4285 161.182 103.955 19.2929 123.004 77.5831 58.2342 15.4217 42.8125 17.8272 73.2505 13.9204 66.8536 49.9435 46.945 23.0932 23.8518 46.4849 41.0837 12.7298 37.1017 105.177 99.6461 19.3489 14.0266 35.7177 32.6432 57.2266 47.6619 69.2371 28.354 9.5647 6.42118 12.9278 7.34495 5.53104
internal_count=4743 3077 2619 1666 2134 1246 326 485 333 1808 925 883 420 458 694 448 83 552 337 254 65 189 76 302 60 295 228 214 107 107 230 201 63 153 476 452 83 59 152 139 246 205 311 138 41 28 55 31 24
is_linear=0
shrinkage=0.0709874


Tree=18
num_leaves=50
num_cat=0
split_feature=9 5 22 1 27 15 8 5 14 9 1 6 30 8 15 13 26 18 6 13 30 12 30 12 5 26 29 12 20 14 18 1 29 6 30 25 2 30 20 30 30 22 10 8 24 13 2 1 29
split_gain=25.0635 21.3014 23.1416 13.7521 9.65768 8.04154 12.7718 7.92928 7.82157 5.29829 5.22345 4.44325 4.8597 3.78383 3.69834 3.49812 3.05631 2.99076 2.95749 2.34799 2.29131 2.19127 2.12892 2.03058 3.06624 2.30383 1.99028 4.64615 2.48215 1.98026 1.57111 1.55658 1.51499 1.38753 4.57253 1.45747 1.36577 1.77449 1.30975 1.2174 0.864176 2.20887 2.20877 0.842898 0.75125 1.14628 1.39864 0.0675473 0.0332055
