tree
version=v4
num_class=1
num_tree_per_iteration=1
label_index=0
max_feature_idx=30
objective=binary sigmoid:1
feature_names=P1 P2 P3 P4 P5 P6 P7 P8 P9 P10 P11 P12 P13 P14 P15 P16 P17 P18 P19 P20 P21 P22 P23 P24 P25 P26 P27 P28 P29 P30 P31
feature_infos=[0:50] [0:30.33333] [0:287.93587000000002] [0:30] [0:1] [0.048390000000000002:2.3225799999999999] [0:2.7632699999999999] [0:3] [0:3313.4944399999999] [0.33333000000000002:647] [0:1815.3333299999999] [0:2452.1333300000001] [0:3469.4055600000002] [0:1985.0444399999999] [0:2451.7111100000002] [0:8.1333300000000008] [0:5357.5266700000002] [0:45.925330000000002] [0:406.66667000000001] [-68.072400000000002:177.90459999999999] [-192.65549999999999:347.6062] [0:3803.5222199999998] [0:3043.9306700000002] [0:1353.3333299999999] [0:5339.9722199999997] [0:26.899270000000001] [0:1] [0:1] [0:96.287999999999997] [0:3] [0:97.352000000000004]
tree_sizes=2995 2461 2035 2233 2146 2249 1695 2673 2018 2018 1943 2046 2156 2126 2039 2134 1394 2420 1944 2241 2163 1808 1840 1519 1522 1618 1684 2053 1607 1904 1701 1947 1833 2353 1772 2230 1819 1193 1371 1814 1784 2460 2055 2480 1818 1936 1617 2268 1933 1851 1835 2455 1822 2113 1903 1886 2226 1515 2126 1483 1729 2399 2267 2021 1577 1996 2441 2431 1405 2148 2487 1907 2229 2157 972 1915 1942 1480 2002 2132 2113 1700 2022 1396 2023 2099 1203 1728 1683 2001 1894 1829 1838 1944 1727 2336 1744 1948 1799 2209 1929 1508 1715 1925 1703 1600 1821 1829 1851 1914 2059 1911 2153 2023 1040 1388 1614 1703 1750 1795 2352 1708 1399 1998 2192 1909 1149 2142 1705 1716 2738 2111 1823 2162 2041 1941 1283 1911 2004 1820 1841 1468 1155 1408 1687 1483 2145 2232 2194 1619 1315 1289 1402

Tree=0
num_leaves=27
num_cat=0
split_feature=22 15 15 3 23 21 28 26 24 7 1 1 1 24 7 30 16 1 26 1 7 1 1 17 29 7
split_gain=425.271 104.238 93.4527 32.7114 32.3883 31.7045 14.6953 14.6806 13.4188 10.3571 7.74769 13.2066 7.00896 6.30332 5.31552 5.8239 4.65156 4.41997 3.61351 3.12289 3.04985 11.5325 1.99139 1.52497 0.746848 0.656038
threshold=93.925000000000011 1.2833350000000003 1.3166650000000002 1.0000000180025095e-35 75.166665000000009 47.072220000000009 8.3876500000000025 0.17222500000000004 652.43889000000001 0.57117000000000007 8.1666650000000018 24.833335000000002 21.500000000000004 114.18333500000001 0.88700000000000012 8.2828000000000017 64.381665000000012 23.500000000000004 0.23888500000000004 24.500000000000004 1.2676600000000002 19.500000000000004 13.500000000000002 2.5358350000000005 1.0465300000000004 0.75364500000000012
decision_type=2 2 2 2 2 2 2 2 2 2 2 2 2 2 2 2 2 2 2 2 2 2 2 2 2 2
left_child=2 6 5 10 16 20 14 13 12 -7 25 -12 -6 -8 15 -2 -3 -18 -9 22 21 -1 -5 -11 -16 -4
right_child=1 4 3 19 8 9 7 18 -10 23 11 -13 -14 -15 24 -17 17 -19 -20 -21 -22 -23 -24 -25 -26 -27
leaf_value=0.058886550712499632 0.004293197434544295 -0.0033333364197583389 0.014719890093431175 0.025601367341022706 -0.020366799597259348 0.034429557136325228 -0.0033333364197583389 -0.012632923976996504 -0.056482112300624984 0.0071953507399883706 0.0041049564861733688 -0.018305121239510763 -0.039134120470451658 -0.032638017168613129 0.0022662646046672902 0.03124740441659888 -0.0044984492414694389 -0.026828076294084013 0.0082834679598267295 0.013670128688191535 0.030319910889468442 0.033322268491947075 0.051822926589931297 0.023526259778305608 -0.0067161079519810077 0.0017146303639756434
leaf_weight=112.74963188171387 44.999825999140739 35.499903723597527 35.499897032976151 27.999921128153801 54.499710440635681 66.999816507101059 17.50000174343586 19.749945431947708 87.499755993485451 75.74978868663311 90.249749168753624 100.24972806870937 290.24934062361717 56.499844312667847 34.249904304742813 27.749924838542938 28.499914228916168 62.249832570552826 47.99986632168293 24.999930292367935 32.999908700585365 63.749827697873116 18.499948278069496 19.749944671988487 28.749919667840004 24.999930113554001
leaf_count=451 180 142 142 112 218 268 70 79 350 303 361 401 1161 226 137 111 114 249 192 100 132 255 74 79 115 100
internal_value=-0.00333334 -0.0242123 0.0211878 0.00410352 -0.0348857 0.0358624 -0.00290123 -0.0123719 -0.0405206 0.0210381 -0.00333334 -0.00743636 -0.0363138 -0.0256842 0.00734331 0.0152746 -0.0151951 -0.0203575 0.00146829 0.02967 0.0471118 0.0499549 0.0371751 0.0111051 -0.00259791 0.0101623
internal_weight=0 835.998 694.498 322.499 558.498 371.999 277.499 141.75 432.249 162.5 250.999 190.499 344.749 73.9998 135.75 72.7498 126.25 90.7497 67.7498 71.4998 209.499 176.499 46.4999 95.4997 62.9998 60.4998
internal_count=6122 3344 2778 1290 2234 1488 1110 567 1729 650 1004 762 1379 296 543 291 505 363 271 286 838 706 186 382 252 242
is_linear=0
shrinkage=1


Tree=1
num_leaves=22
num_cat=0
split_feature=16 15 15 26 24 10 9 15 1 7 30 27 1 3 28 24 1 1 20 28 27
split_gain=269.656 165.712 78.3505 46.0179 18.6094 16.0857 14.6158 13.6339 15.3824 11.9594 11.0982 9.31329 6.89594 5.86209 5.53852 5.12807 4.68899 3.85741 2.89267 1.29304 0.258959
threshold=105.06166500000002 3.7166650000000003 1.2166650000000001 0.21666500000000002 408.46389000000005 21.833335000000002 36.833335000000012 2.7833350000000006 19.833335000000002 0.74156500000000014 11.510665000000001 0.38333500000000004 23.166665000000005 12.500000000000002 5.690430000000001 598.16388500000016 10.833335000000002 23.500000000000004 1.5807500000000003 6.6524650000000003 0.18333500000000005
decision_type=2 2 2 2 2 2 2 2 2 2 2 2 2 2 2 2 2 2 2 2 2
left_child=2 3 5 4 6 17 -2 16 -9 19 18 20 -10 -7 -6 -11 -4 -1 -3 -5 -12
right_child=1 10 7 9 14 13 -8 8 12 15 11 -13 -14 -15 -16 -17 -18 -19 -20 -21 -22
leaf_value=0.052512461365352398 0.00060545341664867275 -0.032489100792047712 0.034638417879267955 0.037983717711388344 -0.0060506053548456352 0.022386032774559798 -0.026156068086842486 0.012227253038859952 0.0094305803347611641 0.010727570096173767 -0.054910938250887394 -0.021861384995711275 -0.015290686147098191 0.044839049057458058 -0.033730879442796985 -0.0093426365806362349 0.01223075619446423 0.030455824176910611 -0.013645622221724491 0.02145573918480731 -0.042107788276159699
leaf_weight=107.18345169723034 194.46583011746407 134.70813298225403 29.99541662633419 27.494646936655045 22.243802517652512 137.96063224971294 45.490094318985939 107.99292136728764 23.748477026820183 102.73819257318974 101.45831952989101 30.988658219575882 96.990154564380646 32.984818145632744 67.974490478634834 27.743395328521729 68.989544108510017 31.743940472602844 27.990241914987564 56.989298358559608 52.228124663233757
leaf_count=429 778 539 120 110 89 552 182 432 95 411 406 124 388 132 272 111 276 127 112 228 209
internal_value=0 -0.0154686 0.0210429 -0.000626552 -0.0107634 0.0365312 -0.00427597 0.0062431 0.000271202 0.0147158 -0.0386139 -0.0463106 -0.0100239 0.0270268 -0.027457 0.00608565 0.0195394 0.0478481 -0.0295556 0.027448 -0.0509071
internal_weight=0 892.513 637.589 545.14 330.174 309.873 239.956 327.717 228.732 214.966 347.373 184.675 120.739 170.945 90.2183 130.482 98.985 138.927 162.698 84.4839 153.686
internal_count=6122 3571 2551 2181 1321 1240 960 1311 915 860 1390 739 483 684 361 522 396 556 651 338 615
is_linear=0
shrinkage=0.042883


Tree=2
num_leaves=18
num_cat=0
split_feature=21 15 3 23 26 5 30 1 7 24 7 26 26 7 1 1 12
split_gain=287.236 90.9764 71.8038 43.0668 45.7065 40.5393 16.8598 15.1388 12.0352 8.14064 5.96 5.68622 13.1115 3.65346 2.5334 0.715847 0.457993
threshold=101.56111000000001 1.5833350000000002 15.500000000000002 76.833335000000019 0.41111000000000003 0.60405500000000012 7.9235500000000014 14.833335000000002 0.58655500000000005 609.36666500000013 1.0145550000000003 0.050000000000000003 0.23888500000000004 0.34992000000000006 19.166665000000005 20.500000000000004 2.7055550000000008
decision_type=2 2 2 2 2 2 2 2 2 2 2 2 2 2 2 2 2
left_child=1 7 3 11 6 -3 -5 10 14 -6 -1 16 -13 15 -7 -9 -2
right_child=2 5 -4 4 9 8 -8 13 -10 -11 -12 12 -14 -15 -16 -17 -18
leaf_value=0.053573370608822751 -0.0077066712748843705 0.049977132179755288 0.050166645171810534 -0.012130139377397644 0.016144881404116632 0.016017458569134887 -0.030466560302644743 0.0506241102957046 -0.011255363287642137 -0.016192272628618165 0.028531832197587387 -0.0069373760103219511 0.017401765864498021 0.023535332223550885 0.00079331539854157393 0.031841899121406871 -0.020532668619251179
leaf_weight=113.4911138266325 40.485720843076706 30.239258110523224 29.482996597886086 126.67281693220139 58.726657316088676 45.737441465258598 475.73241464793682 20.466787353157997 131.21823100745678 17.491925150156021 32.45676676928997 94.468743890523911 69.726238772273064 127.40782858431339 48.738090947270393 49.206424131989479 17.492493689060211
leaf_count=455 162 121 118 507 235 183 1905 82 525 70 130 378 279 510 195 197 70
internal_value=0 0.0229186 -0.0151523 -0.0173497 -0.0227167 0.00335882 -0.0266939 0.0373655 -0.00269406 0.00807757 0.0483609 -0.000735407 0.00310869 0.0289555 0.00868481 0.0381222 -0.01244
internal_weight=0 598.962 930.28 900.797 678.624 255.933 602.405 343.029 225.694 76.2186 145.948 222.173 164.195 197.081 94.4755 69.6732 57.9782
internal_count=6122 2398 3724 3606 2717 1024 2412 1374 903 305 585 889 657 789 378 279 232
is_linear=0
shrinkage=0.042883


Tree=3
num_leaves=20
num_cat=0
split_feature=22 15 23 24 1 5 7 21 21 20 7 7 1 1 1 10 28 6 3
split_gain=293.183 182.416 52.7538 28.7514 16.0519 11.7402 8.9778 10.2024 7.57181 5.80046 7.21222 5.72219 10.9456 4.27194 3.25723 2.68011 2.14968 0.763061 0.325936
threshold=25.855555000000006 2.3833350000000002 72.833335000000019 451.47222500000004 25.833335000000002 0.78002000000000005 0.76186500000000013 329.16944500000005 450.53889000000004 0.061375000000000006 0.59272500000000006 0.91620500000000005 25.833335000000002 6.8333350000000008 22.166665000000005 42.833335000000012 8.181535000000002 0.99521500000000007 3.5000000000000004
decision_type=2 2 2 2 2 2 2 2 2 2 2 2 2 2 2 2 2 2 2
left_child=5 3 11 6 13 -1 7 -2 -6 18 -11 12 -3 -4 -13 -8 -5 -18 -7
right_child=1 2 4 16 8 9 15 -9 -10 10 -12 14 -14 -15 -16 -17 17 -19 -20
leaf_value=0.050035692733744537 0.022398350811959674 0.0077114889182730668 -0.02205182247051957 -0.0020148919262098362 -0.032976561754339995 0.023330601560645255 0.010483225118292441 -0.0010846631215016671 -0.048012098576764146 0.060959715384523834 0.0261422549450991 -0.0053389100663375705 -0.016542813906328509 0 -0.024577134275014133 0.0010944849028919853 -0.024507302225026079 -0.010615781754893689 0.035253544993698677
leaf_weight=95.383634984493256 189.7311817407608 77.470111280679703 64.380609005689621 29.483184844255447 207.57875968515873 135.46519407629967 130.90191972255707 36.725182712078094 127.12535907328129 27.413250118494034 30.71042075753212 35.243492156267166 59.718267664313316 19.723073169589043 49.725284829735756 119.92929463088512 31.450477376580238 33.700313434004784 26.162410944700241
leaf_count=383 760 310 258 118 832 543 524 147 510 110 123 141 239 79 199 480 126 135 105
internal_value=0 -0.00979907 -0.0255241 0.00774131 -0.0345204 0.0366192 0.0120765 0.0183779 -0.0388454 0.030554 0.0434767 -0.00833832 -0.00249893 -0.0167064 -0.0171828 0.00618934 -0.0136018 -0.0180923 0.0255819
internal_weight=0 1212.89 640.965 571.922 418.808 315.135 477.288 226.456 334.704 219.751 58.1237 222.157 137.188 84.1037 84.9688 250.831 94.634 65.1508 161.628
internal_count=6122 4858 2568 2290 1679 1264 1911 907 1342 881 233 889 549 337 340 1004 379 261 648
is_linear=0
shrinkage=0.042883


Tree=4
num_leaves=19
num_cat=0
split_feature=22 15 15 22 1 9 28 23 9 7 1 11 1 1 10 11 3 28
split_gain=309.539 106.487 65.2893 44.5196 15.3356 13.35 17.8065 12.3537 12.1951 7.5468 5.19587 3.95582 7.2853 19.4566 3.28664 2.31407 1.58058 0.416697
threshold=147.73888500000001 2.5500000000000003 3.9833350000000007 12.545220000000002 28.166665000000005 11.500000000000002 8.8094700000000028 58.833335000000012 22.833335000000002 0.48093500000000006 7.166665000000001 68.119445000000013 10.833335000000002 22.166665000000005 88.833335000000019 0.11944500000000001 1.0000000180025095e-35 3.9880000000000004
decision_type=2 2 2 2 2 2 2 2 2 2 2 2 2 2 2 2 2 2
left_child=1 3 5 10 -5 -2 9 -4 -9 -7 -1 12 15 -14 -8 -3 -6 -10
right_child=2 11 7 4 16 6 14 8 17 -11 -12 -13 13 -15 -16 -17 -18 -19
leaf_value=0.058026673422482307 0.017057288030254983 0.019818614640946256 -0.011923017490982676 0.026458925430969556 0.0046790324256688861 0.015915149135875148 -0.017118425018369118 -0.017654891177435787 -0.035367959987200354 -0.0071090246944821951 0.039015653057588549 0.010920389799202257 0.0095734764937713355 -0.017703726499141658 -0.030914985229730772 0.0012475198087131077 0.01578088194089142 -0.048791950389752946
leaf_weight=63.987842440605164 27.486054345965385 18.466836184263229 32.967564105987549 238.28519773483276 103.89711597561836 32.964316129684448 139.70777843892574 37.868605986237526 37.322348639369011 117.88657888770103 102.9527599811554 31.962251633405685 68.945825889706612 146.54061451554298 61.843502685427666 57.684643298387527 41.959848374128342 163.61706151068211
leaf_count=258 110 74 132 956 416 132 560 152 150 472 414 128 276 587 248 231 168 658
internal_value=0 0.0164522 -0.0225862 0.0279247 0.0196613 -0.0109224 -0.0132464 -0.0387012 -0.0421885 -0.00174957 0.0466249 -0.0029386 -0.00462674 -0.00875153 -0.0216059 0.00640692 0.00821344 -0.0465595
internal_weight=0 874.683 651.664 551.083 384.142 379.888 352.402 271.776 238.808 150.851 166.941 323.6 291.638 215.486 201.551 76.1515 145.857 200.939
internal_count=6122 3508 2614 2212 1540 1522 1412 1092 960 604 672 1296 1168 863 808 305 584 808
is_linear=0
shrinkage=0.042883


Tree=5
num_leaves=20
num_cat=0
split_feature=9 21 22 26 3 15 30 15 7 1 20 8 26 8 2 28 13 13 26
split_gain=287.638 58.4191 47.4408 49.4314 34.2264 26.6705 20.2734 15.1925 11.1208 8.08853 7.11132 5.57177 5.30795 9.70553 3.69714 3.61026 3.46414 3.07683 1.86615
threshold=23.166665000000005 52.400000000000013 236.25833000000003 0.27778000000000008 7.5000000000000009 3.3500000000000005 8.4761500000000023 3.8500000000000005 0.80733500000000014 5.8333350000000008 2.3221250000000002 0.22500000000000003 0.16111500000000004 2.7583350000000002 4.3169650000000006 10.177765000000003 2.6861100000000007 3.4694450000000008 0.27778000000000008
decision_type=2 2 2 2 2 2 2 2 2 2 2 2 2 2 2 2 2 2 2
left_child=1 5 3 12 7 9 16 10 -7 -1 -3 -5 -2 -14 -11 -8 -4 -13 -9
right_child=2 4 6 11 -6 8 15 18 -10 14 -12 17 13 -15 -16 -17 -18 -19 -20
leaf_value=0.048086970768987929 -0.029633949715544686 0.0051477173369947112 -0.017069220222954123 -0.0077096177292933716 0.038484494906573116 0.019957581787261817 -0.032330315229214097 -0.010929718680217171 -0.012604499049439461 0.017000917727048218 0.024728649669865304 0.0019570780114998108 -0.027745315076418135 0.003322856017580202 0.033450564270073833 -0.044565204714086544 0.0044822242919666739 0.020676792289695111 0.00048322550769058418
leaf_weight=76.840388998389244 116.09221385419369 284.81892643868923 28.416778653860092 19.707207381725311 54.818494960665703 44.914408445358276 158.5467224419117 122.95128962397575 31.979590401053429 46.654004171490669 41.186347052454948 28.695053845643997 37.650386080145836 31.417509287595749 159.16608503460884 124.56430545449257 21.1822449862957 71.113396644592285 23.45856761932373
leaf_count=311 466 1141 114 79 220 180 638 493 128 188 165 115 151 126 641 502 85 285 94
internal_value=0 0.0155904 -0.0221733 -0.00971754 0.00638071 0.0289545 -0.0334274 0.00254511 0.00578856 0.0350808 0.00777718 0.0115047 -0.0236756 -0.0129309 0.0299676 -0.0378992 -0.00690263 0.0157868 -0.00877201
internal_weight=0 886.788 637.386 304.676 527.234 359.554 332.71 472.415 76.894 282.66 326.005 119.516 185.16 69.0679 205.82 283.111 49.599 99.8085 146.41
internal_count=6122 3561 2561 1222 2113 1448 1339 1893 308 1140 1306 479 743 277 829 1140 199 400 587
is_linear=0
shrinkage=0.042883


Tree=6
num_leaves=15
num_cat=0
split_feature=22 15 3 27 30 15 15 22 23 3 10 23 28 1
split_gain=264.67 80.8948 55.9597 41.5205 39.7457 18.8724 17.876 15.0218 8.53547 6.72666 4.74571 3.9489 0.916786 0.364436
threshold=52.219445000000007 5.416665000000001 6.5000000000000009 0.14444500000000002 8.5666650000000022 4.0500000000000016 2.8833350000000002 177.81944000000001 48.500000000000007 1.0000000180025095e-35 96.833335000000019 164.50000000000003 7.8572500000000014 20.166665000000005
decision_type=2 2 2 2 2 2 2 2 2 2 2 2 2 2
left_child=5 2 3 4 -2 6 9 -5 -3 -1 -10 13 -7 -4
right_child=1 8 11 7 -6 12 -8 -9 10 -11 -12 -13 -14 -15
leaf_value=0.027822553477052935 -0.0043247138458454596 -0.0138717202465605 0.044344833832310589 0.010750254450685467 -0.030982821718826967 0.0099549792640975156 0.0020728892635161105 -0.0079700757224643991 -0.034842253491328717 0.041491660260525282 -0.054068750255224556 0.010764815198435867 0 0.026641597888706171
leaf_weight=222.49736662209034 195.38070273399353 32.464426189661026 20.910581931471825 163.2546421289444 228.8719520419836 59.154483661055565 41.419687375426292 150.48165184259415 125.643340036273 134.65913344919682 47.67344443500042 26.419532597064972 26.205567851662636 33.896290928125381
leaf_count=898 783 130 84 654 921 237 166 605 507 545 193 106 105 136
internal_value=0 -0.0124138 -0.00630228 -0.0100695 -0.0188242 0.0260607 0.0300187 0.00161742 -0.036493 0.0331226 -0.0404401 0.0272983 0.0069993 0.0343507
internal_weight=0 1025 819.215 737.989 424.253 483.936 398.576 313.736 205.781 357.157 173.317 81.2264 85.3601 54.8069
internal_count=6070 4119 3289 2963 1704 1951 1609 1259 830 1443 700 326 342 220
is_linear=0
shrinkage=0.042883


Tree=7
num_leaves=24
num_cat=0
split_feature=5 22 15 15 15 22 23 3 16 21 1 16 22 9 22 3 1 9 7 26 1 9 22
split_gain=186.473 115.758 66.2493 33.5317 32.7669 24.9136 15.0927 13.5996 10.6654 8.24423 7.22225 6.65355 6.64372 5.97319 4.76002 4.25966 3.7179 3.03344 2.86399 1.63445 0.641427 0.617903 0.481267
threshold=0.94003000000000014 182.78611000000004 2.6500000000000004 3.2833350000000006 3.0833350000000004 93.925000000000011 36.166665000000002 5.5000000000000009 292.91000000000003 182.30000000000004 25.166665000000005 579.30167000000017 129.36666500000004 9.8333350000000017 76.027780000000021 18.500000000000004 28.166665000000005 19.833335000000002 0.75364500000000012 0.35000000000000003 16.166665000000005 70.166665000000009 35.913890000000009
decision_type=2 2 2 2 2 2 2 2 2 2 2 2 2 2 2 2 2 2 2 2 2 2 2
left_child=3 2 5 13 8 10 22 12 16 -7 -2 17 18 20 -8 -15 -3 -6 -5 -10 -1 -13 -4
right_child=1 4 6 7 11 9 14 -9 19 -11 -12 21 -14 15 -16 -17 -18 -19 -20 -21 -22 -23 -24
leaf_value=0.046997749153773277 0.028833811531249785 0.016735705128969075 -0.00035879804052580484 0.013228730328612595 -0.015343831395296114 -0.011530868499103567 -0.008966396465317307 0.041096598742711848 -0.020205644768951453 0.011225115856839695 0.013743407828677024 -0.040291519015012885 -0.017038908772137547 0.023254214847523567 -0.025721931105733609 0.046464067183163767 -0.0046027990478133803 -0.03250680603982456 -0.0036265304514753786 -0.002723778610680053 0.032436432331270089 -0.059124573310723384 0.0056856526799572062
leaf_weight=81.33990216255188 136.24393047392368 20.47652293741703 36.198053106665611 52.378242880105972 35.858315899968147 69.424735993146896 56.151511788368225 18.178326278924942 137.51267544925213 49.435544863343239 134.1484911441803 59.991041883826256 27.509411826729774 111.86335548758507 121.07525649666786 23.699267104268074 52.392029821872711 145.90402942895889 22.710115134716034 17.698000386357307 37.900447383522987 22.278595581650734 35.965112790465355
leaf_count=332 552 82 145 210 144 278 225 73 553 198 539 244 111 450 487 96 210 591 91 71 153 91 144
internal_value=0 -0.00876315 0.00321448 0.0261078 -0.0244028 0.0143297 -0.0139392 0.0069832 -0.0121599 -0.00165826 0.0215344 -0.0347862 0.000431163 0.0349762 -0.0206946 0.0277021 0.000746705 -0.0293979 0.00748994 -0.0185269 0.0428083 -0.0460495 0.00198853
internal_weight=0 1130.75 638.643 375.579 492.111 389.253 249.39 120.776 228.079 118.86 270.392 264.032 102.598 254.803 177.227 135.563 72.8686 181.762 75.0884 155.211 119.24 82.2696 72.1632
internal_count=6070 4554 2568 1516 1986 1567 1001 485 916 476 1091 1070 412 1031 712 546 292 735 301 624 485 335 289
is_linear=0
shrinkage=0.042883


Tree=8
num_leaves=18
num_cat=0
split_feature=22 9 15 5 5 26 19 28 15 7 29 6 29 1 1 14 15
split_gain=209.268 86.8929 63.5911 31.9756 26.4612 21.8082 15.4123 11.0081 8.0218 6.45827 4.66195 1.83783 0.865637 0.648709 1.7104 0.180514 0.110577
threshold=43.044445000000003 15.166665000000002 3.5500000000000003 0.70710500000000009 0.86402500000000015 0.27778000000000008 0.33357500000000007 15.447215000000002 1.8500000000000003 0.90958000000000017 0.9447850000000001 0.9823400000000001 0.91751500000000008 22.166665000000005 12.166665000000002 9.3361100000000015 4.1500000000000012
decision_type=2 2 2 2 2 2 2 2 2 2 2 2 2 2 2 2 2
left_child=3 8 6 -1 -4 -6 7 -3 12 13 11 -10 -2 14 -5 -11 -12
right_child=1 2 4 9 5 -7 -8 -9 10 15 16 -13 -14 -15 -16 -17 -18
leaf_value=0.048083785288284962 0.027950441445598509 -0.0051269369177870837 0.017873611636679256 0.032058596359966031 -0.036311045027535079 -0.0072990609307116879 0.018910666224056714 -0.025683242062618305 0.02440239199716317 0.011903908477545445 0 0.0033771122630693881 0.016238967521436751 0.018647109401815923 0.018041156758094291 0.0045205137865441886 -0.0037788140634010107
leaf_weight=92.141621634364128 52.731872081756592 370.57993958890438 19.617121130228043 73.798835530877113 310.42637345194817 61.492679432034492 42.07836426794529 57.340796053409576 23.684202179312706 87.169079169631004 31.692806050181389 20.459754571318626 57.478222563862801 90.265188872814178 49.061058968305588 33.279674291610718 29.911614909768105
leaf_count=377 212 1488 79 301 1261 248 169 231 95 352 127 82 231 364 199 134 120
internal_value=0 -0.0101245 -0.0162474 0.0253838 -0.0290388 -0.0316477 -0.00548427 -0.00800024 0.0140739 0.018955 0.00502692 0.0157826 0.0223028 0.0236284 0.0268752 0.0102709 -0.0019108
internal_weight=0 1077.49 861.535 425.715 391.536 371.919 469.999 427.921 215.958 333.574 105.748 44.144 110.21 213.125 122.86 120.449 61.6044
internal_count=6070 4343 3476 1727 1588 1509 1888 1719 867 1350 424 177 443 864 500 486 247
is_linear=0
shrinkage=0.042883


Tree=9
num_leaves=18
num_cat=0
split_feature=9 15 5 16 27 22 27 27 1 15 15 1 23 13 22 8 13
split_gain=188.249 148.6 41.603 32.9943 29.0445 25.1161 23.5924 13.0621 11.6149 5.24351 4.96481 4.79399 4.75431 4.08139 3.16447 1.5822 0.275147
threshold=34.833335000000012 1.9833350000000001 0.68660500000000013 54.39166500000001 0.31666500000000003 95.403780000000026 0.28333500000000006 0.35000000000000003 27.166665000000005 2.4500000000000006 2.2166650000000003 14.833335000000002 41.833335000000012 8.9916650000000029 184.62222000000003 1.9055550000000003 8.5638900000000024
decision_type=2 2 2 2 2 2 2 2 2 2 2 2 2 2 2 2 2
left_child=1 2 -1 11 8 12 9 -7 -5 13 16 -3 -4 -2 -11 -6 -8
right_child=6 3 5 4 15 7 10 -9 -10 14 -12 -13 -14 -15 -16 -17 -18
leaf_value=0.051448627242046734 -0.031308728044410282 0.015641819637702919 0.03144396065405751 -0.010202518733922172 0.00023034076843419734 0.0013719964958579442 0 0.03160547267671792 -0.028126473163612185 -0.023396447200108316 -0.016908751688172557 0.00024584656509875547 0.019662448454793879 -0.0094163891587563438 -0.042269323590446252 0.014895759085767027 0.0060673490501533282
leaf_weight=82.152091011404991 57.149534001946449 76.640655562281609 162.04351015388966 122.61286656558514 31.354686200618744 175.87107491493225 17.938438773155212 31.68804469704628 179.67679649591446 33.828444063663483 48.573066875338554 85.017069041728973 163.12750615179539 32.008070334792137 139.81992101669312 39.293046191334724 21.421471640467644
leaf_count=339 230 309 662 493 126 705 72 127 727 137 197 341 658 129 574 158 86
internal_value=0 0.00833677 0.0227326 -0.00813184 -0.0151892 0.018204 -0.0275494 0.00623468 -0.0210224 -0.0340371 -0.0075922 0.00784949 0.0256907 -0.024012 -0.0388879 0.00908078 0.00269466
internal_weight=0 1149.48 614.882 534.595 372.937 532.73 350.739 207.559 302.29 262.806 87.933 161.658 325.171 89.1576 173.648 70.6477 39.3599
internal_count=6070 4645 2491 2154 1504 2152 1425 832 1220 1070 355 650 1320 359 711 284 158
is_linear=0
shrinkage=0.042883


Tree=10
num_leaves=17
num_cat=0
split_feature=5 15 21 30 26 26 15 27 1 22 26 13 22 16 16 26
split_gain=204.24 94.399 52.6947 38.7547 22.3751 12.4969 11.9021 10.3652 9.24703 5.61916 3.69107 3.67569 3.57717 2.41477 1.38424 1.2209
threshold=0.86707000000000012 0.95000000000000007 65.327780000000004 9.353785000000002 0.35000000000000003 0.16111500000000004 0.98333500000000018 0.55000000000000016 15.833335000000002 157.94600000000003 0.17222500000000004 23.047225000000001 24.356890000000003 160.89667000000003 275.14666500000004 0.27778000000000008
decision_type=2 2 2 2 2 2 2 2 2 2 2 2 2 2 2 2
left_child=6 2 12 8 5 -5 -1 11 13 15 -10 -4 -2 -3 -6 -8
right_child=1 3 7 4 14 -7 9 -9 10 -11 -12 -13 -14 -15 -16 -17
leaf_value=0.045513859469126026 0.036001642174717186 0.011963364927180626 -0.0062608287287843857 -0.033684686476597524 0.0034855965691976453 -0.017088024560566767 0.025798697624153936 0.022146907467696743 -0.012896685171623828 0.0014612200908435003 -0.0012384739747902552 0.0069910616129112441 0.01856192542657106 -0.003962384464253085 -0.0081710255873196636 0.044225397464154735
leaf_weight=118.57402844727039 91.513259932398796 63.280472949147224 233.95386232435703 257.23133188486099 39.605269357562065 146.66922721266747 97.20565339922905 30.565114751458168 149.35364738106728 19.574335739016533 89.792023956775665 42.756885081529617 48.013537645339966 18.642728134989738 31.979312941431999 17.77294696867466
leaf_count=490 376 255 940 1052 159 596 394 123 602 79 361 172 195 75 129 72
internal_value=0 -0.0071975 0.0085074 -0.0160673 -0.0238621 -0.0277838 0.035054 -0.00126783 -0.00436899 0.025448 -0.00872405 -0.00403654 0.0303657 0.00774927 -0.00105175 0.0291061
internal_weight=0 1243.36 446.803 796.554 475.485 403.901 253.127 307.276 321.069 134.553 239.146 276.711 139.527 81.9232 71.5846 114.979
internal_count=6070 5035 1806 3229 1936 1648 1035 1235 1293 545 963 1112 571 330 288 466
is_linear=0
shrinkage=0.042883


Tree=11
num_leaves=18
num_cat=0
split_feature=9 15 26 3 16 26 23 3 15 28 27 16 13 28 20 20 20
split_gain=204.906 84.4298 24.5318 24.0844 34.6835 18.999 14.9807 18.2146 12.2549 6.30803 6.83768 6.26462 2.83726 6.89814 2.43249 0.247861 0.787288
threshold=30.166665000000005 3.0500000000000003 0.41111000000000003 8.5000000000000018 14.311665000000003 0.23888500000000004 80.833335000000019 2.5000000000000004 5.2500000000000009 4.0833500000000011 0.23888500000000004 71.870000000000019 8.338885000000003 7.1947850000000004 0.097600000000000006 -1.1882999999999997 0.69137500000000018
decision_type=2 2 2 2 2 2 2 2 2 2 2 2 2 2 2 2 2
left_child=1 3 8 4 -1 -6 7 11 12 -8 -11 -3 -2 -14 -4 -5 -17
right_child=2 6 14 15 5 -7 9 -9 -10 10 -12 -13 13 -15 -16 16 -18
leaf_value=0.039577965990168586 -0.026447900049192719 0.001473410611868114 -0.0039391557392345726 0.044081789104908217 0.0041366596662203228 0.022105698227427164 -0.0031180303563855586 0.032539768401393707 -0.040141857293695363 -0.033970844253174259 -0.0023741842015838972 -0.012691842777973902 0.0064161303917546859 -0.021244009964111549 0.014591906318265761 0.023944439136923856 0.0417427992826368
leaf_weight=93.045561671257019 172.05050593614578 126.50362671911716 31.326302841305733 49.720781847834587 311.17931382358074 173.43598030507565 37.234277501702309 27.270876079797745 122.37648969888687 56.992845818400383 20.56308425962925 97.78970941901207 18.102405920624733 74.69651497900486 19.931161656975746 37.366454467177391 23.377112910151482
leaf_count=386 700 508 126 206 1257 701 151 110 507 233 83 394 73 304 80 155 96
internal_value=0 0.0102029 -0.0246746 0.0190733 0.0154172 0.0106708 -0.00632722 -0.000271478 -0.0283752 -0.0191648 -0.026231 -0.00449014 -0.0227416 -0.0153266 0.00234061 0.0377212 0.0316509
internal_weight=0 1054.48 438.483 688.125 577.661 484.615 366.354 251.564 387.226 114.79 77.5559 224.293 264.849 92.7989 51.2575 110.464 60.7436
internal_count=6070 4280 1790 2801 2344 1958 1479 1012 1584 467 316 902 1077 377 206 457 251
is_linear=0
shrinkage=0.042883


Tree=12
num_leaves=19
num_cat=0
split_feature=22 15 5 5 30 28 28 1 23 1 23 6 13 14 13 25 12 29
split_gain=188.857 84.2813 32.2516 22.5309 12.9066 8.02384 6.60752 6.55704 6.18994 6.50339 4.11031 2.10469 2.07703 0.910654 0.458619 0.407366 0.340601 0.154864
threshold=151.39788500000003 2.0166650000000002 0.76670000000000005 0.58136500000000013 17.345765000000004 14.977550000000003 1.2696850000000002 22.166665000000005 70.833335000000019 27.833335000000002 12.166665000000002 1.0843300000000002 0.70833500000000005 17.663890000000002 4.7388850000000007 0.20902500000000002 14.163890000000002 1.0329400000000002
decision_type=2 2 2 2 2 2 2 2 2 2 2 2 2 2 2 2 2 2
left_child=1 3 -2 -1 5 6 -4 10 14 16 -5 17 -9 -11 15 -3 -10 -6
right_child=2 8 4 7 11 -7 -8 12 9 13 -12 -13 -14 -15 -16 -17 -18 -19
leaf_value=0.048805367400167096 0.037120970502265295 0.0020822194157350997 -0.0026077094964571008 0.035411819779145481 -0.030113909525637712 -0.039113064810097062 -0.01757534152926955 0.010320218852573358 -0.00090295467547976812 -0.024726652927535918 0.02056043363405852 -0.015878731699778829 0.019531543604313466 -0.011183487925171339 0.0051635254816931814 -0.0017636848506886905 0.0057164731065568559 -0.042282969299501948
leaf_weight=59.747190043330193 17.833464458584785 72.643238425254822 72.488989800214767 71.688020378351212 60.643914416432381 30.768367677927017 378.717016518116 130.62996919453144 19.819801419973373 40.096255674958229 128.0195436924696 21.485358208417892 118.4190329760313 36.443839713931084 31.603813856840134 143.58642214536667 20.608917713165283 45.621936142444611
leaf_count=253 72 293 294 301 250 127 1541 529 80 163 525 88 478 147 127 578 83 188
internal_value=0 0.0122127 -0.0186219 0.0235067 -0.0203379 -0.0169093 -0.0152791 0.0200197 -0.00339993 -0.0115379 0.0261499 -0.0328696 0.0149007 -0.018934 0.000249246 -0.000247702 0.00128462 -0.0358306
internal_weight=0 873.306 627.559 508.504 609.726 481.974 451.206 448.757 364.802 116.969 199.708 127.751 249.049 76.5401 247.833 216.23 40.4287 106.266
internal_count=6117 3557 2560 2086 2488 1962 1835 1833 1471 473 826 526 1007 310 998 871 163 438
is_linear=0
shrinkage=0.042883


Tree=13
num_leaves=19
num_cat=0
split_feature=15 9 22 9 26 7 1 18 1 29 16 30 22 26 16 11 7 20
split_gain=170.59 62.2032 57.3337 39.7154 19.0551 13.7395 10.6294 9.12518 8.92944 8.31977 7.79671 5.35501 4.8702 4.08789 4.28735 3.60231 2.51919 0.427088
threshold=1.5833350000000002 20.833335000000002 11.794415000000003 24.500000000000004 0.35000000000000003 0.67205000000000015 22.500000000000004 15.833335000000002 26.166665000000005 0.59427000000000019 37.668335000000006 11.440550000000002 118.84444500000002 0.31666500000000003 163.59333500000002 22.683335000000003 0.62314500000000017 -1.6491999999999998
decision_type=2 2 2 2 2 2 2 2 2 2 2 2 2 2 2 2 2 2
left_child=2 5 -1 9 6 10 16 -8 -5 -4 -2 -12 -6 14 -7 -10 -3 -11
right_child=1 4 3 8 12 13 7 -9 15 17 11 -13 -14 -15 -16 -17 -18 -19
leaf_value=0.039594902561912566 0.018884786159604608 0 0.031120521344652929 0.010397410062381226 0.011158794846391392 -0.0060475242149629505 -0.033824018606695788 -0.0065634181786993163 -0.02233032154155409 0.019151807416919787 0.0059066724851468046 -0.018664084922344091 -0.013032107389417964 0.0045697330811035261 -0.022416395905103758 -0.0067483859328106586 -0.017385231003506335 0.012183979505465195
leaf_weight=140.13544929027557 73.654182195663452 22.35455210506916 69.180402040481567 40.784506991505623 27.400857463479042 111.89761175215244 290.32885783910751 29.427740350365639 45.336726665496826 53.628873929381371 68.560604646801949 21.283620268106461 33.025285273790359 32.086783483624458 47.646719545125961 107.38068827986717 50.893581122159958 232.19152665138245
leaf_count=592 299 91 284 165 110 450 1200 122 183 218 276 86 134 129 193 433 209 943
internal_value=0 -0.0140106 0.015028 0.0086567 -0.0245371 -0.000430801 -0.0279912 -0.0314694 -0.00679199 0.0172131 0.00855303 0 -0.00126327 -0.00834847 -0.0112508 -0.0117031 -0.0121238 0.0136673
internal_weight=0 808.56 688.638 548.503 453.431 355.13 393.005 319.757 193.502 355.001 163.498 89.8442 60.4261 191.631 159.544 152.717 73.2481 285.82
internal_count=6117 3299 2818 2226 1866 1433 1622 1322 781 1445 661 362 244 772 643 616 300 1161
is_linear=0
shrinkage=0.042883


Tree=14
num_leaves=18
num_cat=0
split_feature=15 5 22 22 5 30 16 9 1 7 7 12 29 28 23 16 26
split_gain=155.541 80.7123 59.8623 41.1454 23.0961 13.2514 12.2085 9.80303 9.477 8.76466 5.77154 5.18044 4.93241 4.50184 3.01248 1.73257 0.542776
threshold=1.4833350000000001 0.82554500000000008 49.669445000000003 129.36666500000004 0.95180000000000009 13.897465000000002 6.7883300000000011 54.833335000000012 13.833335000000002 1.0820100000000001 1.2816250000000002 23.627775000000003 0.87217000000000011 4.7480650000000013 109.50000000000001 345.02833500000003 0.14444500000000002
decision_type=2 2 2 2 2 2 2 2 2 2 2 2 2 2 2 2 2
left_child=2 16 8 6 12 13 -3 10 9 -1 -6 -8 -4 -5 -10 -7 -2
right_child=1 3 4 5 7 15 11 -9 14 -11 -12 -13 -14 -15 -16 -17 -18
leaf_value=0.045356307906284032 0.01916831154276729 0.02211758040733304 0.03657891954894326 -0.012098376061188788 -0.0013129471172084062 -0.027796407170449459 -0.011933278140368342 -0.022917732333361158 0.024982951996470971 0.013544532270576863 0.016956508463427857 0.00076217360703400878 0.01261694775663305 -0.025064052025939639 0.0065400705382412209 -0.040227135471219207 0.03173476948169926
leaf_weight=97.187591761350632 62.638640969991684 25.662770792841911 36.29489940404892 108.32509399950504 233.37337639927864 72.09502674639225 202.18554924428463 35.293442472815514 133.89480702579021 24.791889041662216 36.292871311306953 73.708619236946106 43.843163415789604 137.69843356311321 27.223373338580132 110.56944537162781 31.936567291617393
leaf_count=419 255 104 148 440 939 299 815 143 555 104 146 297 178 568 111 466 130
internal_value=0 -0.0130838 0.0147473 -0.0179497 0.00359673 -0.0265165 -0.00560573 -0.00164108 0.0297376 0.0393045 0.000972392 -0.00836734 0.0241068 -0.0195595 0.0221732 -0.0356049 0.023954
internal_weight=0 824.82 668.195 730.245 385.098 428.688 301.557 304.96 283.098 121.979 269.666 275.894 80.1381 246.024 161.118 182.664 94.5752
internal_count=6117 3374 2743 2989 1554 1773 1216 1228 1189 523 1085 1112 326 1008 666 765 385
is_linear=0
shrinkage=0.042883


Tree=15
num_leaves=19
num_cat=0
split_feature=22 5 9 15 15 26 15 28 1 27 7 15 15 1 26 2 10 2
split_gain=164.52 36.4232 34.578 30.6709 23.2102 18.4873 14.4032 6.88495 6.45609 5.64847 3.95251 3.26698 4.9006 2.28795 1.52049 1.07705 0.545032 0.256509
threshold=87.935775000000021 0.70710500000000009 53.166665000000002 4.7166650000000008 3.9166650000000005 0.23888500000000004 1.9833350000000001 6.511165000000001 27.500000000000004 0.28333500000000006 0.82027000000000017 2.0166650000000002 3.7166650000000003 19.833335000000002 0.38333500000000004 6.1056850000000003 61.500000000000007 14.458585000000001
decision_type=2 2 2 2 2 2 2 2 2 2 2 2 2 2 2 2 2 2
left_child=1 -1 3 5 6 7 13 -2 10 17 -5 -4 -13 -3 -7 -8 -10 -6
right_child=2 4 11 8 9 14 15 -9 16 -11 -12 12 -14 -15 -16 -17 -18 -19
leaf_value=0.038091375522319212 -0.0014990959951079166 0.025018716068498845 -0.02103833305448263 0 -0.0077367184195714922 0.0043401511410283856 -0.0053610431946650343 -0.013865728265829659 -0.024277877488368901 0.011587797592554723 -0.021353234883271094 -0.015790331002288358 -0.04485092113639412 0.016151086397203026 0.014433901758704982 0.0041906831905367189 -0.035222145935045308 -0.017477723147606372
leaf_weight=111.21220707893372 150.65487603843212 135.13983574509621 43.070307478308678 29.918927475810051 79.765066087245941 82.655430987477303 33.046166434884071 213.72160091996193 76.277467116713524 26.667398765683174 32.822439610958099 19.553744524717331 68.742890655994415 187.46484969556332 63.521806925535202 58.666689544916153 56.997985377907753 18.512862056493759
leaf_count=475 608 571 175 122 321 334 133 871 317 107 135 81 294 766 256 236 240 75
internal_value=0 0.015582 -0.0131564 -0.00930217 0.0108435 -0.00365196 0.0157571 -0.00888727 -0.0237622 -0.00506296 -0.0111021 -0.033494 -0.0389895 0.0200228 0.00906445 0.000220044 -0.0293458 -0.0100804
internal_weight=0 650.475 837.937 706.571 539.263 510.554 414.318 364.376 196.017 124.945 62.7414 131.367 88.2966 322.605 146.177 91.7129 133.275 98.2779
internal_count=6117 2684 3433 2883 2209 2069 1706 1479 814 503 257 550 375 1337 590 369 557 396
is_linear=0
shrinkage=0.042883


Tree=16
num_leaves=12
num_cat=0
split_feature=9 3 5 27 5 22 9 15 15 20 15
split_gain=147.279 58.5613 45.8784 61.47 20.5515 17.8666 16.8492 9.03004 4.34397 3.54711 0.10088
threshold=12.166665000000002 11.500000000000002 0.85449500000000012 0.14444500000000002 0.7884850000000001 80.894445000000005 35.500000000000007 4.0833350000000008 2.5500000000000003 -0.061524999999999989 5.5166650000000006
decision_type=2 2 2 2 2 2 2 2 2 2 2
left_child=4 2 9 6 -1 -5 -4 8 -6 -2 -9
right_child=1 -3 3 5 7 -7 -8 10 -10 -11 -12
leaf_value=0.037287393612891961 0.035213627880978357 0.032270063184837459 -0.018071610891727156 0.010654690156267152 0.02146571212104928 -0.0077597513613403661 -0.035302211684555308 0.00075993483996682437 0.0041589012136063397 0.010949982983637261 -0.0028602120458670038
leaf_weight=113.30135029554367 31.96689684689045 59.488994389772415 352.13971954584122 141.52569881081581 197.10269333422184 301.4896764755249 164.6610569357872 34.311040312051773 39.281020402908325 28.629816308617592 20.138719350099564
leaf_count=486 131 247 1436 574 822 1233 694 138 158 117 81
internal_value=0 -0.00884212 -0.0112895 -0.0136074 0.021499 -0.00176677 -0.0236614 0.0151704 0.0187975 0.0245865 0
internal_weight=0 1079.9 1020.41 959.816 404.135 443.015 516.801 290.833 236.384 60.5967 54.4498
internal_count=6117 4432 4185 3937 1685 1807 2130 1199 980 248 219
is_linear=0
shrinkage=0.042883


Tree=17
num_leaves=22
num_cat=0
split_feature=9 7 27 15 15 1 21 1 13 21 15 21 15 16 15 15 30 1 16 15 24
split_gain=146.041 42.3982 40.3103 28.8545 18.965 11.3974 10.3313 6.93047 6.36048 5.20335 5.67006 5.16882 4.64957 3.60736 9.71434 3.46443 2.80261 7.50335 2.74888 0.218342 0.107416
threshold=25.500000000000004 0.54541000000000006 0.28333500000000006 2.5166650000000002 4.916665000000001 20.833335000000002 381.32222500000006 23.833335000000002 4.7388850000000007 8.552780000000002 0.98333500000000018 470.16389000000009 4.783335000000001 6.2200000000000015 1.5166650000000004 4.0500000000000016 13.897465000000002 27.833335000000002 118.06333000000002 2.5166650000000002 199.47500000000005
decision_type=2 2 2 2 2 2 2 2 2 2 2 2 2 2 2 2 2 2 2 2 2
left_child=1 5 4 13 7 9 8 20 -7 -1 -11 12 19 -3 -15 -9 17 -5 -6 -4 -2
right_child=2 3 11 16 18 6 -8 15 -10 10 -12 -13 -14 14 -16 -17 -18 -19 -20 -21 -22
leaf_value=0.039362386118615929 0 0.031057844223064155 0.0084812081162355633 0 -0.017924483286398486 0.01131441147582486 -0.016689251017726368 -0.018241216337950311 0.035918991084242548 0.032528377992051931 0.013806258465325062 -0.011819436196154508 -0.0087204972511986806 0.012613905729113813 -0.0065881078992028694 -0.034996166606512766 -0.020419021605338344 -0.017499418521893309 -0.041082272544836852 0.018289021351029944 -0.0037673271230763807
leaf_weight=61.691519469022751 21.677349224686623 16.461284801363945 56.113188698887825 113.8152681440115 19.138192921876907 124.5444188863039 18.696191653609276 181.80567079782486 26.44464898109436 65.032534658908844 80.690585359930992 37.941879913210869 24.236825793981552 258.10644191503525 55.986852169036865 36.028323203325272 40.183015510439873 74.120406165719032 119.78548911213875 22.202023103833199 25.025966256856918
leaf_count=272 88 71 227 458 79 509 76 746 108 282 332 156 100 1056 226 153 165 303 517 90 103
internal_value=0 0.00972072 -0.0182155 0.00212367 -0.025109 0.0208437 0.0120752 -0.0180091 0.0159664 0.0277741 0.022511 0.00124085 0.00655129 0.0102889 0.00903616 -0.0212503 -0.00949546 -0.00689228 -0.0382563 0.0118997 -0.0018441
internal_weight=0 935.773 543.955 558.673 403.461 377.1 169.685 264.537 150.989 207.415 145.723 140.494 102.552 330.555 314.093 217.834 228.119 187.936 138.924 78.3152 46.7033
internal_count=6117 3858 2259 2279 1686 1579 693 1090 617 886 614 573 417 1353 1282 899 926 761 596 317 191
is_linear=0
shrinkage=0.042883


Tree=18
num_leaves=17
num_cat=0
split_feature=15 5 22 5 9 7 6 22 18 7 5 28 22 22 21 15
split_gain=103.385 56.2677 44.9147 32.0501 28.1301 11.569 10.6928 4.48643 3.53607 3.52233 5.59539 3.04152 3.02425 2.12275 2.06238 0.0797003
threshold=1.4166650000000003 0.66450500000000012 46.580555000000004 0.85982000000000014 24.166665000000005 0.26845500000000005 1.0421150000000001 477.98055500000004 6.166665000000001 0.82372500000000015 1.1064750000000003 12.273265000000002 315.02500000000003 795.56111500000009 75.300000000000011 3.5166650000000002
decision_type=2 2 2 2 2 2 2 2 2 2 2 2 2 2 2 2
left_child=2 15 5 -4 9 -1 13 8 -5 11 -11 -3 -8 -6 -7 -2
right_child=1 4 3 7 6 14 12 -9 -10 10 -12 -13 -14 -15 -16 -17
leaf_value=0.037283930612285666 0.023828190631436513 0.0013412110875568059 0.040541335629091381 -0.0012560077236442003 -0.023675079446884177 0.020647398875814692 -0.0015263944451920266 -0.012723762954945466 0.0097408664265881025 -0.011809245918413872 0.0077400867722947414 -0.016828309225345894 -0.016714941108648164 -0.04100655915764579 0.0045649216291316977 0.0400867343898254
leaf_weight=115.82194720208645 24.791460111737251 184.4694519340992 38.408577129244804 215.98472218215466 255.5037829130888 128.01340579986572 61.382398918271065 48.928825438022614 69.58948215842247 157.78504079580307 29.262463420629501 18.474805071949959 50.458618447184563 23.179640978574753 25.828455850481987 27.106706112623215
leaf_count=512 105 748 160 872 1077 543 254 199 281 640 118 75 217 101 106 111
internal_value=0 -0.00962399 0.0132692 0.0034763 -0.0125453 0.0266256 -0.0207119 -0.000646823 0.00125714 -0.00424012 -0.00848977 -8.27541e-05 -0.00882044 -0.0253055 0.0182666 0.0333158
internal_weight=0 832.414 642.575 372.912 780.516 269.664 390.524 334.503 285.574 389.992 187.048 202.944 111.841 278.683 153.842 51.8982
internal_count=6119 3446 2673 1512 3230 1161 1649 1352 1153 1581 758 823 471 1178 649 216
is_linear=0
shrinkage=0.042883


Tree=19
num_leaves=20
num_cat=0
split_feature=9 5 15 15 27 26 3 22 1 27 15 8 14 12 27 28 15 11 3
split_gain=115.15 63.7461 30.9476 23.548 16.7776 12.8977 12.5156 14.4882 7.6176 6.72536 3.89617 2.68041 2.14105 1.46979 1.38384 0.497776 0.434401 0.247162 0.0450722
threshold=25.833335000000002 0.8510500000000002 3.1833350000000005 5.416665000000001 0.050000000000000003 0.27778000000000008 2.5000000000000004 3.5073350000000008 22.166665000000005 0.18333500000000005 2.2833350000000006 13.425000000000002 24.747225000000004 24.472225000000005 0.21666500000000002 4.8141650000000009 2.2166650000000003 2.4638900000000006 1.0000000180025095e-35
decision_type=2 2 2 2 2 2 2 2 2 2 2 2 2 2 2 2 2 2 2
left_child=1 10 6 4 16 9 7 -3 17 -6 -1 -7 -10 -8 15 -5 -2 -4 -12
right_child=3 2 8 14 5 11 13 -9 12 -11 18 -13 -14 -15 -16 -17 -18 -19 -20
leaf_value=0.035635445201354254 -0.019345947933635817 0.03044213609060465 0.0034208446276796831 -0.02069440751205353 -0.020381776383524924 0 0.018528863679917539 0.0029443097062112093 -0.017064918480819695 -0.0035792329365804598 0.01666066982122235 0.013172834133802346 -0.003063193807580732 0.034210312812293121 -0.019982181882093605 -0.037657095054142234 -0.031454131769950974 -0.00054793310439971892 0.028544132135560417
leaf_weight=131.67127421498299 43.465387463569641 40.190925240516663 42.25994174182415 18.831762343645096 95.01578763127327 68.519643843173981 77.358691230416298 337.44212159514427 125.45324589312077 96.721866741776466 51.047152206301689 49.969091862440109 34.603782400488853 27.242738917469978 34.280490353703499 78.915403768420219 49.217785716056824 47.338544175028801 20.986223161220551
leaf_count=582 178 174 170 81 398 278 324 1376 514 399 208 203 141 112 145 347 211 191 87
internal_value=0 0.00941056 0.00342894 -0.0155291 -0.010195 -0.0052123 0.00982037 0.00600677 -0.00872204 -0.0121646 0.0306514 0.00563098 -0.0143438 0.023106 -0.0314194 -0.0349098 -0.0263262 0.000786754 0.0208308
internal_weight=0 935.595 731.89 534.937 402.91 310.226 482.234 377.633 249.656 191.738 203.705 118.489 160.057 104.601 132.028 97.7472 92.6832 89.5985 72.0334
internal_count=6119 3879 3002 2240 1667 1278 1986 1550 1016 797 877 481 655 436 573 428 389 361 295
is_linear=0
shrinkage=0.042883


Tree=20
num_leaves=19
num_cat=0
split_feature=15 9 9 22 16 26 1 26 3 8 29 20 29 22 12 1 3 22
split_gain=99.2261 45.1027 31.7742 30.6992 12.1368 11.2864 14.1984 11.2053 8.23921 6.94099 4.37119 4.98808 3.43246 3.04437 2.87857 2.75887 2.38437 0.437886
threshold=2.3500000000000005 27.833335000000002 38.500000000000007 38.769780000000004 42.973335000000006 0.23888500000000004 24.833335000000002 0.27778000000000008 11.500000000000002 33.708335000000012 1.0274400000000001 0.083325000000000024 0.90516000000000008 10.018665000000002 15.577780000000002 27.833335000000002 7.5000000000000009 15.862835000000002
decision_type=2 2 2 2 2 2 2 2 2 2 2 2 2 2 2 2 2 2
left_child=1 3 4 13 17 6 -6 -4 12 10 14 -12 -5 -1 -3 -7 -15 -2
right_child=2 9 7 8 5 15 -8 -9 -10 -11 11 -13 -14 16 -16 -17 -18 -19
leaf_value=0.033062048281357434 0.0094591221663473408 -0.016300909258694592 -0.032350761085035866 0.011171362433785425 -2.6758388557741863e-05 0.0099077412327115214 -0.020883450455798366 -0.0035287931119254651 0.030629960387086992 0.010477248774091591 -0.029940623183985774 -0.0045965628851448604 0.0012638302201490868 0.017612639402419847 0.00028949198929048624 -0.0035639102069262175 0.034672671050566824 0.0026683209294160511
leaf_weight=134.62747906148434 46.457521662116051 24.753927245736122 144.29729489982128 114.92843833565712 94.530763208866119 46.311651945114136 190.08546920120716 34.675338119268417 27.089534550905228 31.26947395503521 38.019125878810883 31.17505270242691 175.63076977431774 100.44058476388454 62.256425008177757 64.219440817832947 28.748122110962868 76.328430861234665
leaf_count=601 191 101 635 467 385 187 797 144 115 127 155 127 711 425 254 262 127 308
internal_value=0 0.0109434 -0.0113944 0.0168649 -0.00588946 -0.00959414 -0.0141287 -0.0270422 0.00766941 -0.00716391 -0.0110096 -0.0192448 0.00535175 0.0277459 -0.00388966 0.00164768 0.0218088 0.00563728
internal_weight=0 768.939 696.906 581.465 517.933 395.147 284.616 178.973 317.649 187.474 156.205 69.1942 290.559 263.816 87.0104 110.531 129.189 122.786
internal_count=6119 3210 2909 2446 2130 1631 1182 779 1293 764 637 282 1178 1153 355 449 552 499
is_linear=0
shrinkage=0.042883


Tree=21
num_leaves=16
num_cat=0
split_feature=3 22 15 22 9 26 9 22 18 27 7 29 15 24 11
split_gain=86.8901 48.4399 47.7824 15.0415 13.624 17.3356 10.1226 8.59822 8.01695 5.74016 4.55165 4.42587 3.06789 1.47324 0.730271
threshold=2.5000000000000004 309.68889000000007 1.7833350000000003 61.408335000000008 21.166665000000005 0.21666500000000002 14.500000000000002 28.076555000000003 1.5000000000000002 0.38333500000000004 1.2816250000000002 0.58101500000000017 5.1833350000000005 179.46944500000004 7.6638900000000012
decision_type=2 2 2 2 2 2 2 2 2 2 2 2 2 2 2
left_child=1 2 3 7 9 -6 -3 -1 14 -4 -5 -10 -8 -13 -2
right_child=8 6 4 10 5 -7 12 -9 11 -11 -12 13 -14 -15 -16
leaf_value=0.024597875224218177 0.031551317460426699 0.004686816372138641 -0.004557857875495252 -0.00015669947476867874 -0.026212452209843373 -0.00075611009811139135 -0.019028963435370493 0.0056161532806517723 0.030307743487470201 0.015874303047977534 0.020547000195686262 0.011976466272969423 -0.031176850038492739 0 0.021319175002394542
leaf_weight=146.76681989431381 106.0209431797266 24.009999290108681 241.21956826746464 174.45602302253246 138.10784722864628 82.61022512614727 180.43371768295765 73.247889935970306 21.018302589654922 27.453427642583847 21.314086332917213 47.333361998200417 75.933138489723206 38.528009012341499 62.580407947301865
leaf_count=643 462 97 979 705 589 337 757 304 90 111 86 197 340 160 262
internal_value=0 -0.0047261 4.56227e-05 0.0107863 -0.00898122 -0.0169087 -0.0202978 0.018504 0.0220028 -0.00228459 0.00186059 0.011983 -0.0228272 0.00690219 0.0280562
internal_weight=0 1185.55 905.176 415.785 489.391 220.718 280.377 220.015 275.481 268.673 195.77 106.88 256.367 85.8614 168.601
internal_count=6119 4948 3754 1738 2016 926 1194 947 1171 1090 791 447 1097 357 724
is_linear=0
shrinkage=0.042883


Tree=22
num_leaves=16
num_cat=0
split_feature=22 15 15 5 7 20 5 29 9 8 6 8 5 23 7
split_gain=88.8042 31.1402 30.4676 20.3211 17.243 12.3247 26.3767 10.5556 4.88782 3.49209 2.48732 2.30754 1.10734 1.0716 0.389646
threshold=99.383330000000015 4.1500000000000012 1.7833350000000003 0.76670000000000005 0.083110000000000003 6.4141250000000012 0.90386000000000011 1.1243000000000001 53.833335000000012 0.50278000000000012 1.0146350000000004 3.6194450000000002 0.77085000000000015 201.83333500000003 1.2207900000000003
decision_type=2 2 2 2 2 2 2 2 2 2 2 2 2 2 2
left_child=2 5 4 -4 -1 6 -2 -8 13 14 12 -11 -6 -3 -5
right_child=1 8 3 9 10 -7 7 -9 -10 11 -12 -13 -14 -15 -16
leaf_value=0.032348174471622214 0.02504888572456174 -0.015312423763034886 0.025594693449581037 -0.0094572654456152143 0.018236046064431372 0.02042275053371399 -0.0035724647821511277 -0.018584045603133145 -0.032929713923566445 -0.0038010355192553522 0.019082971938233412 0.0097168825524032477 0.0071186061556074674 -0.025384847417107559 -0.0016718856892463366
leaf_weight=129.82788009941578 47.015725865960121 176.07552380859852 50.745192527770996 121.63046792149544 28.018371731042862 37.188730269670486 270.68566542863846 134.40785518288612 59.863208875060081 45.214886173605919 89.384697690606117 42.34930232167244 147.35853163897991 45.838864013552666 30.971254050731659
leaf_count=586 193 745 213 493 127 152 1109 551 273 183 377 171 617 204 125
internal_value=0 -0.00967457 0.0115357 0.000831083 0.0193027 -0.0030175 -0.00505697 -0.00867621 -0.0210572 -0.00420918 0.0127126 0.00218906 0.00918047 -0.0176222 -0.00819617
internal_weight=0 771.076 685.501 290.911 394.589 489.298 452.109 405.094 281.778 240.166 264.762 87.5642 175.377 221.914 152.602
internal_count=6119 3227 2892 1185 1707 2005 1853 1660 1222 972 1121 354 744 949 618
is_linear=0
shrinkage=0.042883


Tree=23
num_leaves=13
num_cat=0
split_feature=5 15 22 27 10 9 16 23 22 25 30 22
split_gain=94.0956 56.8765 28.163 23.0185 16.8357 13.6598 7.43086 7.28758 3.8102 1.59057 0.259059 0.197279
threshold=0.79057000000000011 3.1166650000000007 4.9388850000000009 0.31666500000000003 73.166665000000009 32.500000000000007 227.06500000000003 116.83333500000002 123.48611500000003 2.4332550000000004 7.5972850000000003 243.33889000000002
decision_type=2 2 2 2 2 2 2 2 2 2 2 2
left_child=10 2 -2 5 6 -4 8 -5 -3 -6 -1 -8
right_child=1 4 3 7 9 -7 11 -9 -10 -11 -12 -13
leaf_value=0.025382494264512504 0.029743955994955315 -0.00021773159986482386 0.00012376438021504993 0.022426246947331641 -0.030265889712994334 -0.016527866790049417 -0.011806423887418916 0.0046897607565387269 -0.011736261337461909 -0.016336379254234711 0.03427672626626372 -0.020009240066818791
leaf_weight=93.536097124218941 69.766455724835396 150.87817683815956 376.4423515945673 94.514717102050781 109.78087413311005 116.92299103736877 46.574569895863533 92.879630923271179 89.376987874507904 38.968696683645248 81.094490051269531 91.487579107284546
leaf_count=414 312 610 1546 390 484 484 196 377 373 171 360 402
internal_value=0 -0.00374047 0.00379083 0.00105573 -0.0145551 -0.00372728 -0.00954507 0.0139011 -0.00470728 -0.0269561 0.0298082 -0.0176035
internal_weight=0 1277.59 750.526 680.76 527.067 493.365 378.317 187.394 240.255 148.75 174.631 138.062
internal_count=6119 5345 3109 2797 2236 2030 1581 767 983 655 774 598
is_linear=0
shrinkage=0.042883


Tree=24
num_leaves=13
num_cat=0
split_feature=5 15 22 27 1 1 24 1 19 7 28 7
split_gain=81.0899 47.6088 23.0935 19.1645 16.1449 11.0795 8.17981 5.50568 2.00338 1.84427 0.617402 0.495777
threshold=0.70710500000000009 4.1500000000000012 558.29600000000016 0.35000000000000003 29.166665000000005 27.500000000000004 133.00833500000002 27.833335000000002 -0.00022499999999999997 0.5379250000000001 8.7111200000000029 0.85463500000000014
decision_type=2 2 2 2 2 2 2 2 2 2 2 2
left_child=9 2 3 5 6 -2 11 -5 -6 -1 -8 -3
right_child=1 4 -4 7 8 -7 10 -9 -10 -11 -12 -13
leaf_value=0.035365890692403826 0.0063469788231368847 0.001946023017829051 -0.020384543629366866 0.026491865955423823 -0.010049603525978884 -0.0045919533541371764 -0.010399238586650063 0.0098969549986084801 -0.026844421564274891 0.015581892879427716 -0.022531644338978168 -0.0032550433464928678
leaf_weight=107.91976317763329 342.93297545611858 70.0022933781147 75.780683517456055 70.659090682864189 25.065917462110519 335.10246239602566 34.204669460654259 107.61205530166626 160.79138711094856 20.034615948796272 45.152395248413086 61.026064962148666
leaf_count=491 1444 285 318 298 111 1376 143 439 710 89 199 249
internal_value=0 -0.00306845 0.0021797 0.00423536 -0.015533 0.000869496 -0.00706693 0.0167577 -0.0248466 0.0326616 -0.0179322 -0.000108268
internal_weight=0 1328.33 932.087 856.307 396.243 678.035 210.385 178.271 185.857 127.954 79.3571 131.028
internal_count=6152 5572 3875 3557 1697 2820 876 737 821 580 342 534
is_linear=0
shrinkage=0.042883


Tree=25
num_leaves=14
num_cat=0
split_feature=3 9 27 5 22 22 12 5 24 26 1 27 16
split_gain=51.8216 54.2029 21.1323 40.0571 19.2554 12.1875 9.6274 4.24705 4.00289 2.68516 2.31739 1.78972 1.22926
threshold=15.500000000000002 36.166665000000002 0.23888500000000004 0.87868000000000013 7.7526700000000011 10.018665000000002 45.377775000000007 0.83104500000000014 697.4444450000002 0.17222500000000004 7.8333350000000008 1.0000000180025095e-35 27.213335000000004
decision_type=2 2 2 2 2 2 2 2 2 2 2 2 2
left_child=1 2 3 7 -5 -4 11 -1 10 -10 -8 -3 -7
right_child=-2 6 5 4 -6 12 8 -9 9 -11 -12 -13 -14
leaf_value=0.02236456258359476 0.034896752243260568 -0.033429268698503461 0.033499033776409622 0.017887670945388477 -0.0086134285000584628 -0.00043697979370958703 0.0079417502039897999 0.0026375859350525159 -0.030905721256954032 -0.0091786272641717678 -0.0081056163754569064 -0.020062125273373147 0.009120480807151712
leaf_weight=118.50230692327023 74.420874536037445 62.878963261842728 43.022638380527496 54.348138317465782 552.501604616642 16.810668364167213 17.112307980656624 31.15422423183918 26.708695843815804 31.711318746209145 93.17361606657505 70.22685980796814 259.66452251374722
leaf_count=524 338 280 190 241 2284 70 72 129 121 135 399 303 1066
internal_value=0 -0.00181492 0.00265101 -0.00119685 -0.0061576 0.0119106 -0.0178921 0.0185858 -0.0105949 -0.019977 -0.00517224 -0.0267618 0.00836456
internal_weight=0 1377.82 1076 756.506 606.85 319.498 301.812 149.657 168.706 58.42 110.286 133.106 276.475
internal_count=6152 5814 4504 3178 2525 1326 1310 653 727 256 471 583 1136
is_linear=0
shrinkage=0.042883


Tree=26
num_leaves=15
num_cat=0
split_feature=3 27 5 9 16 20 1 15 10 30 15 12 1 22
split_gain=67.9665 34.3931 49.4026 21.1587 16.3111 15.8603 12.6495 7.73394 5.31021 3.07326 1.66541 1.48475 0.616804 0.14906
threshold=3.5000000000000004 0.28333500000000006 0.86707000000000012 45.500000000000007 1.6333350000000002 1.6490500000000001 27.166665000000005 4.9500000000000002 62.166665000000002 10.877550000000001 0.71666500000000011 78.691665000000015 15.166665000000002 293.00975000000005
decision_type=2 2 2 2 2 2 2 2 2 2 2 2 2 2
left_child=1 2 12 4 -4 7 -2 8 -3 -9 -8 -7 -1 -5
right_child=6 5 3 13 -6 11 10 9 -10 -11 -12 -13 -14 -15
leaf_value=0.02099154618984125 0.028003738114229001 0.013216745669633918 0.026285864819911291 -0.020690392756794893 -0.010013200798001488 0.018227105411181832 0.013200768143071155 0 -0.0025347917302408116 -0.023683972414928093 0 0.037638995138891219 0.011729369091340661 -0.031048478670585761
leaf_weight=63.056493163108826 160.31504695117474 112.9003773778677 22.777791976928711 42.425747588276863 666.97555565834045 28.542808845639229 32.735292181372643 18.329457148909569 53.282612442970276 21.740256503224373 43.733065024018288 30.745554521679878 65.317400962114334 85.389486387372017
leaf_count=285 717 471 101 186 2781 118 134 75 218 93 182 127 275 389
internal_value=0 -0.00404091 -0.00789704 -0.0118152 -0.00874046 0.00951141 0.0210738 0.00361719 0.00787721 -0.0128206 0.00589456 0.0291581 0.0166691 -0.0280088
internal_weight=0 1211.48 945.942 817.569 689.753 265.541 236.783 206.253 166.183 40.0697 76.4684 59.2884 128.374 127.815
internal_count=6152 5119 4017 3457 2882 1102 1033 857 689 168 316 245 560 575
is_linear=0
shrinkage=0.042883


Tree=27
num_leaves=18
num_cat=0
split_feature=9 3 22 22 27 27 29 15 27 10 7 20 22 8 8 10 1
split_gain=62.0534 37.4213 14.5736 16.0702 9.1974 6.18094 6.91985 5.66542 3.57829 3.03155 2.76301 2.65234 1.99963 1.87758 1.08676 0.622055 0.529413
threshold=30.500000000000004 6.5000000000000009 40.391220000000004 7.1972200000000006 0.41111000000000003 0.38333500000000004 1.0715150000000004 2.3833350000000002 0.18333500000000005 95.166665000000009 0.46020000000000005 -0.74077499999999985 491.73222000000004 2.8194450000000004 17.677775000000004 45.833335000000012 4.8333350000000008
decision_type=2 2 2 2 2 2 2 2 2 2 2 2 2 2 2 2 2
left_child=1 2 3 16 7 6 -4 12 -5 -6 15 -7 14 -9 -2 -3 -1
right_child=4 10 5 8 9 11 -8 13 -10 -11 -12 -13 -14 -15 -16 -17 -18
leaf_value=0.030919514638498465 -0.0078983537416699029 0.036680324472269848 0.00042054014009579706 -0.0025797840579014257 0.0084921692111251754 -0.00035946090078412023 -0.0097402583674012447 -0.026070057152372161 0.0088145581638166635 -0.011727986783702654 0.017687427900246043 0.015411607601146909 -0.019014948245878818 -0.015954389660522362 0.0012897391251800719 0.020233907223952664 0.019128923065430403
leaf_weight=35.892905846238136 80.009305134415627 54.970387548208237 330.39120872318745 103.7643883228302 39.180045649409294 22.361924037337303 188.89693480730057 106.62486712634563 91.653624534606934 20.107622474431992 63.076380029320717 51.442459985613823 32.596311673521996 109.66570962965488 21.781690910458565 22.750133782625198 69.316264316439629
leaf_count=167 329 263 1360 440 161 91 776 481 386 83 270 209 138 495 89 102 312
internal_value=0 0.00566417 0.00236602 0.0100766 -0.0140475 -0.00146191 -0.00318372 -0.016697 0.0025189 0.000811356 0.0262383 0.00998533 -0.00911881 -0.0211751 -0.00545837 0.0325224 0.0236382
internal_weight=0 1034.52 893.72 300.627 409.966 593.093 519.288 350.678 195.418 59.2877 140.797 73.8044 134.387 216.291 101.791 77.7205 105.209
internal_count=6152 4376 3741 1305 1776 2436 2136 1532 826 244 635 300 556 976 418 365 479
is_linear=0
shrinkage=0.042883


Tree=28
num_leaves=14
num_cat=0
split_feature=15 22 3 7 5 19 20 10 17 23 21 29 29
split_gain=48.8141 32.1889 20.95 22.7947 18.1191 13.6255 7.70562 8.15431 3.81278 3.55451 3.29211 1.26898 0.100193
threshold=5.2166650000000008 215.98277500000003 16.500000000000004 0.60825000000000007 0.81165500000000013 0.00045000000000000004 4.2472250000000011 35.833335000000012 2.7619500000000006 44.166665000000002 14.350000000000001 0.71095000000000008 1.0979700000000003
decision_type=2 2 2 2 2 2 2 2 2 2 2 2 2
left_child=1 2 3 10 -2 -5 7 11 -9 -6 -1 -3 -8
right_child=4 6 -4 5 9 -7 12 8 -10 -11 -12 -13 -14
leaf_value=0.023982231485979735 0.01972484631245117 0.011755028785724925 0.033622722604588769 -0.0018068923149615638 -0.0090457179116211379 0.025023042578285182 0.01461469488258036 -0.016409961144318041 0 -0.022920962273558783 0.012461380599704865 -0.00081975410858973747 0.0039925602131403093
leaf_weight=74.24705807864666 21.950297743082047 17.454688742756844 57.108187153935432 425.06327058374882 57.474951893091202 37.750631302595139 17.413540914654732 185.52653607726097 30.056008026003838 188.36749446392059 242.43544910848141 64.047060400247574 21.758985623717308
leaf_count=353 92 72 272 1760 233 156 73 792 127 847 1021 263 91
internal_value=0 0.0038417 0.00837233 0.00645597 -0.0164457 0.000282434 -0.00728577 -0.00972697 -0.0141158 -0.0198791 0.0153224 0.00129275 0.00997287
internal_weight=0 1172.86 836.605 779.496 267.793 462.814 336.257 297.084 215.583 245.842 316.683 81.5017 39.1725
internal_count=6152 4980 3562 3290 1172 1916 1418 1254 919 1080 1374 335 164
is_linear=0
shrinkage=0.042883


Tree=29
num_leaves=17
num_cat=0
split_feature=3 15 9 12 9 30 3 24 24 7 28 24 29 10 13 10
split_gain=56.9275 35.0158 24.0803 15.4406 12.967 10.8421 8.28898 8.00388 7.47026 7.46272 5.17471 5.35379 3.88949 2.54625 2.43584 0.141591
threshold=3.5000000000000004 5.2500000000000009 17.833335000000002 65.069445000000016 30.833335000000002 11.074515000000002 16.500000000000004 782.54166500000008 89.327780000000018 0.067015000000000005 8.3234000000000012 85.54444500000001 1.2003600000000001 14.166665000000002 9.2833350000000028 64.833335000000019
decision_type=2 2 2 2 2 2 2 2 2 2 2 2 2 2 2 2
left_child=1 2 5 4 -4 9 10 -5 13 -1 15 -12 -7 -3 -10 -2
right_child=6 8 3 7 -6 12 -8 -9 14 -11 11 -13 -14 -15 -16 -17
leaf_value=0.014362233675560507 0.017512721371368604 0.0044264272524465352 -0.0043316428678262563 0.010661290171867789 -0.021479753403287928 0.02575014424481005 0.032975801864263674 -0.010937988045038876 -0.027241637967259754 0 0.017619888940058753 -0.0050388641218568142 0.0010876671380625443 -0.01155737205377139 -0.01066396053327243 0.029270322497703265
leaf_weight=91.912127479910851 72.937204152345657 18.857595264911652 212.28971940279007 115.69273632764816 141.15666553378105 68.904671207070351 65.357409298419952 41.403614163398743 120.17855055630207 264.81110732257366 33.090235978364944 40.531230926513672 19.248048320412636 77.90778449177742 31.389536932110786 21.223502337932587
leaf_count=408 320 77 873 480 608 295 310 176 543 1104 145 170 81 330 144 88
internal_value=0 -0.00368512 0 -0.00630998 -0.0113214 0.00733643 0.0194612 0.00465744 -0.0180274 0.00383859 0.0138909 0.00450045 0.020921 -0.00794178 -0.0241373 0.0207064
internal_weight=0 1203.75 955.419 510.543 353.446 444.876 233.14 157.096 248.333 356.723 167.782 73.6215 88.1527 96.7654 151.568 94.1607
internal_count=6152 5119 4025 2137 1481 1888 1033 656 1094 1512 723 315 376 407 687 408
is_linear=0
shrinkage=0.042883


Tree=30
num_leaves=15
num_cat=0
split_feature=9 3 27 9 9 24 13 24 3 6 1 7 1 22
split_gain=51.8412 48.2103 33.6296 19.8936 9.33475 7.15425 5.96891 5.48212 3.62469 3.53277 2.03107 1.49169 1.10277 0.471717
threshold=5.8333350000000008 3.5000000000000004 0.28333500000000006 27.833335000000002 16.833335000000002 568.60278000000005 13.777780000000002 251.29722500000003 16.500000000000004 0.99560000000000015 22.833335000000002 0.7777400000000001 15.166665000000002 203.77178000000004
decision_type=2 2 2 2 2 2 2 2 2 2 2 2 2 2
left_child=12 2 3 4 -2 10 -5 8 11 -7 -4 -3 -1 -9
right_child=1 7 5 6 -6 9 -8 13 -10 -11 -12 -13 -14 -15
leaf_value=0.033605544072769465 -0.00017817214234375504 0.020635878922769857 0.018212636135201288 -0.021965435202554083 -0.011591970141297701 -0.022199162893199727 -0.0057887229709022384 0.007901619511901296 0.031856037298495066 0.0013635993413790223 0.0076224663049680955 0.0083422692406807993 0.017919222263371754 0
leaf_weight=71.148439630866051 319.94735687971115 61.641195476055145 57.632755950093269 245.08774609863758 235.00625756382942 18.798810064792633 61.199366882443428 17.938072308897972 45.246140211820602 21.832371562719345 160.81136025488377 51.412205725908279 28.05832414329052 28.006399676203728
leaf_count=342 1332 269 244 1097 976 79 270 75 217 91 665 216 123 118
internal_value=0 -0.00243953 -0.00596483 -0.0100636 -0.00510002 0.00747261 -0.0188942 0.0166537 0.0204888 -0.00838113 0.0106454 0.0154859 0.0296803 0.00237273
internal_weight=0 1324.56 1120.32 861.241 554.954 259.075 306.287 204.244 158.3 40.6312 218.444 113.053 99.2068 45.9445
internal_count=6114 5649 4754 3675 2308 1079 1367 895 702 170 909 485 465 193
is_linear=0
shrinkage=0.042883


Tree=31
num_leaves=17
num_cat=0
split_feature=5 15 22 30 9 20 30 26 7 15 2 7 6 29 24 23
split_gain=59.0471 34.9822 15.9255 11.5869 9.2494 7.60337 7.44139 6.18859 5.44368 4.66173 3.50286 2.75696 2.38972 2.14071 1.99674 1.16906
threshold=0.69821500000000014 3.5166650000000002 127.62222000000001 6.7598200000000004 48.166665000000002 0.19810000000000003 4.8722150000000006 0.23888500000000004 0.65750500000000012 1.2500000000000002 4.1534350000000009 0.61277500000000007 1.1259950000000003 1.0979700000000003 360.28889000000004 146.50000000000003
decision_type=2 2 2 2 2 2 2 2 2 2 2 2 2 2 2 2
left_child=13 2 6 5 8 11 10 15 -4 -8 -2 -3 -9 -1 -6 -5
right_child=1 3 4 7 14 -7 9 12 -10 -11 -12 -13 -14 -15 -16 -17
leaf_value=0.033643494944369426 -0.010974515266409239 0.00074178632472296155 0.0082133117684493346 -0.01612341431386392 -0.0067563819790438075 0.017710769767855999 0.014330075568944686 -0.010025870911941801 -0.0046303718824095615 0.0026643330267264601 0.0041141282973459013 -0.011144462066973343 0.0062870008797153232 0.016291822211534749 -0.025028338826889065 -0.024618670427163397
leaf_weight=83.116680890321732 43.575199633836746 47.567348837852478 85.941241845488548 118.0134397149086 27.204232260584831 27.594015181064606 243.81848782300949 73.28767566382885 201.1288847476244 99.873233184218407 76.32104580104351 90.330018237233162 17.381746530532837 31.176052585244179 40.528931930661201 112.81321458518505
leaf_count=401 187 195 352 514 114 115 1058 309 826 410 325 375 73 146 173 541
internal_value=0 -0.00277448 0.0025924 -0.0118915 -0.00415604 -0.00232592 0.00786133 -0.0166626 -0.000615267 0.0110827 -0.000971668 -0.00669654 -0.00636212 0.029353 -0.018425 -0.0204944
internal_weight=0 1305.38 818.391 486.987 354.803 165.491 463.588 321.496 287.07 343.692 119.896 137.897 90.6694 114.293 67.7332 230.827
internal_count=6114 5567 3445 2122 1465 685 1980 1437 1178 1468 512 570 382 547 287 1055
is_linear=0
shrinkage=0.042883


Tree=32
num_leaves=16
num_cat=0
split_feature=5 1 15 15 16 30 2 13 26 26 27 21 12 12 30
split_gain=56.7851 25.8651 19.9591 18.1769 7.5584 6.43991 9.26054 7.16028 4.40211 5.4495 2.18713 1.60242 0.494932 0.232265 0.148143
threshold=0.77085000000000015 29.500000000000004 1.7500000000000002 4.1166650000000002 7.7116650000000009 10.759000000000002 11.759565 0.43055500000000008 1.0000000180025095e-35 0.14444500000000002 0.45000000000000001 221.99166500000004 30.597220000000004 41.283335000000008 14.455100000000002
decision_type=2 2 2 2 2 2 2 2 2 2 2 2 2 2 2
left_child=13 2 4 8 -2 6 -4 -7 11 -10 12 -3 -5 -1 -6
right_child=1 3 5 10 14 7 -8 -9 9 -11 -12 -13 -14 -15 -16
leaf_value=0.023000062743077657 0.028065014682320498 -0.0021895467151244854 -0.0045760019554053908 -0.026760415314775781 0.0062539382544731601 -0.028657001779053226 0.016266209732439849 -0.0044404933839020206 -0.010422262002205 0.0019782963554406648 -0.0037086991205643655 -0.0178754118455276 -0.017688315313071176 0.037051902472301369 0.010965314901765838
leaf_weight=132.24579347670078 38.527206525206566 25.03512504696846 225.26524269580841 91.696097299456596 248.63966564834118 37.827745050191879 47.063227951526642 70.305838331580162 95.060053691267967 194.44071881473064 17.80903285741806 55.068266957998276 67.333536371588707 16.31236369907856 52.961692303419113
leaf_count=632 186 104 926 420 1050 162 196 308 401 801 76 236 318 74 224
internal_value=0 -0.0031184 0.00216189 -0.010169 0.00975382 -0.00449897 -0.000791554 -0.013379 -0.00458927 -0.00192892 -0.0215478 -0.0135855 -0.0232378 0.0248942 0.00724519
internal_weight=0 1267.03 720.591 546.443 340.129 380.462 272.328 108.134 369.604 289.501 176.839 80.1034 159.03 148.558 301.601
internal_count=6114 5408 3052 2356 1460 1592 1122 470 1542 1202 814 340 738 706 1274
is_linear=0
shrinkage=0.042883


Tree=33
num_leaves=21
num_cat=0
split_feature=9 15 30 15 1 1 26 7 26 1 1 23 27 6 5 27 6 1 8 27
split_gain=42.2793 39.4957 15.2969 12.8271 9.20058 8.85754 7.87763 6.19428 5.41567 5.16899 4.78894 3.91486 3.13459 2.68907 4.69388 1.80471 1.35027 0.841659 0.718745 0.338994
threshold=28.166665000000005 2.3166650000000004 3.8934150000000005 5.8166650000000013 20.166665000000005 25.833335000000002 0.27778000000000008 0.74156500000000014 0.45000000000000001 17.166665000000005 18.166665000000005 244.50000000000003 0.23888500000000004 1.0253650000000001 0.60405500000000012 0.28333500000000006 1.0330250000000001 19.166665000000005 16.180555000000002 0.075000000000000011
decision_type=2 2 2 2 2 2 2 2 2 2 2 2 2 2 2 2 2 2 2 2
left_child=1 2 10 7 13 16 -7 11 9 -9 -1 18 17 14 -3 -14 -6 -4 -2 -15
right_child=3 4 12 -5 5 6 -8 8 -10 -11 -12 -13 15 19 -16 -17 -18 -19 -20 -21
leaf_value=0.0057183981602813337 0.0022989984626918571 0.018791188008895399 0.015586571776068288 -0.026551193191957308 -0.00013662663460411249 -0.018888055500780199 0.0019697710318102137 0.00076693688575953621 0.0028229002082675852 -0.017070727036785246 -0.015985600421569931 -0.010731831208101719 0.0098430114984496084 0.0052062328726738862 -0.0051038345194366567 0.02307031881532693 0.012221418141313143 0.0095800777998920044 0.013555259351109895 0.018184494909149484
leaf_weight=31.098286703228951 76.104859694838524 18.515108212828636 128.2018971145153 81.316258519887924 44.877453297376633 157.55659013986588 37.040410459041595 29.8576819896698 35.629146456718445 174.80721753835678 39.499894961714745 43.062206715345383 39.41658128798008 22.598819777369499 78.8175258487463 130.81718157231808 20.486994504928589 185.25063678622246 17.013913705945015 19.745223477482796
leaf_count=145 324 83 609 390 183 668 151 129 145 771 162 188 172 93 323 570 83 773 71 81
internal_value=0 0.00496778 0.012402 -0.0108829 -0.0052228 -0.0100392 -0.0146706 -0.00736352 -0.011503 -0.0142333 -0.00574698 0 0.0151516 0.00339618 -4.62741e-05 0.0202997 0.00301189 0.0121955 0.00488774 0.0124282
internal_weight=0 953.923 554.284 457.791 399.638 259.961 194.597 376.475 240.294 204.665 70.5982 136.181 483.686 139.677 97.3326 170.234 65.3644 313.453 93.1188 42.344
internal_count=6114 4096 2431 2018 1665 1085 819 1628 1045 900 307 583 2124 580 406 742 266 1382 395 174
is_linear=0
shrinkage=0.042883


Tree=34
num_leaves=16
num_cat=0
split_feature=9 5 15 11 22 15 6 29 13 13 13 17 1 26 26
split_gain=43.4029 35.6133 26.084 10.8561 10.545 5.74104 5.4796 5.30717 4.70436 4.09982 4.82597 2.95729 1.3403 1.23629 0.0960784
threshold=31.833335000000002 0.86707000000000012 1.8166650000000002 31.994445000000002 36.677555000000005 6.916665000000001 1.23709 0.82356000000000018 2.308335 71.072225000000017 21.450000000000003 3.5776000000000008 6.5000000000000009 0.14444500000000002 0.48333500000000001
decision_type=2 2 2 2 2 2 2 2 2 2 2 2 2 2 2
left_child=1 8 4 7 12 6 9 -4 -1 10 -2 -6 -3 -8 -5
right_child=5 2 3 14 11 -7 13 -9 -10 -11 -12 -13 -14 -15 -16
leaf_value=0.017062882546602466 -0.016405366932338603 0.026585656934580718 -0.0013126014443214677 0.0056001826112334063 0.00073105356783743339 -0.038057988189547337 -0.0017671056085177426 -0.014688218986503675 0.036765860650434405 0.0039461118714875145 0 0.013822659556629011 0.014020100768718144 0.012786841928526482 0
leaf_weight=171.12398357689381 264.16825917363167 34.351349830627441 82.769311770796776 79.212904497981071 234.20412917435169 17.011155664920807 16.886231660842896 226.36068879067898 32.610261619091034 20.252766877412796 43.838005945086479 38.635144159197807 111.37644018232822 17.036979094147682 17.783946216106415
leaf_count=804 1183 165 344 332 955 83 77 946 150 86 190 158 497 72 72
internal_value=0 0.00441654 0.000389447 -0.00729009 0.00795621 -0.0125535 -0.0112111 -0.011265 0.0204717 -0.0129455 -0.0142141 0.0027668 0.0173312 0.00413858 0.00487841
internal_weight=0 1028.43 824.694 406.127 418.567 379.193 362.182 309.13 203.734 328.259 308.006 272.839 145.728 33.9232 96.9969
internal_count=6114 4423 3469 1694 1775 1691 1608 1290 954 1459 1373 1113 662 149 404
is_linear=0
shrinkage=0.042883


Tree=35
num_leaves=20
num_cat=0
split_feature=1 15 15 17 26 3 5 22 15 7 27 8 2 10 29 2 23 22 29
split_gain=36.5678 22.1394 13.917 9.4118 20.4674 9.34313 7.68005 9.02395 3.56501 3.32746 4.70729 2.83483 2.44631 1.86439 2.42853 1.65781 1.43002 0.808407 0.369353
threshold=29.833335000000002 1.5833350000000002 5.9500000000000002 3.1842500000000005 0.27778000000000008 4.5000000000000009 0.9672050000000002 28.076555000000003 1.7166650000000001 0.55266000000000004 0.38333500000000004 1.0972200000000003 9.7109800000000011 24.500000000000004 1.2356800000000001 17.460885000000001 304.00000000000006 55.085335000000008 1.2964700000000002
decision_type=2 2 2 2 2 2 2 2 2 2 2 2 2 2 2 2 2 2 2
left_child=1 6 3 4 8 9 13 -8 -2 11 -11 -3 -7 14 -1 -15 -5 -6 -9
right_child=2 5 -4 16 17 12 7 18 -10 10 -12 -13 -14 15 -16 -17 -18 -19 -20
leaf_value=0.027513524061222878 -0.0092558379456955907 -0.0018857709808700431 -0.031849591706878892 0.013226319154623564 0.013903342792344947 0.025894633280214109 0.01812630914521788 -0.00076533342247790063 -0.02023100007790531 -0.0083933774947145042 0.0080280493757583487 0.011395964727599817 0.0051303637279391454 0.0092932099037762068 0.0071284780680288548 0.023542937338950517 0 0.0034085220547526557 0.0046230400668428985
leaf_weight=70.4687869399786 116.59121571481228 102.48156003654003 48.290808171033859 39.771974593400955 25.475171610713005 23.975717306137085 77.484774455428123 127.17507489025593 158.48232036828995 253.86788146197796 33.689457073807716 39.637069806456566 31.8741475045681 85.833754658699036 21.021282985806465 28.243059039115906 16.06022909283638 75.022536277770996 28.183560490608215
leaf_count=344 485 430 236 169 107 106 363 523 717 1080 138 168 136 388 101 128 70 309 116
internal_value=0 0.0048433 -0.00974742 -0.00715389 -0.00965838 -0.00137574 0.0118396 0.00618092 -0.0157603 -0.0036124 -0.00629908 0.00148435 0.0149413 0.0180074 0.0233717 0.0132636 0.00881493 0.00656164 0
internal_weight=0 923.936 479.694 431.403 375.571 485.526 438.41 232.843 275.074 429.676 287.557 142.119 55.8499 205.567 91.4901 114.077 55.8322 100.498 155.359
internal_count=6114 4021 2093 1857 1618 2058 1963 1002 1202 1816 1218 598 242 961 445 516 239 416 639
is_linear=0
shrinkage=0.042883


Tree=36
num_leaves=16
num_cat=0
split_feature=5 15 20 22 21 15 30 29 30 10 12 2 13 29 2
split_gain=39.1877 24.0426 14.6531 13.8792 8.47651 6.48687 6.86897 6.24377 5.72897 2.65923 2.33426 1.57534 1.03317 0.917816 0.0814523
threshold=0.90386000000000011 5.416665000000001 1.7310000000000001 715.96077500000013 15.208335000000002 1.9833350000000001 5.9370350000000007 1.3210850000000003 14.458965000000001 28.833335000000002 40.469445000000007 25.838435 1.1527800000000001 0.71549000000000007 5.0489850000000009
decision_type=2 2 2 2 2 2 2 2 2 2 2 2 2 2 2
left_child=5 2 3 4 -2 6 -1 -7 10 -3 -4 -10 -5 -8 -11
right_child=1 9 8 12 -6 7 13 -9 11 14 -12 -13 -14 -15 -16
leaf_value=0.0077204330859119291 0.013505196460051458 -0.0067391924538177722 0.010285386120176043 -0.013966047119474434 -0.0031134227971013786 0.011926571414457623 0.037313186789928871 -0.011670782593525461 -0.0061843650654684664 -0.028745073686955211 0.02487629689158917 0.0088474252368321311 -0.033693364286778986 0.022732258896350596 -0.018403471743362813
leaf_weight=55.754525035619736 60.910751640796661 45.712268754839897 77.876599118113518 20.36976258456707 660.04467640817165 95.241520330309868 31.606947213411331 24.29035609960556 35.810310199856758 24.33134837448597 42.090208694338799 19.35163776576519 25.614101216197014 62.356912598013878 117.47480171918869
leaf_count=270 282 195 331 89 2773 406 159 103 152 113 176 82 115 305 555
internal_value=0 -0.00341156 -0.000566443 -0.00317098 -0.0016405 0.01479 0.0209 0.00672086 0.0105585 -0.0174387 0.0158251 -2.90104e-05 -0.0260572 0.0281883 -0.0205392
internal_weight=0 1129.59 942.068 766.939 720.955 269.25 149.718 119.532 175.129 187.518 119.967 55.1619 45.9839 93.9639 141.806
internal_count=6106 4863 4000 3259 3055 1243 734 509 741 863 507 234 204 464 668
is_linear=0
shrinkage=0.042883


Tree=37
num_leaves=10
num_cat=0
split_feature=3 16 9 7 5 10 29 28 1
split_gain=28.5856 20.1092 20.8929 14.2714 10.8417 5.1916 3.08888 1.84133 0.900393
threshold=12.500000000000002 5.5750000000000011 50.833335000000012 0.5314350000000001 0.59182500000000016 95.833335000000019 0.88239000000000012 9.432870000000003 4.8333350000000008
decision_type=2 2 2 2 2 2 2 2 2
left_child=1 8 3 4 -3 -5 -4 -8 -1
right_child=-2 2 6 5 -6 -7 7 -9 -10
leaf_value=0.027363086698637254 0.023814537153264551 0.029723813187055945 -0.0079367701128049591 -0.0026633233101608263 0.0038132176684561024 -0.013975798056337942 -0.007107178584798291 -0.027072464715399695 0.013344389042711418
leaf_weight=31.937788084149361 87.413062945008278 34.277412578463554 45.640815168619156 693.17792238295078 283.56347987055779 87.284749537706375 17.755990386009216 72.061024412512779 42.69671393930912
leaf_count=157 431 163 211 2932 1214 378 81 341 198
internal_value=0 -0.00149777 -0.00284037 -0.000833655 0.0067688 -0.0039922 -0.0187406 -0.0236766 0.0200213
internal_weight=0 1308.4 1233.76 1098.3 317.841 780.463 135.458 89.817 74.6345
internal_count=6106 5675 5320 4687 1377 3310 633 422 355
is_linear=0
shrinkage=0.042883


Tree=38
num_leaves=12
num_cat=0
split_feature=5 9 6 29 26 30 6 21 29 1 30
split_gain=44.0707 21.2525 9.59912 14.7862 17.2089 6.65875 5.70846 4.43829 2.64076 1.62793 1.54942
threshold=0.81980500000000012 14.833335000000002 1.4612250000000002 0.88109500000000007 0.14444500000000002 4.3386650000000015 0.99521500000000007 571.88055500000007 0.86410500000000012 13.833335000000002 8.572535000000002
decision_type=2 2 2 2 2 2 2 2 2 2 2
left_child=10 5 3 7 -5 6 9 -3 -8 -2 -1
right_child=1 2 -4 4 -6 -7 8 -9 -10 -11 -12
leaf_value=0.015710582786850932 0 0.0032922527493953898 0.017389931640040091 -0.018887689252158026 -0.0034869266928018411 0.010212175051833408 0.019333574930613415 -0.011000772981927937 0 -0.016654003818735805 0.026454608317543708
leaf_weight=111.4537420719862 22.05869622528553 223.52590437233448 28.445833683013916 283.42932416498661 269.29674699902534 230.84259809553623 20.449678838253021 48.064077854156494 49.377830818295479 39.542932644486427 66.484717220067978
leaf_count=540 93 949 121 1259 1143 1001 87 219 208 163 323
internal_value=0 -0.00283348 -0.00655655 -0.00744374 -0.0114738 0.00579626 -0.00159424 0.000581407 0.00635909 -0.0113886 0.0200102
internal_weight=0 1215.03 852.762 824.316 552.726 362.272 131.429 271.59 69.8275 61.6016 177.938
internal_count=6106 5243 3691 3570 2402 1552 551 1168 295 256 863
is_linear=0
shrinkage=0.042883


Tree=39
num_leaves=16
num_cat=0
split_feature=5 15 6 9 15 26 6 28 30 12 3 29 10 10 26
split_gain=42.076 21.9027 11.9854 11.7118 7.94604 6.34609 4.68702 3.887 2.36522 1.47633 2.67288 1.84176 0.842308 0.811938 0.792791
threshold=0.81165500000000013 5.4500000000000002 1.2116650000000002 38.833335000000012 2.6500000000000004 1.0000000180025095e-35 0.9995750000000001 5.5702350000000012 13.897465000000002 0.33611000000000008 2.5000000000000004 0.95765000000000011 26.500000000000004 47.500000000000007 0.45000000000000001
decision_type=2 2 2 2 2 2 2 2 2 2 2 2 2 2 2
left_child=9 2 3 4 -2 -4 12 -5 13 10 -1 -11 -3 -8 -7
right_child=1 6 5 7 -6 14 8 -9 -10 11 -12 -13 -14 -15 -16
leaf_value=0.0040475343746724183 0.0036411786876303009 -0.009942401790790133 -0.0068467776955907153 0 -0.0056124963324814753 0.014301447759463929 -0.0060350827176553334 -0.015791416258796296 -0.016083494311371075 0.028977746274336805 0.026322466986163424 0.014725797525791954 -0.025160478171008895 0.0042608339780160738 0.029054050700385487
leaf_weight=37.308889865875244 485.82806077599525 20.242438167333603 21.305781662464142 33.717855110764503 261.90966741740704 77.869385197758675 32.553957566618919 127.21559536457062 40.260221675038338 66.343396544456482 18.065098196268082 48.296523883938789 80.679439052939415 20.473505303263664 17.768384009599686
leaf_count=179 2063 86 92 145 1101 330 138 568 195 325 98 231 384 96 75
internal_value=0 -0.00270025 -0.000151462 -0.00186149 0.00033489 0.012712 -0.0159039 -0.0123601 -0.00812337 0.0200639 0.0122233 0.0234146 -0.0226007 -0.0011492 0.0175771
internal_weight=0 1219.82 1025.61 908.671 747.738 116.944 194.21 160.933 93.2877 170.014 55.374 114.64 100.922 53.0275 95.6378
internal_count=6106 5273 4374 3877 3164 497 899 713 429 833 277 556 470 234 405
is_linear=0
shrinkage=0.042883


Tree=40
num_leaves=16
num_cat=0
split_feature=9 13 5 3 28 22 10 3 2 22 21 15 7 30 7
split_gain=25.4621 17.7456 23.8998 10.2032 9.57483 9.28382 8.46171 6.80927 9.83413 4.34586 3.46106 2.77931 2.12594 2.00567 1.70599
threshold=13.500000000000002 6.658335000000001 0.84073000000000009 5.5000000000000009 3.8446500000000001 281.16111000000006 104.83333500000002 3.5000000000000004 9.2675650000000029 79.428000000000011 5.8111100000000002 4.1500000000000012 1.0525150000000003 12.947700000000003 0.9435150000000001
decision_type=2 2 2 2 2 2 2 2 2 2 2 2 2 2 2
left_child=7 2 -2 6 -3 9 -4 8 10 -6 -1 -12 -7 -5 -9
right_child=1 4 3 13 5 12 -8 14 -10 -11 11 -13 -14 -15 -16
leaf_value=0.013879029299458046 0.021094998652846097 0.021131764308528062 -0.0091131683754472267 0.016249331613351261 0.020321219360857273 -0.013654504279638352 -0.024561211210187537 0.024148247926770335 0.016113818169207289 0.0025483262892112223 0.001537611480359169 -0.0096493692115803571 0 0 0.006382541982683382
leaf_weight=31.39704430103302 48.754444226622581 56.292888149619102 511.34543466567993 28.575327306985855 40.903039634227753 62.627127557992935 80.760366171598434 61.120530605316162 115.89892087876797 87.193234905600548 141.3685297369957 55.074447646737099 26.662740021944046 16.74845078587532 21.795840546488762
leaf_count=157 222 240 2203 121 175 289 368 320 512 367 614 227 120 71 100
internal_value=0 -0.00378954 -0.00750108 -0.00976735 0.0053389 0.00101845 -0.011306 0.008799 0.00593287 0.00861305 0.000536617 -0.0013563 -0.00933314 0.00924765 0.0200751
internal_weight=0 959.863 686.184 637.43 273.679 217.386 592.106 426.655 343.739 128.096 227.84 196.443 89.2899 45.3238 82.9164
internal_count=6106 4176 2985 2763 1191 951 2571 1930 1510 542 998 841 409 192 420
is_linear=0
shrinkage=0.042883


Tree=41
num_leaves=22
num_cat=0
split_feature=15 1 9 7 16 2 29 27 10 29 2 7 6 29 6 13 6 30 10 16 20
split_gain=27.987 15.3197 13.1582 9.11025 5.70591 5.19466 8.31769 4.71215 5.09425 4.55591 3.96454 3.82678 3.5782 5.07687 2.77974 2.58119 2.43532 2.19507 2.04603 0.615191 0.344482
threshold=3.3833350000000002 27.833335000000002 32.833335000000012 0.22041500000000003 40.745000000000012 6.5700000000000012 0.91394500000000012 0.35000000000000003 83.500000000000014 0.83920000000000006 8.0808850000000021 0.86824500000000004 1.0388500000000003 0.90516000000000008 0.93508500000000006 1.5694450000000002 1.0058400000000003 12.132000000000001 75.833335000000019 17.643335000000004 0.11730000000000002
decision_type=2 2 2 2 2 2 2 2 2 2 2 2 2 2 2 2 2 2 2 2 2
left_child=1 3 4 17 14 19 -7 8 9 -3 -9 18 13 -4 -2 -14 -16 -1 -6 -5 -12
right_child=2 7 12 5 11 6 -8 10 -10 -11 20 -13 15 -15 16 -17 -18 -19 -20 -21 -22
leaf_value=0.014981644393808238 -0.0048512518639115014 0.0079110100237943619 -0.0085144600744901551 0.0038021797609079384 0.0010874138471914261 0.021135586207980037 0.0024137717613059635 -0.0066467149066335622 -0.014029466918053641 -0.0046664431885404057 0.0076200799582796623 -0.011678142854779541 -0.020577948929957002 -0.029215696593701261 0.0017928715592480126 0 0.020353438064392528 0.029347300505609835 -0.013769267922218928 -0.0035217705286900453 0.01793792252770695
leaf_weight=116.28432983160019 23.86111244559288 75.386681795120239 42.061840668320656 22.593794405460358 113.00037769973278 75.05039644241333 120.80996686220169 24.170951530337334 69.343426391482353 172.35736083984375 42.726746842265129 122.62195029854774 17.726830631494522 73.824062898755074 34.54145236313343 36.71225118637085 29.837961003184319 37.613043487071991 19.409232035279274 85.119115620851517 28.287303552031517
leaf_count=578 101 312 203 106 480 327 523 101 296 718 177 531 86 369 144 175 123 190 85 364 117
internal_value=0 0.00477652 -0.00784617 0.0101893 -0.00284028 0.00564709 0.00984214 -0.00111349 -0.00372618 -0.000642317 0.00707696 -0.00618879 -0.017643 -0.0221339 0.00628587 -0.0071718 0.0111648 0.0188248 -0.000734884 -0.00153471 0.012431
internal_weight=0 869.743 513.597 457.471 343.272 303.573 195.86 412.272 317.087 247.744 95.185 255.032 170.325 115.886 88.2405 54.4391 64.3794 153.897 132.41 107.713 71.0141
internal_count=6106 3809 2297 2088 1464 1320 850 1721 1326 1030 395 1096 833 572 368 261 267 768 565 470 294
is_linear=0
shrinkage=0.042883


Tree=42
num_leaves=19
num_cat=0
split_feature=9 15 27 5 3 30 3 22 4 1 28 26 8 2 29 1 2 2
split_gain=25.4424 23.8273 19.0963 9.56522 9.04527 4.85983 4.24875 13.2152 5.29385 3.31046 2.81773 4.40447 3.46888 2.55919 2.86266 1.53835 1.25637 0.12918
threshold=21.500000000000004 5.1833350000000005 0.14444500000000002 0.92022500000000018 3.5000000000000004 8.572535000000002 1.0000000180025095e-35 10.552780000000002 1.0000000180025095e-35 16.833335000000002 7.811135000000001 0.41111000000000003 1.2944450000000003 18.473665000000004 0.58101500000000017 16.500000000000004 11.11575 7.2043500000000007
decision_type=2 2 2 2 2 2 2 2 2 2 2 2 2 2 2 2 2 2
left_child=4 2 3 -2 6 -3 7 17 -9 -5 12 -12 -4 14 -6 -8 -16 -1
right_child=1 5 10 9 13 -7 15 8 -10 -11 11 -13 -14 -15 16 -17 -18 -19
leaf_value=0.011833038628069763 0.019597204046507187 -0.0026867585290344391 0 0 0.025702026160927746 -0.023710712879690832 0.0020385915447954915 -0.0017777098321930256 0.014862398380682504 -0.014723838708592235 0 0.015679521084686444 0.020747536829791087 0.032478210381141043 0.011972364047190287 0.02029949856029821 0 0.020416604148618046
leaf_weight=49.441407769918442 17.407466918230057 30.44033719599247 23.200980022549629 29.486106678843498 28.670419275760651 127.56173308193684 19.06863634288311 431.57259652018547 38.01193043589592 177.17217253148556 128.47661805152893 44.306975439190865 52.296877652406693 19.521342739462852 57.324471607804298 38.454268559813499 28.51216995716095 51.239648386836052
leaf_count=235 73 137 96 128 155 637 87 1806 158 784 543 183 219 94 276 163 134 250
internal_value=0 -0.00555068 -0.000621275 -0.00978916 0.00608524 -0.0199708 0.00382356 0.00259862 -0.00032465 -0.0125073 0.0074584 0.0040385 0.0146285 0.0163068 0.0130998 0.0151004 0.00830079 0.0166985
internal_weight=0 630.349 472.347 224.066 761.817 158.002 627.788 570.266 469.585 206.658 248.281 172.784 75.4979 134.028 114.507 57.5229 85.8366 100.681
internal_count=6158 2800 2026 985 3358 774 2699 2449 1964 912 1041 726 315 659 565 250 410 485
is_linear=0
shrinkage=0.042883


Tree=43
num_leaves=22
num_cat=0
split_feature=15 1 28 21 21 26 28 2 26 30 11 24 21 10 27 15 12 20 20 15 22
split_gain=35.3281 16.9686 8.01638 7.96647 7.21976 5.38911 4.95952 7.86499 4.93302 15.2601 5.35363 3.79231 3.20293 2.82816 2.22437 1.84058 1.7412 1.56611 1.38947 0.058252 0.0253547
threshold=1.7166650000000001 29.833335000000002 13.701415000000003 364.62222500000001 44.358335000000004 0.21666500000000002 9.5205150000000014 5.1908500000000002 0.16111500000000004 9.7059850000000019 26.350000000000005 114.18333500000001 252.46666500000001 22.500000000000004 0.14444500000000002 5.1833350000000005 14.705555000000002 -0.16539999999999996 -1.4333999999999996 4.1833350000000005 260.78333000000003
decision_type=2 2 2 2 2 2 2 2 2 2 2 2 2 2 2 2 2 2 2 2 2
left_child=2 8 4 11 14 15 7 -6 9 12 13 -4 -2 -10 -1 19 -11 -8 -12 -3 -7
right_child=1 5 3 -5 6 20 17 -9 10 16 18 -13 -14 -15 -16 -17 -18 -19 -20 -21 -22
leaf_value=0.012947020570429783 -0.00024368193186077261 -0.015623697672678745 0.01817017522952704 -0.02571707988357199 -0.0013277719813076872 -0.0018525332005587352 -0.0055430913217855834 0.014435948392787525 -0.013079164592044135 -0.012005096368748506 0.0022172963874155355 -0.0056376602460163792 0.013941849405844406 0.0021504306026419533 0.025414031412479297 -0.024789798666589261 -0.027236814691334051 0.0037032587129868658 0.014386733699996228 -0.0072946678960118267 -0.0068617007203573849
leaf_weight=108.26574000716209 163.22697496414185 78.609228566288948 21.226081714034081 23.58295650780201 74.786596536636353 52.031805410981178 55.921147719025612 197.96477337181568 33.655966132879257 49.61986993253231 36.212963744997978 24.757386445999146 34.076259225606918 55.751757308840752 56.892758071422577 73.995354056358337 38.987074449658394 84.362519979476929 72.716405063867569 28.280336230993271 23.717911660671234
leaf_count=552 690 354 98 101 316 217 237 841 140 219 155 103 149 234 284 382 185 351 308 136 106
internal_value=0 -0.00559487 0.00810676 -0.00519276 0.00979121 -0.0145183 0.00656869 0.0099376 -0.000763716 -0.00445212 0.00430909 0.00431974 0.00196763 -0.00305112 0.017548 -0.0186232 -0.0192772 0 0.0107908 -0.0138816 -0.00406601
internal_weight=0 740.882 647.76 69.5664 578.194 256.635 413.035 272.751 484.247 285.91 198.337 45.9835 197.303 89.4077 165.158 180.885 88.6069 140.284 108.929 106.89 75.7497
internal_count=6158 3275 2883 302 2581 1195 1745 1157 2080 1243 837 201 839 374 836 872 404 588 463 490 323
is_linear=0
shrinkage=0.042883


Tree=44
num_leaves=16
num_cat=0
split_feature=9 27 27 29 25 15 25 7 20 7 15 17 5 1 30
split_gain=27.2816 18.7303 12.5869 12.4959 9.20741 7.01047 5.60671 5.65457 5.10532 5.1197 5.03705 3.06777 1.70168 1.30062 0.910135
threshold=12.500000000000002 1.0000000180025095e-35 0.35000000000000003 0.95765000000000011 4.1472400000000009 5.783335000000001 3.0775450000000002 0.49757000000000007 7.787300000000001 0.80075000000000018 5.7166650000000008 1.8786650000000003 1.1851300000000002 16.833335000000002 11.920535000000003
decision_type=2 2 2 2 2 2 2 2 2 2 2 2 2 2 2
left_child=6 5 3 10 -5 11 7 14 9 -4 -3 13 -9 -2 -1
right_child=1 2 8 4 -6 -7 -8 12 -10 -11 -12 -13 -14 -15 -16
leaf_value=0.012320312409172732 -0.0012752599178613923 0.0067927472967194607 0.014310219777364359 -0.0056737056337612711 -0.028738124143892471 -0.030732361731896665 0.029003052057759 0.0052487707426863706 0.02979338676847678 0 -0.010884300339073515 0.0046502893996439648 -0.0055218293638114469 -0.013231316701691342 0.023485750607724006
leaf_weight=133.14320161938667 29.122974395751953 211.90465284883976 86.484332323074341 281.00646044313908 37.778769850730896 38.413274094462395 30.092017412185669 157.46932612359524 21.821296393871307 92.338638171553612 32.562019988894463 19.554883942008018 28.330540701746941 154.80139920115471 30.521639779210091
leaf_count=652 127 909 374 1233 166 192 135 681 93 387 156 87 124 683 159
internal_value=0 -0.00293629 0.000295484 -0.00292454 -0.00856751 -0.0133376 0.0105455 0.00880926 0.00957238 0.00681806 0.00423673 -0.00980167 0.00334409 -0.0116028 0.014712
internal_weight=0 1005.79 763.896 563.252 318.785 241.893 379.557 349.465 200.644 178.823 244.467 203.479 185.8 183.924 163.665
internal_count=6158 4407 3318 2464 1399 1089 1751 1616 854 761 1065 897 805 810 811
is_linear=0
shrinkage=0.042883


Tree=45
num_leaves=17
num_cat=0
split_feature=23 3 27 28 13 26 17 11 7 3 15 7 25 2 15 29
split_gain=21.275 17.5347 13.1999 17.4663 10.4219 9.138 4.9466 4.15109 3.6159 0.833802 1.08668 0.562643 0.54365 0.517634 0.238772 0.996544
threshold=31.833335000000002 8.5000000000000018 0.51666500000000004 9.4994150000000008 6.1305550000000002 0.27778000000000008 2.9200000000000004 78.927775000000011 0.85463500000000014 14.500000000000002 3.4500000000000006 0.18343000000000001 1.7173450000000001 14.706420000000003 3.6833350000000005 1.0715150000000004
decision_type=2 2 2 2 2 2 2 2 2 2 2 2 2 2 2 2
left_child=6 2 3 4 -2 -5 8 -4 9 10 -1 -8 -3 -9 15 -10
right_child=1 12 7 5 -6 -7 11 13 14 -11 -12 -13 -14 -15 -16 -17
leaf_value=0.013123330481043189 -0.0027031691931873234 0.021109530710593932 0.02074862737616559 -0.014739286186081569 0.013736296509509294 0.00018652556716903168 0.036089439409380079 -0.0022533061911468423 0.0032260595460441646 0.022662372239165989 0.0044843443117401219 0.015358013852498483 0.00859183547150426 0.005787945050196453 0.0036410911785590937 -0.008522342860570728
leaf_weight=109.19932687282562 371.99093480408192 50.288949236273766 45.555451184511185 344.96728473901749 87.302396535873413 88.403719499707222 15.811989620327948 19.859977632761002 35.907068073749542 19.169940516352654 63.023294270038605 17.699222713708878 25.962945386767387 28.48741227388382 39.044175416231155 19.973470032215118
leaf_count=534 1585 237 196 1589 370 373 89 83 160 111 264 83 118 119 159 88
internal_value=0 -0.00218785 -0.00376021 -0.00540613 0.000318874 -0.0115837 0.0104143 0.0113601 0.00833429 0.0117555 0.0102474 0.0266631 0.0174989 0.0014891 0.000921805 -0.0001178
internal_weight=0 1062.82 986.567 892.664 459.293 433.371 319.828 93.9028 286.317 191.393 172.223 33.5112 76.2519 48.3474 94.9247 55.8805
internal_count=6158 4670 4315 3917 1955 1962 1488 398 1316 909 798 172 355 202 407 248
is_linear=0
shrinkage=0.042883


Tree=46
num_leaves=14
num_cat=0
split_feature=3 15 22 29 30 22 10 6 1 26 1 29 1
split_gain=26.2987 24.9998 17.8334 11.2852 10.8427 6.623 3.1968 2.6214 1.83582 1.13968 1.82578 1.09406 1.09276
threshold=7.5000000000000009 5.3500000000000005 7.1972200000000006 0.94077500000000014 4.5140850000000006 544.72222500000009 95.833335000000019 0.94242000000000015 27.166665000000005 0.050000000000000003 26.166665000000005 1.0465300000000004 19.833335000000002
decision_type=2 2 2 2 2 2 2 2 2 2 2 2 2
left_child=1 2 11 8 12 -5 7 -6 -4 -2 -11 -1 -3
right_child=9 4 3 5 6 -7 -8 -9 -10 10 -12 -13 -14
leaf_value=0.023793028570822144 0.0085815711062669914 0.01051193142001779 0.0089071971363454648 -0.0024976907238612508 -0.028123732812382972 -0.01847686405365485 -0.031307956497228548 -0.011293120790151844 0.0025163772633064315 0.026062163377007765 0.010272642836531405 0.010028995776317728 -0.0015188589816769501
leaf_weight=60.065879046916962 30.399622648954391 19.948690459132195 165.61117874085903 493.95889887213707 28.686601236462593 54.623769715428352 40.967509716749191 99.181958690285683 224.01896858215332 69.072364211082458 32.001125156879425 31.454392477869987 29.734825655817986
leaf_count=308 159 83 712 2092 137 251 215 471 953 357 136 156 128
internal_value=0 -0.00120843 0.00154529 -0.000167169 -0.0144004 -0.00418025 -0.0196149 -0.0154675 0.00535858 0.0189341 0.0215573 0.0196077 0.00235279
internal_weight=0 1248.25 1029.73 938.213 218.52 548.583 168.836 127.869 389.63 131.473 101.073 91.5203 49.6835
internal_count=6158 5506 4472 4008 1034 2343 823 608 1665 652 493 464 211
is_linear=0
shrinkage=0.042883


Tree=47
num_leaves=20
num_cat=0
split_feature=15 1 27 21 5 27 24 30 24 10 27 6 7 12 4 20 1 10 22
split_gain=24.9915 13.2419 13.7713 9.87075 10.6885 6.38385 4.26196 3.86974 3.84345 3.79099 2.50235 2.40503 2.37323 1.28798 1.21314 0.684862 1.93794 0.141212 0.0715002
threshold=2.1166650000000007 24.833335000000002 0.18333500000000005 10.002780000000001 0.96490500000000012 0.38333500000000004 360.28889000000004 14.984000000000004 4.1416650000000006 22.500000000000004 0.31666500000000003 1.0549250000000001 0.76186500000000013 60.038890000000002 1.0000000180025095e-35 -0.11987499999999998 5.8333350000000008 101.83333500000002 39.401445000000002
decision_type=2 2 2 2 2 2 2 2 2 2 2 2 2 2 2 2 2 2 2
left_child=3 6 9 15 13 8 11 10 -6 -3 -4 12 -2 14 -5 -1 -17 -11 -7
right_child=1 2 7 4 5 18 -8 -9 -10 17 -12 -13 -14 -15 -16 16 -18 -19 -20
leaf_value=0.0092400262832334785 0.006200766348342374 -0.0037370236811234735 -0.0015287474813787374 0.009858029677405282 0.0079761533534371178 0.014517945167522186 -0.011436862441518226 -0.0088136635854685254 -0.0040156666903339239 -0.017289992389542846 0.010736344859939897 0.012146332718328599 -0.003892951191828177 0.026493215679523809 0.025326490103114538 0.03641901892787737 0.014551821048005871 -0.025730879125292896 0.0075450681553963167
leaf_weight=17.197256982326508 96.72309872508049 44.401094764471054 56.232798710465431 147.65482456982136 57.623036369681358 33.165916532278061 33.974414929747581 68.118301659822464 280.35232050716877 162.04851956665516 54.883857786655426 59.23202121257782 71.488060608506203 18.400090456008911 15.385049894452093 23.09321616590023 27.709636762738228 36.628994673490524 72.094039976596832
leaf_count=97 418 191 245 697 244 151 157 310 1175 768 229 248 300 86 73 135 147 191 296
internal_value=0 -0.00512511 -0.00984188 0.00642288 0.00463346 0.000925786 0.00231073 -0.000541102 -0.00182618 -0.0164977 0.00409911 0.00458127 0.00162398 0.0134185 0.0116299 0.0221177 0.0254981 -0.0191026 0.0102137
internal_weight=0 683.731 422.314 692.675 624.675 443.235 261.418 179.235 337.975 243.079 111.117 227.443 168.211 181.44 163.04 68.0001 50.8029 198.678 105.26
internal_count=6158 3057 1934 3101 2722 1866 1123 784 1419 1150 474 966 718 856 770 379 282 959 447
is_linear=0
shrinkage=0.042883


Tree=48
num_leaves=17
num_cat=0
split_feature=27 9 5 3 13 28 19 11 1 5 1 6 22 22 28 1
split_gain=26.0012 17.5448 29.9708 17.6234 8.00962 5.46367 4.45143 3.35502 2.12335 1.79828 1.60744 1.25019 3.27213 1.06204 0.830128 0.108501
threshold=0.28333500000000006 46.833335000000012 0.79465000000000019 2.5000000000000004 16.397220000000001 13.074270000000002 0.0053000000000000009 91.658335000000008 14.500000000000002 0.59182500000000016 2.1666650000000005 0.93696000000000013 84.330555000000018 535.1319450000002 11.004265000000002 26.833335000000002
decision_type=2 2 2 2 2 2 2 2 2 2 2 2 2 2 2 2
left_child=1 2 9 4 -4 6 10 14 -5 -1 -2 -7 -13 -9 -3 -12
right_child=5 7 3 8 -6 11 -8 13 -10 -11 15 12 -14 -15 -16 -17
leaf_value=0.024118103296245738 0.022266422916101408 -0.017107621315934102 -0.0079577238940028404 0.021073900152512388 0.009985775735387158 0.010205433692467725 0.032719589276964833 0.0013146747761077307 0.0066621811877563466 0.011477242016993306 0.013493455843515459 -0.017949354288507812 0.0037771201077148701 -0.012523306672893713 -0.030415841734435563 0.0079160909883751861
leaf_weight=65.294455766677856 31.706788301467896 56.155376240611076 642.01948507130146 33.424501612782478 46.840134710073471 21.919206768274307 25.051663890480995 15.362303122878076 84.019662484526634 62.180424213409424 53.106264516711235 16.869008406996727 45.887150719761848 15.461840242147444 33.793604597449303 121.980324909091
leaf_count=355 139 279 2796 160 199 96 111 71 359 302 248 73 195 80 178 515
internal_value=0 -0.00294397 -0.00089928 -0.00400396 -0.00666606 0.0110646 0.0144909 -0.0183378 0.0111908 0.0183461 0.012033 0.00110634 -0.00131458 -0.00408278 -0.022675 0.00989111
internal_weight=0 1054.55 933.779 806.304 688.86 316.52 231.845 120.773 117.444 127.475 206.793 84.6754 62.7562 30.8241 89.949 175.087
internal_count=6156 4779 4171 3514 2995 1377 1013 608 519 657 902 364 268 151 457 763
is_linear=0
shrinkage=0.042883


Tree=49
num_leaves=16
num_cat=0
split_feature=15 3 9 2 11 16 1 22 6 19 26 8 7 16 10
split_gain=16.9988 28.0311 19.6111 12.1014 11.2326 6.09608 4.51863 4.51224 4.50078 4.11003 3.92682 1.83777 1.54657 0.229815 0.00389123
threshold=5.8500000000000005 1.0000000180025095e-35 17.166665000000005 4.9874300000000007 48.586110000000005 73.088335000000015 20.500000000000004 5.9361100000000011 0.90379000000000009 -0.44804999999999995 0.077780000000000002 6.1972200000000006 0.86475500000000005 236.16000000000003 41.833335000000012
decision_type=2 2 2 2 2 2 2 2 2 2 2 2 2 2 2
left_child=1 2 3 8 11 -2 -5 -3 -1 -9 -11 -4 -6 14 -7
right_child=5 7 4 6 12 13 -8 9 -10 10 -12 -13 -14 -15 -16
leaf_value=-0.021429520425978964 0.00085023944630782645 0.028613718294579687 -0.014281717371608499 0.017385976360054074 -0.0031696704323608037 -0.017675996749843458 0.0053473204315405325 0.025572108985877067 -0.00085676593277336864 0.00078174836986403087 0.012662064797116949 -0.0049218928512195954 0.004541834667217276 -0.022910528921725987 -0.0071869723493664306
